{"learner":{"attributes":{},"feature_names":[],"feature_types":[],"gradient_booster":{"model":{"gbtree_model_param":{"num_trees":"10","size_leaf_vector":"0"},
"tree_info":[0,0,0,0,0,0,0,0,0,0],
"trees":
[
{
"base_weights":[0.0,0.0,0.0,0.0,0.0,0.0,0.0,0.0,0.0,0.0,0.0,0.0,0.0,0.0,0.0,0.0,0.0,0.0,0.0,0.0,0.0,0.0,0.0,0.0,0.0,0.0,0.0,0.0,0.0,0.0,0.0,0.0,0.0,0.0,0.0,0.0,0.0,0.0,0.0,0.0,0.0,0.0,0.0,0.0,0.0,0.0,0.0,0.0,0.0,0.0,0.0,0.0,0.0,0.0,0.0,0.0,0.0,0.0,0.0,0.0,0.0,0.0,0.0,0.0,0.0,0.0,0.0,0.0,0.0,0.0,0.0,0.0,0.0,0.0,0.0,0.0,0.0,0.0,0.0,0.0,0.0,0.0,0.0,0.0,0.0,0.0,0.0,0.0,0.0,0.0,0.0,0.0,0.0,0.0,0.0,0.0,0.0,0.0,0.0,0.0,0.0,0.0,0.0,0.0,0.0,0.0,0.0,0.0,0.0],
"categories":[],"categories_nodes":[],"categories_segments":[],"categories_sizes":[],
"default_left":[true,true,true,true,true,true,true,true,true,true,true,true,true,true,true,true,false,true,true,true,true,true,true,true,true,true,true,true,true,true,true,true,false,true,true,true,true,true,true,true,false,true,true,true,true,true,true,true,true,false,true,true,false,true,false,true,true,true,false,true,true,false,false,false,false,false,false,false,false,false,false,false,false,false,false,false,false,false,false,false,false,false,false,false,false,false,false,false,false,false,false,false,false,false,false,false,false,false,false,false,false,false,false,false,false,false,false,false,false],
"id":0,
"left_children":[1,3,5,7,9,11,13,15,17,19,21,23,25,27,29,31,-1,33,35,37,39,41,43,45,47,49,51,53,55,57,59,61,-1,63,65,67,69,71,73,75,-1,77,79,81,83,85,87,89,91,-1,93,95,-1,97,-1,99,101,103,-1,105,107,-1,-1,-1,-1,-1,-1,-1,-1,-1,-1,-1,-1,-1,-1,-1,-1,-1,-1,-1,-1,-1,-1,-1,-1,-1,-1,-1,-1,-1,-1,-1,-1,-1,-1,-1,-1,-1,-1,-1,-1,-1,-1,-1,-1,-1,-1,-1,-1],
"loss_changes":[0.0,0.0,0.0,0.0,0.0,0.0,0.0,0.0,0.0,0.0,0.0,0.0,0.0,0.0,0.0,0.0,0.0,0.0,0.0,0.0,0.0,0.0,0.0,0.0,0.0,0.0,0.0,0.0,0.0,0.0,0.0,0.0,0.0,0.0,0.0,0.0,0.0,0.0,0.0,0.0,0.0,0.0,0.0,0.0,0.0,0.0,0.0,0.0,0.0,0.0,0.0,0.0,0.0,0.0,0.0,0.0,0.0,0.0,0.0,0.0,0.0,0.0,0.0,0.0,0.0,0.0,0.0,0.0,0.0,0.0,0.0,0.0,0.0,0.0,0.0,0.0,0.0,0.0,0.0,0.0,0.0,0.0,0.0,0.0,0.0,0.0,0.0,0.0,0.0,0.0,0.0,0.0,0.0,0.0,0.0,0.0,0.0,0.0,0.0,0.0,0.0,0.0,0.0,0.0,0.0,0.0,0.0,0.0,0.0],
"parents":[2147483647,0,0,1,1,2,2,3,3,4,4,5,5,6,6,7,7,8,8,9,9,10,10,11,11,12,12,13,13,14,14,15,15,17,17,18,18,19,19,20,20,21,21,22,22,23,23,24,24,25,25,26,26,27,27,28,28,29,29,30,30,31,31,33,33,34,34,35,35,36,36,37,37,38,38,39,39,41,41,42,42,43,43,44,44,45,45,46,46,47,47,48,48,50,50,51,51,53,53,55,55,56,56,57,57,59,59,60,60],
"right_children":[2,4,6,8,10,12,14,16,18,20,22,24,26,28,30,32,-1,34,36,38,40,42,44,46,48,50,52,54,56,58,60,62,-1,64,66,68,70,72,74,76,-1,78,80,82,84,86,88,90,92,-1,94,96,-1,98,-1,100,102,104,-1,106,108,-1,-1,-1,-1,-1,-1,-1,-1,-1,-1,-1,-1,-1,-1,-1,-1,-1,-1,-1,-1,-1,-1,-1,-1,-1,-1,-1,-1,-1,-1,-1,-1,-1,-1,-1,-1,-1,-1,-1,-1,-1,-1,-1,-1,-1,-1,-1,-1],
"split_conditions":[4.4556739999999997e-03,1.8000000000000000e+01,4.8006079999999996e-03,2.2138570000000001e-03,3.5500000000000000e+01,1.4000000000000000e+01,1.3728610000000000e-02,8.4881320000000007e-03,4.1518709999999997e-03,2.0000000000000000e+01,9.0456879999999996e-03,3.5855680000000001e-02,9.8237540000000005e-03,3.5500000000000000e+01,5.1803780000000002e-03,3.0472210000000001e-03,-5.9233230000000003e-01,1.6487320000000000e+01,3.6013320000000001e-02,3.1905100000000001e-03,2.4000000000000000e+01,3.1917159999999998e-03,3.1999849999999998e-03,2.5044279999999999e-02,4.1259490000000003e-02,3.5500000000000000e+01,1.5528000000000000e-02,1.0000000000000000e+01,3.7500000000000000e+01,1.4000000000000000e+01,1.2463050000000000e-02,7.0000000000000000e+00,5.5384619999999996e-01,5.5000000000000000e+00,1.0500000000000000e+01,2.0497709999999999e-02,3.4688459999999998e-03,9.9701800000000004e-03,3.7744129999999999e-03,1.5500000000000000e+01,-5.9724120000000003e-01,1.4901160000000000e-08,6.9775510000000001e+00,9.2649459999999996e-03,3.2478749999999999e-03,2.2850519999999999e-02,1.0500000000000000e+01,2.9705260000000001e-02,3.6052619999999997e+01,-3.3333340000000000e-01,4.1500000000000000e+01,3.7428120000000000e+01,-5.9525030000000001e-01,1.3540660000000000e-02,-5.6016600000000005e-01,2.8198600000000000e-03,6.1313849999999996e-03,3.6286960000000000e-02,-5.9531429999999996e-01,3.6500000000000000e+01,3.2490779999999997e-02,1.4999999999999999e-01,-5.3333339999999996e-01,-4.9090909999999999e-01,5.8838599999999996e-01,1.5266270000000001e-01,5.0140499999999999e-01,2.3899370000000000e-01,4.9823190000000001e-01,-5.2440949999999997e-01,-1.1506850000000001e-02,-0.0000000000000000e+00,-5.6521739999999998e-01,5.2800000000000002e-01,-1.6000000000000000e-01,-5.6153850000000005e-01,-1.2558140000000001e-01,6.6666669999999997e-02,-5.7512960000000002e-01,6.6666669999999997e-02,5.7751759999999996e-01,-2.8000000000000003e-01,-5.9677199999999997e-01,-4.8648650000000002e-02,-5.3469390000000006e-01,1.8499490000000000e-03,-3.1181989999999998e-01,-4.2352940000000000e-01,3.4685500000000002e-01,-5.8016529999999999e-01,-6.2295080000000003e-02,-5.6723550000000000e-01,-3.4736840000000002e-01,5.4782609999999998e-01,1.4999999999999999e-01,-5.1604939999999999e-01,-2.6086959999999999e-02,-3.9767439999999998e-01,1.3043479999999999e-01,5.5478260000000001e-01,-1.7142859999999999e-01,-5.1428569999999996e-01,2.8000000000000003e-01,-2.4812400000000001e-01,-5.4003749999999995e-01,-5.3122530000000001e-01,-7.8688519999999998e-02,-5.7152890000000001e-01,-5.9783480000000000e-01],
"split_indices":[6,3,6,5,3,3,7,7,6,3,7,8,7,3,6,6,0,4,8,5,3,6,5,7,8,3,7,3,3,3,8,1,0,0,0,7,5,7,6,0,0,6,4,7,5,8,0,7,4,0,1,4,0,7,0,5,6,8,0,3,8,0,0,0,0,0,0,0,0,0,0,0,0,0,0,0,0,0,0,0,0,0,0,0,0,0,0,0,0,0,0,0,0,0,0,0,0,0,0,0,0,0,0,0,0,0,0,0,0],
"split_type":[0,0,0,0,0,0,0,0,0,0,0,0,0,0,0,0,0,0,0,0,0,0,0,0,0,0,0,0,0,0,0,0,0,0,0,0,0,0,0,0,0,0,0,0,0,0,0,0,0,0,0,0,0,0,0,0,0,0,0,0,0,0,0,0,0,0,0,0,0,0,0,0,0,0,0,0,0,0,0,0,0,0,0,0,0,0,0,0,0,0,0,0,0,0,0,0,0,0,0,0,0,0,0,0,0,0,0,0,0],
"sum_hessian":[0.0,0.0,0.0,0.0,0.0,0.0,0.0,0.0,0.0,0.0,0.0,0.0,0.0,0.0,0.0,0.0,0.0,0.0,0.0,0.0,0.0,0.0,0.0,0.0,0.0,0.0,0.0,0.0,0.0,0.0,0.0,0.0,0.0,0.0,0.0,0.0,0.0,0.0,0.0,0.0,0.0,0.0,0.0,0.0,0.0,0.0,0.0,0.0,0.0,0.0,0.0,0.0,0.0,0.0,0.0,0.0,0.0,0.0,0.0,0.0,0.0,0.0,0.0,0.0,0.0,0.0,0.0,0.0,0.0,0.0,0.0,0.0,0.0,0.0,0.0,0.0,0.0,0.0,0.0,0.0,0.0,0.0,0.0,0.0,0.0,0.0,0.0,0.0,0.0,0.0,0.0,0.0,0.0,0.0,0.0,0.0,0.0,0.0,0.0,0.0,0.0,0.0,0.0,0.0,0.0,0.0,0.0,0.0,0.0],
"tree_param":{"num_deleted":"0","num_feature":"9","num_nodes":"109","size_leaf_vector":"0"}
},
{
"base_weights":[0.0,0.0,0.0,0.0,0.0,0.0,0.0,0.0,0.0,0.0,0.0,0.0,0.0,0.0,0.0,0.0,0.0,0.0,0.0,0.0,0.0,0.0,0.0,0.0,0.0,0.0,0.0,0.0,0.0,0.0,0.0,0.0,0.0,0.0,0.0,0.0,0.0,0.0,0.0,0.0,0.0,0.0,0.0,0.0,0.0,0.0,0.0,0.0,0.0,0.0,0.0,0.0,0.0,0.0,0.0,0.0,0.0,0.0,0.0,0.0,0.0,0.0,0.0,0.0,0.0,0.0,0.0,0.0,0.0,0.0,0.0,0.0,0.0,0.0,0.0,0.0,0.0,0.0,0.0,0.0,0.0,0.0,0.0,0.0,0.0,0.0,0.0,0.0,0.0,0.0,0.0,0.0,0.0,0.0,0.0,0.0,0.0,0.0,0.0,0.0,0.0,0.0,0.0,0.0,0.0,0.0,0.0,0.0,0.0,0.0,0.0,0.0,0.0,0.0,0.0],
"categories":[],"categories_nodes":[],"categories_segments":[],"categories_sizes":[],
"default_left":[true,true,true,true,true,true,true,true,true,true,true,true,true,true,true,true,false,true,true,true,true,true,true,true,true,true,true,true,true,true,true,true,false,true,true,true,true,true,true,false,true,true,true,true,true,true,true,true,true,false,true,true,true,true,true,true,true,true,true,true,true,false,false,false,false,false,false,false,false,false,false,false,false,false,false,false,false,false,false,false,false,false,false,false,false,false,false,false,false,false,false,false,false,false,false,false,false,false,false,false,false,false,false,false,false,false,false,false,false,false,false,false,false,false,false],
"id":1,
"left_children":[1,3,5,7,9,11,13,15,17,19,21,23,25,27,29,31,-1,33,35,37,39,41,43,45,47,49,51,53,55,57,59,61,-1,63,65,67,69,71,73,-1,75,77,79,81,83,85,87,89,91,-1,93,95,97,99,101,103,105,107,109,111,113,-1,-1,-1,-1,-1,-1,-1,-1,-1,-1,-1,-1,-1,-1,-1,-1,-1,-1,-1,-1,-1,-1,-1,-1,-1,-1,-1,-1,-1,-1,-1,-1,-1,-1,-1,-1,-1,-1,-1,-1,-1,-1,-1,-1,-1,-1,-1,-1,-1,-1,-1,-1,-1,-1],
"loss_changes":[0.0,0.0,0.0,0.0,0.0,0.0,0.0,0.0,0.0,0.0,0.0,0.0,0.0,0.0,0.0,0.0,0.0,0.0,0.0,0.0,0.0,0.0,0.0,0.0,0.0,0.0,0.0,0.0,0.0,0.0,0.0,0.0,0.0,0.0,0.0,0.0,0.0,0.0,0.0,0.0,0.0,0.0,0.0,0.0,0.0,0.0,0.0,0.0,0.0,0.0,0.0,0.0,0.0,0.0,0.0,0.0,0.0,0.0,0.0,0.0,0.0,0.0,0.0,0.0,0.0,0.0,0.0,0.0,0.0,0.0,0.0,0.0,0.0,0.0,0.0,0.0,0.0,0.0,0.0,0.0,0.0,0.0,0.0,0.0,0.0,0.0,0.0,0.0,0.0,0.0,0.0,0.0,0.0,0.0,0.0,0.0,0.0,0.0,0.0,0.0,0.0,0.0,0.0,0.0,0.0,0.0,0.0,0.0,0.0,0.0,0.0,0.0,0.0,0.0,0.0],
"parents":[2147483647,0,0,1,1,2,2,3,3,4,4,5,5,6,6,7,7,8,8,9,9,10,10,11,11,12,12,13,13,14,14,15,15,17,17,18,18,19,19,20,20,21,21,22,22,23,23,24,24,25,25,26,26,27,27,28,28,29,29,30,30,31,31,33,33,34,34,35,35,36,36,37,37,38,38,40,40,41,41,42,42,43,43,44,44,45,45,46,46,47,47,48,48,50,50,51,51,52,52,53,53,54,54,55,55,56,56,57,57,58,58,59,59,60,60],
"right_children":[2,4,6,8,10,12,14,16,18,20,22,24,26,28,30,32,-1,34,36,38,40,42,44,46,48,50,52,54,56,58,60,62,-1,64,66,68,70,72,74,-1,76,78,80,82,84,86,88,90,92,-1,94,96,98,100,102,104,106,108,110,112,114,-1,-1,-1,-1,-1,-1,-1,-1,-1,-1,-1,-1,-1,-1,-1,-1,-1,-1,-1,-1,-1,-1,-1,-1,-1,-1,-1,-1,-1,-1,-1,-1,-1,-1,-1,-1,-1,-1,-1,-1,-1,-1,-1,-1,-1,-1,-1,-1,-1,-1,-1,-1,-1,-1],
"split_conditions":[4.3845480000000003e-03,1.8000000000000000e+01,4.7892999999999998e-03,2.2743320000000000e-03,3.5500000000000000e+01,1.2000000000000000e+01,1.3937800000000000e-02,8.4881320000000007e-03,3.4367960000000003e-02,2.0000000000000000e+01,8.7807700000000002e-03,3.4945060000000000e-02,9.8237540000000005e-03,3.5500000000000000e+01,4.9478539999999998e-03,1.8710940000000000e-03,-4.8082999999999998e-01,4.0599929999999996e-03,3.1589410000000002e-03,3.1905100000000001e-03,2.9820850000000002e-03,3.1917159999999998e-03,3.1999849999999998e-03,2.4827020000000002e-02,3.8890090000000001e-03,3.5500000000000000e+01,1.4000000000000000e+01,1.1597770000000000e-02,3.7500000000000000e+01,1.2000000000000000e+01,5.4223960000000003e-03,5.4927029999999999e-01,4.5609569999999999e-01,2.0000000000000000e+00,1.1500000000000000e+01,4.7500000000000000e+01,3.8185650000000002e-02,9.9701800000000004e-03,1.4208959999999999e+01,-4.6436349999999998e-01,1.0500000000000000e+01,3.2269730000000003e+01,2.8661120000000001e-03,9.2649459999999996e-03,3.7025780000000002e-03,1.0975730000000000e+01,3.0925120000000000e-03,4.5500000000000000e+01,4.1259490000000003e-02,-3.7281809999999999e-01,1.8489980000000000e-02,1.0058880000000000e+01,1.1002120000000001e-02,6.0000000000000000e+00,4.8612980000000000e-03,2.8198600000000000e-03,6.1313849999999996e-03,3.8810079999999997e-02,1.4000000000000000e+01,1.2000000000000000e+01,1.4461689999999999e-02,6.4721409999999993e-02,-4.1642740000000000e-01,4.5635700000000001e-01,3.2415020000000000e-01,1.4320880000000000e-01,3.9354660000000002e-01,-5.5824560000000001e-01,1.8914460000000001e-02,2.7687440000000002e-01,-5.6633160000000002e-02,-0.0000000000000000e+00,-4.3930170000000002e-01,3.8261099999999998e-01,-3.6963849999999998e-01,-4.6011160000000001e-01,-3.0932310000000002e-01,-4.5440500000000000e-01,-4.6915819999999997e-02,4.4505650000000002e-01,6.1899119999999997e-03,-2.5058740000000002e-01,-4.6168959999999998e-01,7.3052170000000000e-02,-3.9173580000000002e-01,1.0198580000000000e-01,-1.4818860000000000e-01,-4.9956990000000001e-01,2.9725859999999998e-01,-4.2730849999999998e-01,-1.3442910000000000e-01,3.6630009999999998e-02,-4.0809459999999997e-01,4.2892350000000001e-01,2.8508530000000001e-02,1.5233900000000000e-01,-3.5371659999999999e-01,-2.5352340000000001e-01,-4.5971679999999998e-01,2.4984799999999999e-01,-3.1406640000000002e-01,-2.8028510000000000e-02,-4.5820630000000001e-01,4.3154830000000000e-01,-2.0423400000000000e-01,-4.2664360000000001e-01,1.8134749999999999e-01,-7.6127600000000004e-02,-4.3897720000000001e-01,-3.5177219999999998e-01,-4.6083039999999997e-01,-3.5648010000000002e-01,-4.6073100000000000e-01,-2.0966319999999999e-01,-4.6022750000000001e-01],
"split_indices":[6,3,6,5,3,3,7,7,8,3,7,8,7,3,6,5,0,6,5,5,5,6,5,7,5,3,3,7,3,3,6,4,0,2,0,1,8,7,4,0,0,4,5,7,6,4,5,1,8,0,8,4,7,3,6,5,6,8,3,3,7,0,0,0,0,0,0,0,0,0,0,0,0,0,0,0,0,0,0,0,0,0,0,0,0,0,0,0,0,0,0,0,0,0,0,0,0,0,0,0,0,0,0,0,0,0,0,0,0,0,0,0,0,0,0],
"split_type":[0,0,0,0,0,0,0,0,0,0,0,0,0,0,0,0,0,0,0,0,0,0,0,0,0,0,0,0,0,0,0,0,0,0,0,0,0,0,0,0,0,0,0,0,0,0,0,0,0,0,0,0,0,0,0,0,0,0,0,0,0,0,0,0,0,0,0,0,0,0,0,0,0,0,0,0,0,0,0,0,0,0,0,0,0,0,0,0,0,0,0,0,0,0,0,0,0,0,0,0,0,0,0,0,0,0,0,0,0,0,0,0,0,0,0],
"sum_hessian":[0.0,0.0,0.0,0.0,0.0,0.0,0.0,0.0,0.0,0.0,0.0,0.0,0.0,0.0,0.0,0.0,0.0,0.0,0.0,0.0,0.0,0.0,0.0,0.0,0.0,0.0,0.0,0.0,0.0,0.0,0.0,0.0,0.0,0.0,0.0,0.0,0.0,0.0,0.0,0.0,0.0,0.0,0.0,0.0,0.0,0.0,0.0,0.0,0.0,0.0,0.0,0.0,0.0,0.0,0.0,0.0,0.0,0.0,0.0,0.0,0.0,0.0,0.0,0.0,0.0,0.0,0.0,0.0,0.0,0.0,0.0,0.0,0.0,0.0,0.0,0.0,0.0,0.0,0.0,0.0,0.0,0.0,0.0,0.0,0.0,0.0,0.0,0.0,0.0,0.0,0.0,0.0,0.0,0.0,0.0,0.0,0.0,0.0,0.0,0.0,0.0,0.0,0.0,0.0,0.0,0.0,0.0,0.0,0.0,0.0,0.0,0.0,0.0,0.0,0.0],
"tree_param":{"num_deleted":"0","num_feature":"9","num_nodes":"115","size_leaf_vector":"0"}
},
{
"base_weights":[0.0,0.0,0.0,0.0,0.0,0.0,0.0,0.0,0.0,0.0,0.0,0.0,0.0,0.0,0.0,0.0,0.0,0.0,0.0,0.0,0.0,0.0,0.0,0.0,0.0,0.0,0.0,0.0,0.0,0.0,0.0,0.0,0.0,0.0,0.0,0.0,0.0,0.0,0.0,0.0,0.0,0.0,0.0,0.0,0.0,0.0,0.0,0.0,0.0,0.0,0.0,0.0,0.0,0.0,0.0,0.0,0.0,0.0,0.0,0.0,0.0,0.0,0.0,0.0,0.0,0.0,0.0,0.0,0.0,0.0,0.0,0.0,0.0,0.0,0.0,0.0,0.0,0.0,0.0,0.0,0.0,0.0,0.0,0.0,0.0,0.0,0.0,0.0,0.0,0.0,0.0,0.0,0.0,0.0,0.0,0.0,0.0,0.0,0.0,0.0,0.0,0.0,0.0,0.0,0.0,0.0,0.0,0.0,0.0,0.0,0.0,0.0,0.0,0.0,0.0,0.0,0.0,0.0,0.0,0.0,0.0],
"categories":[],"categories_nodes":[],"categories_segments":[],"categories_sizes":[],
"default_left":[true,true,true,true,true,true,true,true,true,true,true,true,true,true,true,true,true,true,true,true,true,true,true,true,true,true,true,true,true,true,true,true,true,true,true,true,true,true,true,false,true,false,true,true,true,true,false,true,true,true,true,true,true,true,true,true,true,true,true,true,true,true,true,false,false,false,false,false,false,false,false,false,false,false,false,false,false,false,false,false,false,false,false,false,false,false,false,false,false,false,false,false,false,false,false,false,false,false,false,false,false,false,false,false,false,false,false,false,false,false,false,false,false,false,false,false,false,false,false,false,false],
"id":2,
"left_children":[1,3,5,7,9,11,13,15,17,19,21,23,25,27,29,31,33,35,37,39,41,43,45,47,49,51,53,55,57,59,61,63,65,67,69,71,73,75,77,-1,79,-1,81,83,85,87,-1,89,91,93,95,97,99,101,103,105,107,109,111,113,115,117,119,-1,-1,-1,-1,-1,-1,-1,-1,-1,-1,-1,-1,-1,-1,-1,-1,-1,-1,-1,-1,-1,-1,-1,-1,-1,-1,-1,-1,-1,-1,-1,-1,-1,-1,-1,-1,-1,-1,-1,-1,-1,-1,-1,-1,-1,-1,-1,-1,-1,-1,-1,-1,-1,-1,-1,-1,-1,-1],
"loss_changes":[0.0,0.0,0.0,0.0,0.0,0.0,0.0,0.0,0.0,0.0,0.0,0.0,0.0,0.0,0.0,0.0,0.0,0.0,0.0,0.0,0.0,0.0,0.0,0.0,0.0,0.0,0.0,0.0,0.0,0.0,0.0,0.0,0.0,0.0,0.0,0.0,0.0,0.0,0.0,0.0,0.0,0.0,0.0,0.0,0.0,0.0,0.0,0.0,0.0,0.0,0.0,0.0,0.0,0.0,0.0,0.0,0.0,0.0,0.0,0.0,0.0,0.0,0.0,0.0,0.0,0.0,0.0,0.0,0.0,0.0,0.0,0.0,0.0,0.0,0.0,0.0,0.0,0.0,0.0,0.0,0.0,0.0,0.0,0.0,0.0,0.0,0.0,0.0,0.0,0.0,0.0,0.0,0.0,0.0,0.0,0.0,0.0,0.0,0.0,0.0,0.0,0.0,0.0,0.0,0.0,0.0,0.0,0.0,0.0,0.0,0.0,0.0,0.0,0.0,0.0,0.0,0.0,0.0,0.0,0.0,0.0],
"parents":[2147483647,0,0,1,1,2,2,3,3,4,4,5,5,6,6,7,7,8,8,9,9,10,10,11,11,12,12,13,13,14,14,15,15,16,16,17,17,18,18,19,19,20,20,21,21,22,22,23,23,24,24,25,25,26,26,27,27,28,28,29,29,30,30,31,31,32,32,33,33,34,34,35,35,36,36,37,37,38,38,40,40,42,42,43,43,44,44,45,45,47,47,48,48,49,49,50,50,51,51,52,52,53,53,54,54,55,55,56,56,57,57,58,58,59,59,60,60,61,61,62,62],
"right_children":[2,4,6,8,10,12,14,16,18,20,22,24,26,28,30,32,34,36,38,40,42,44,46,48,50,52,54,56,58,60,62,64,66,68,70,72,74,76,78,-1,80,-1,82,84,86,88,-1,90,92,94,96,98,100,102,104,106,108,110,112,114,116,118,120,-1,-1,-1,-1,-1,-1,-1,-1,-1,-1,-1,-1,-1,-1,-1,-1,-1,-1,-1,-1,-1,-1,-1,-1,-1,-1,-1,-1,-1,-1,-1,-1,-1,-1,-1,-1,-1,-1,-1,-1,-1,-1,-1,-1,-1,-1,-1,-1,-1,-1,-1,-1,-1,-1,-1,-1,-1,-1],
"split_conditions":[1.2634449999999999e+01,1.6000000000000000e+01,4.6180240000000001e-03,4.6728500000000001e-03,1.3500000000000000e+01,1.4000000000000000e+01,1.4091350000000001e-02,4.2727329999999999e-03,5.0966170000000003e-03,3.6500000000000000e+01,9.7986219999999999e+00,1.0500000000000000e+01,9.2649459999999996e-03,3.5500000000000000e+01,5.1758359999999996e-03,2.3664300000000001e-03,1.9634889999999999e-02,3.1945080000000001e-02,5.4105869999999997e-03,3.5500000000000000e+01,4.5000000000000000e+00,4.2725999999999997e-03,4.0018980000000003e-03,1.2494359999999999e-02,4.2799079999999998e-03,2.8010769999999999e-03,1.6000000000000000e+01,1.2189090000000000e-02,4.1500000000000000e+01,1.2000000000000000e+01,1.5723560000000001e-02,6.7444419999999998e-03,3.9618600000000002e-03,3.6065300000000002e-03,9.5000000000000000e+00,4.2442970000000002e-03,3.8123400000000002e-02,2.6727979999999998e-02,3.5500000000000000e+01,-4.0267979999999998e-01,1.4901160000000000e-08,-3.9767419999999998e-01,3.7500000000000000e+01,3.0098890000000000e-03,7.7934910000000004e+00,2.6000000000000000e+01,-4.0047250000000001e-01,2.0000000000000000e+00,9.5000000000000000e+00,2.0000000000000000e+00,3.5999099999999999e-02,3.4694290000000000e-03,3.5500000000000000e+01,4.0780900000000004e-03,3.1365420000000000e-03,1.1426910000000000e-02,9.7194139999999991e-03,4.0000000000000000e+00,1.9834440000000001e+01,3.7438670000000000e-02,1.4000000000000000e+01,1.2678480000000000e+01,3.2150949999999998e-02,8.0754729999999997e-02,-4.1826219999999997e-01,3.9594710000000000e-01,3.5095710000000002e-01,1.9702090000000000e-01,-7.3831469999999996e-02,-4.2167749999999998e-01,2.8134189999999998e-01,-2.1546400000000000e-02,-3.4415160000000000e-01,2.8138890000000000e-01,-2.7346999999999999e-01,-1.3890490000000000e-02,-3.2698959999999999e-01,-3.9021200000000000e-01,-3.1033030000000000e-01,1.3320530000000000e-01,-3.2293699999999997e-01,4.5241439999999999e-01,-2.7700449999999999e-01,-3.0671979999999999e-01,3.7350830000000002e-01,1.9060980000000000e-01,-3.6241440000000003e-01,3.1219419999999998e-01,-3.8220559999999998e-01,3.4758240000000001e-01,-3.0393460000000000e-01,-5.2747699999999997e-01,-2.1046719999999999e-01,3.2508480000000001e-01,-2.6751910000000001e-01,1.3267609999999999e-01,-2.2379379999999999e-01,-1.4552140000000000e-01,-4.0590159999999997e-01,-2.0337580000000000e-01,3.8072650000000002e-01,1.8476970000000001e-01,-3.7395970000000001e-01,-4.0202189999999999e-01,-3.4009129999999999e-01,7.3770489999999994e-02,-2.6554280000000002e-01,9.1283550000000005e-02,-4.0562840000000000e-01,3.9578410000000003e-01,-3.6979360000000000e-01,2.6887100000000003e-01,-3.5325590000000001e-01,-1.2286460000000000e-01,-3.6556509999999998e-01,-3.2771810000000001e-01,-3.9746379999999998e-01,4.3718679999999999e-01,-3.1842359999999997e-01,-3.8123639999999998e-01,-4.0210649999999998e-01],
"split_indices":[4,3,6,6,0,3,7,6,6,3,4,0,7,3,6,5,7,7,6,2,0,6,6,7,6,6,3,8,1,3,8,7,6,5,0,5,8,8,1,0,6,0,3,5,4,3,0,2,0,2,8,7,3,6,5,7,7,2,4,8,3,4,8,0,0,0,0,0,0,0,0,0,0,0,0,0,0,0,0,0,0,0,0,0,0,0,0,0,0,0,0,0,0,0,0,0,0,0,0,0,0,0,0,0,0,0,0,0,0,0,0,0,0,0,0,0,0,0,0,0,0],
"split_type":[0,0,0,0,0,0,0,0,0,0,0,0,0,0,0,0,0,0,0,0,0,0,0,0,0,0,0,0,0,0,0,0,0,0,0,0,0,0,0,0,0,0,0,0,0,0,0,0,0,0,0,0,0,0,0,0,0,0,0,0,0,0,0,0,0,0,0,0,0,0,0,0,0,0,0,0,0,0,0,0,0,0,0,0,0,0,0,0,0,0,0,0,0,0,0,0,0,0,0,0,0,0,0,0,0,0,0,0,0,0,0,0,0,0,0,0,0,0,0,0,0],
"sum_hessian":[0.0,0.0,0.0,0.0,0.0,0.0,0.0,0.0,0.0,0.0,0.0,0.0,0.0,0.0,0.0,0.0,0.0,0.0,0.0,0.0,0.0,0.0,0.0,0.0,0.0,0.0,0.0,0.0,0.0,0.0,0.0,0.0,0.0,0.0,0.0,0.0,0.0,0.0,0.0,0.0,0.0,0.0,0.0,0.0,0.0,0.0,0.0,0.0,0.0,0.0,0.0,0.0,0.0,0.0,0.0,0.0,0.0,0.0,0.0,0.0,0.0,0.0,0.0,0.0,0.0,0.0,0.0,0.0,0.0,0.0,0.0,0.0,0.0,0.0,0.0,0.0,0.0,0.0,0.0,0.0,0.0,0.0,0.0,0.0,0.0,0.0,0.0,0.0,0.0,0.0,0.0,0.0,0.0,0.0,0.0,0.0,0.0,0.0,0.0,0.0,0.0,0.0,0.0,0.0,0.0,0.0,0.0,0.0,0.0,0.0,0.0,0.0,0.0,0.0,0.0,0.0,0.0,0.0,0.0,0.0,0.0],
"tree_param":{"num_deleted":"0","num_feature":"9","num_nodes":"121","size_leaf_vector":"0"}
},
{
"base_weights":[0.0,0.0,0.0,0.0,0.0,0.0,0.0,0.0,0.0,0.0,0.0,0.0,0.0,0.0,0.0,0.0,0.0,0.0,0.0,0.0,0.0,0.0,0.0,0.0,0.0,0.0,0.0,0.0,0.0,0.0,0.0,0.0,0.0,0.0,0.0,0.0,0.0,0.0,0.0,0.0,0.0,0.0,0.0,0.0,0.0,0.0,0.0,0.0,0.0,0.0,0.0,0.0,0.0,0.0,0.0,0.0,0.0,0.0,0.0,0.0,0.0,0.0,0.0,0.0,0.0,0.0,0.0,0.0,0.0,0.0,0.0,0.0,0.0,0.0,0.0,0.0,0.0,0.0,0.0,0.0,0.0,0.0,0.0,0.0,0.0,0.0,0.0,0.0,0.0,0.0,0.0,0.0,0.0,0.0,0.0,0.0,0.0,0.0,0.0,0.0,0.0,0.0,0.0,0.0,0.0,0.0,0.0,0.0,0.0,0.0,0.0,0.0,0.0,0.0,0.0,0.0,0.0,0.0,0.0,0.0,0.0,0.0,0.0],
"categories":[],"categories_nodes":[],"categories_segments":[],"categories_sizes":[],
"default_left":[true,true,true,true,true,true,true,true,true,true,true,true,true,true,true,true,true,true,true,true,true,true,true,true,true,true,true,true,true,true,true,true,true,true,true,true,true,true,true,true,true,true,false,true,true,false,true,true,true,true,true,true,true,true,true,true,true,true,true,true,true,true,true,false,false,false,false,false,false,false,false,false,false,false,false,false,false,false,false,false,false,false,false,false,false,false,false,false,false,false,false,false,false,false,false,false,false,false,false,false,false,false,false,false,false,false,false,false,false,false,false,false,false,false,false,false,false,false,false,false,false,false,false],
"id":3,
"left_children":[1,3,5,7,9,11,13,15,17,19,21,23,25,27,29,31,33,35,37,39,41,43,45,47,49,51,53,55,57,59,61,63,65,67,69,71,73,75,77,79,81,83,-1,85,87,-1,89,91,93,95,97,99,101,103,105,107,109,111,113,115,117,119,121,-1,-1,-1,-1,-1,-1,-1,-1,-1,-1,-1,-1,-1,-1,-1,-1,-1,-1,-1,-1,-1,-1,-1,-1,-1,-1,-1,-1,-1,-1,-1,-1,-1,-1,-1,-1,-1,-1,-1,-1,-1,-1,-1,-1,-1,-1,-1,-1,-1,-1,-1,-1,-1,-1,-1,-1,-1,-1,-1,-1],
"loss_changes":[0.0,0.0,0.0,0.0,0.0,0.0,0.0,0.0,0.0,0.0,0.0,0.0,0.0,0.0,0.0,0.0,0.0,0.0,0.0,0.0,0.0,0.0,0.0,0.0,0.0,0.0,0.0,0.0,0.0,0.0,0.0,0.0,0.0,0.0,0.0,0.0,0.0,0.0,0.0,0.0,0.0,0.0,0.0,0.0,0.0,0.0,0.0,0.0,0.0,0.0,0.0,0.0,0.0,0.0,0.0,0.0,0.0,0.0,0.0,0.0,0.0,0.0,0.0,0.0,0.0,0.0,0.0,0.0,0.0,0.0,0.0,0.0,0.0,0.0,0.0,0.0,0.0,0.0,0.0,0.0,0.0,0.0,0.0,0.0,0.0,0.0,0.0,0.0,0.0,0.0,0.0,0.0,0.0,0.0,0.0,0.0,0.0,0.0,0.0,0.0,0.0,0.0,0.0,0.0,0.0,0.0,0.0,0.0,0.0,0.0,0.0,0.0,0.0,0.0,0.0,0.0,0.0,0.0,0.0,0.0,0.0,0.0,0.0],
"parents":[2147483647,0,0,1,1,2,2,3,3,4,4,5,5,6,6,7,7,8,8,9,9,10,10,11,11,12,12,13,13,14,14,15,15,16,16,17,17,18,18,19,19,20,20,21,21,22,22,23,23,24,24,25,25,26,26,27,27,28,28,29,29,30,30,31,31,32,32,33,33,34,34,35,35,36,36,37,37,38,38,39,39,40,40,41,41,43,43,44,44,46,46,47,47,48,48,49,49,50,50,51,51,52,52,53,53,54,54,55,55,56,56,57,57,58,58,59,59,60,60,61,61,62,62],
"right_children":[2,4,6,8,10,12,14,16,18,20,22,24,26,28,30,32,34,36,38,40,42,44,46,48,50,52,54,56,58,60,62,64,66,68,70,72,74,76,78,80,82,84,-1,86,88,-1,90,92,94,96,98,100,102,104,106,108,110,112,114,116,118,120,122,-1,-1,-1,-1,-1,-1,-1,-1,-1,-1,-1,-1,-1,-1,-1,-1,-1,-1,-1,-1,-1,-1,-1,-1,-1,-1,-1,-1,-1,-1,-1,-1,-1,-1,-1,-1,-1,-1,-1,-1,-1,-1,-1,-1,-1,-1,-1,-1,-1,-1,-1,-1,-1,-1,-1,-1,-1,-1,-1,-1],
"split_conditions":[1.2704440000000000e+01,1.6000000000000000e+01,4.6485989999999998e-03,4.5134659999999998e-03,2.0000000000000000e+01,1.2000000000000000e+01,1.4091350000000001e-02,4.0488759999999999e-03,4.9478910000000003e-03,4.2441140000000002e-03,3.6500000000000000e+01,4.1808219999999998e-03,9.3229130000000004e-03,1.9436659999999999e-03,5.1901819999999998e-03,2.4343279999999999e-03,1.8608980000000001e-02,2.9639180000000001e-02,3.5122550000000002e-02,1.3500000000000000e+01,8.9324469999999998e+00,1.6500000000000000e+01,4.5000000000000000e+00,1.1500000000000000e+01,3.1781800000000001e-03,3.2738720000000002e-03,1.6000000000000000e+01,4.3500000000000000e+01,9.6247009999999994e-03,1.4000000000000000e+01,3.2150949999999998e-02,8.4575390000000000e-03,2.0000000000000000e+00,2.0765889999999999e-02,3.1200930000000000e-03,2.9386260000000001e-02,1.1500000000000000e+01,4.3640550000000004e-03,3.9500000000000000e+01,3.1682250000000002e-03,2.9740710000000000e-02,3.3007230000000002e-03,-3.7105810000000000e-01,3.5500000000000000e+01,3.5301370000000000e-03,-3.5871209999999998e-01,3.7500000000000000e+01,1.0629909999999999e-02,3.9946750000000002e+01,1.9880200000000001e-02,2.3295219999999998e-02,1.2500000000000000e+01,3.4500000000000000e+01,3.2457929999999999e-03,3.0222769999999999e-03,2.0000000000000000e+00,6.5000000000000000e+00,9.4223640000000008e-03,9.4352099999999994e-03,3.9545560000000000e-02,1.1440350000000000e-02,1.2000000000000000e+01,1.3059990000000001e+01,6.9243390000000002e-02,-4.1846939999999999e-01,3.5922579999999998e-01,2.3160700000000001e-01,1.5422040000000001e-01,-1.9596859999999999e-01,-4.9630600000000002e-01,3.0240200000000000e-01,3.7028850000000002e-02,-4.3216759999999999e-01,-2.5899759999999999e-01,2.4584860000000000e-01,-6.0350689999999999e-02,-2.9410619999999998e-01,-3.7237819999999999e-01,1.0363260000000001e-01,-4.3790730000000000e-01,-8.7619559999999999e-02,3.2883489999999999e-01,5.5156240000000002e-02,4.1621989999999998e-01,-2.4084810000000001e-01,-3.6857529999999999e-01,-2.4164369999999999e-01,1.9882069999999999e-01,-3.2297360000000003e-01,3.8213290000000000e-01,-2.4545449999999999e-01,3.1147670000000000e-01,-3.6710979999999997e-02,3.0846540000000000e-01,-3.7062390000000001e-01,1.2526699999999999e-01,-4.3908720000000001e-01,-9.3231800000000004e-02,1.6902429999999999e-01,-3.4078690000000000e-01,4.0112409999999998e-01,-1.7627029999999999e-01,3.4024729999999997e-01,-4.1472730000000002e-01,3.6016830000000000e-02,-3.6771330000000002e-01,-3.0164849999999999e-01,3.6210130000000001e-01,-1.6850019999999999e-01,-1.2199920000000000e-02,-3.7817070000000003e-01,9.8346779999999995e-02,3.6323640000000001e-01,1.0000829999999999e-01,-2.9041470000000003e-01,-1.1963600000000001e-01,-3.5538120000000001e-01,-1.3958319999999999e-01,-3.6206020000000000e-01,-2.9246699999999998e-01,-3.5724679999999998e-01,-2.9656790000000000e-01,-3.6749789999999999e-01],
"split_indices":[4,3,6,6,3,3,7,6,6,6,3,6,7,5,6,5,7,7,8,0,4,0,0,0,5,6,3,1,7,3,8,7,2,8,5,8,0,5,1,5,8,5,0,3,6,0,3,7,4,8,7,0,3,5,5,2,0,7,8,8,8,3,4,0,0,0,0,0,0,0,0,0,0,0,0,0,0,0,0,0,0,0,0,0,0,0,0,0,0,0,0,0,0,0,0,0,0,0,0,0,0,0,0,0,0,0,0,0,0,0,0,0,0,0,0,0,0,0,0,0,0,0,0],
"split_type":[0,0,0,0,0,0,0,0,0,0,0,0,0,0,0,0,0,0,0,0,0,0,0,0,0,0,0,0,0,0,0,0,0,0,0,0,0,0,0,0,0,0,0,0,0,0,0,0,0,0,0,0,0,0,0,0,0,0,0,0,0,0,0,0,0,0,0,0,0,0,0,0,0,0,0,0,0,0,0,0,0,0,0,0,0,0,0,0,0,0,0,0,0,0,0,0,0,0,0,0,0,0,0,0,0,0,0,0,0,0,0,0,0,0,0,0,0,0,0,0,0,0,0],
"sum_hessian":[0.0,0.0,0.0,0.0,0.0,0.0,0.0,0.0,0.0,0.0,0.0,0.0,0.0,0.0,0.0,0.0,0.0,0.0,0.0,0.0,0.0,0.0,0.0,0.0,0.0,0.0,0.0,0.0,0.0,0.0,0.0,0.0,0.0,0.0,0.0,0.0,0.0,0.0,0.0,0.0,0.0,0.0,0.0,0.0,0.0,0.0,0.0,0.0,0.0,0.0,0.0,0.0,0.0,0.0,0.0,0.0,0.0,0.0,0.0,0.0,0.0,0.0,0.0,0.0,0.0,0.0,0.0,0.0,0.0,0.0,0.0,0.0,0.0,0.0,0.0,0.0,0.0,0.0,0.0,0.0,0.0,0.0,0.0,0.0,0.0,0.0,0.0,0.0,0.0,0.0,0.0,0.0,0.0,0.0,0.0,0.0,0.0,0.0,0.0,0.0,0.0,0.0,0.0,0.0,0.0,0.0,0.0,0.0,0.0,0.0,0.0,0.0,0.0,0.0,0.0,0.0,0.0,0.0,0.0,0.0,0.0,0.0,0.0],
"tree_param":{"num_deleted":"0","num_feature":"9","num_nodes":"123","size_leaf_vector":"0"}
},
{
"base_weights":[0.0,0.0,0.0,0.0,0.0,0.0,0.0,0.0,0.0,0.0,0.0,0.0,0.0,0.0,0.0,0.0,0.0,0.0,0.0,0.0,0.0,0.0,0.0,0.0,0.0,0.0,0.0,0.0,0.0,0.0,0.0,0.0,0.0,0.0,0.0,0.0,0.0,0.0,0.0,0.0,0.0,0.0,0.0,0.0,0.0,0.0,0.0,0.0,0.0,0.0,0.0,0.0,0.0,0.0,0.0,0.0,0.0,0.0,0.0,0.0,0.0,0.0,0.0,0.0,0.0,0.0,0.0,0.0,0.0,0.0,0.0,0.0,0.0,0.0,0.0,0.0,0.0,0.0,0.0,0.0,0.0,0.0,0.0,0.0,0.0,0.0,0.0,0.0,0.0,0.0,0.0,0.0,0.0,0.0,0.0,0.0,0.0,0.0,0.0,0.0,0.0,0.0,0.0,0.0,0.0,0.0,0.0,0.0,0.0,0.0,0.0,0.0,0.0,0.0,0.0,0.0,0.0],
"categories":[],"categories_nodes":[],"categories_segments":[],"categories_sizes":[],
"default_left":[true,true,true,true,true,true,true,true,true,true,true,true,true,true,true,true,true,true,true,true,true,true,true,true,true,true,true,true,true,true,true,true,true,true,true,true,true,true,false,true,false,true,true,false,true,false,false,true,true,true,true,true,true,true,true,true,true,true,true,true,true,true,true,false,false,false,false,false,false,false,false,false,false,false,false,false,false,false,false,false,false,false,false,false,false,false,false,false,false,false,false,false,false,false,false,false,false,false,false,false,false,false,false,false,false,false,false,false,false,false,false,false,false,false,false,false,false],
"id":4,
"left_children":[1,3,5,7,9,11,13,15,17,19,21,23,25,27,29,31,33,35,37,39,41,43,45,47,49,51,53,55,57,59,61,63,65,67,69,71,73,75,-1,77,-1,79,81,-1,83,-1,-1,85,87,89,91,93,95,97,99,101,103,105,107,109,111,113,115,-1,-1,-1,-1,-1,-1,-1,-1,-1,-1,-1,-1,-1,-1,-1,-1,-1,-1,-1,-1,-1,-1,-1,-1,-1,-1,-1,-1,-1,-1,-1,-1,-1,-1,-1,-1,-1,-1,-1,-1,-1,-1,-1,-1,-1,-1,-1,-1,-1,-1,-1,-1,-1,-1],
"loss_changes":[0.0,0.0,0.0,0.0,0.0,0.0,0.0,0.0,0.0,0.0,0.0,0.0,0.0,0.0,0.0,0.0,0.0,0.0,0.0,0.0,0.0,0.0,0.0,0.0,0.0,0.0,0.0,0.0,0.0,0.0,0.0,0.0,0.0,0.0,0.0,0.0,0.0,0.0,0.0,0.0,0.0,0.0,0.0,0.0,0.0,0.0,0.0,0.0,0.0,0.0,0.0,0.0,0.0,0.0,0.0,0.0,0.0,0.0,0.0,0.0,0.0,0.0,0.0,0.0,0.0,0.0,0.0,0.0,0.0,0.0,0.0,0.0,0.0,0.0,0.0,0.0,0.0,0.0,0.0,0.0,0.0,0.0,0.0,0.0,0.0,0.0,0.0,0.0,0.0,0.0,0.0,0.0,0.0,0.0,0.0,0.0,0.0,0.0,0.0,0.0,0.0,0.0,0.0,0.0,0.0,0.0,0.0,0.0,0.0,0.0,0.0,0.0,0.0,0.0,0.0,0.0,0.0],
"parents":[2147483647,0,0,1,1,2,2,3,3,4,4,5,5,6,6,7,7,8,8,9,9,10,10,11,11,12,12,13,13,14,14,15,15,16,16,17,17,18,18,19,19,20,20,21,21,22,22,23,23,24,24,25,25,26,26,27,27,28,28,29,29,30,30,31,31,32,32,33,33,34,34,35,35,36,36,37,37,39,39,41,41,42,42,44,44,47,47,48,48,49,49,50,50,51,51,52,52,53,53,54,54,55,55,56,56,57,57,58,58,59,59,60,60,61,61,62,62],
"right_children":[2,4,6,8,10,12,14,16,18,20,22,24,26,28,30,32,34,36,38,40,42,44,46,48,50,52,54,56,58,60,62,64,66,68,70,72,74,76,-1,78,-1,80,82,-1,84,-1,-1,86,88,90,92,94,96,98,100,102,104,106,108,110,112,114,116,-1,-1,-1,-1,-1,-1,-1,-1,-1,-1,-1,-1,-1,-1,-1,-1,-1,-1,-1,-1,-1,-1,-1,-1,-1,-1,-1,-1,-1,-1,-1,-1,-1,-1,-1,-1,-1,-1,-1,-1,-1,-1,-1,-1,-1,-1,-1,-1,-1,-1,-1,-1,-1,-1],
"split_conditions":[1.3098990000000001e+01,1.6000000000000000e+01,4.7892999999999998e-03,4.4525690000000000e-03,1.3500000000000000e+01,1.6000000000000000e+01,1.4091350000000001e-02,4.0450390000000003e-03,5.4161890000000001e-03,3.5500000000000000e+01,4.2441140000000002e-03,3.2477970000000002e-02,9.3229130000000004e-03,1.9436659999999999e-03,5.1901819999999998e-03,2.5630910000000000e-03,1.1500000000000000e+01,3.2541340000000002e-02,5.9574500000000004e-03,2.6000000000000000e+01,3.9478669999999999e-03,2.9288340000000000e-03,7.7934910000000004e+00,4.0431449999999997e-03,3.2195449999999999e-03,2.8010769999999999e-03,3.0222769999999999e-03,2.0000000000000000e+00,1.0424440000000000e-02,1.2000000000000000e+01,3.2150949999999998e-02,8.4575390000000000e-03,2.0000000000000000e+00,2.0000000000000000e+00,2.0000000000000000e+00,2.5901000000000000e-02,3.5500000000000000e+01,3.5500000000000000e+01,-3.4798620000000002e-01,1.8724200000000000e-02,-3.4804479999999999e-01,1.4901160000000000e-08,2.0015590000000000e-03,-3.3627980000000002e-01,3.6076469999999999e-03,2.0565040000000001e-01,-3.4648810000000002e-01,9.5000000000000000e+00,2.5063450000000001e-02,3.4180040000000002e-02,3.6078170000000000e-02,3.4694290000000000e-03,3.4500000000000000e+01,1.0093230000000000e-02,3.7233689999999998e-03,3.7500000000000000e+01,4.6203479999999998e-03,3.8500000000000000e+01,1.0981140000000000e-02,1.1500000000000000e+01,1.6949320000000000e+01,1.2000000000000000e+01,8.0722660000000005e+01,1.5970999999999999e-01,-4.9209900000000001e-01,3.3466570000000001e-01,1.9114149999999999e-01,3.6680240000000003e-02,-5.3089980000000003e-01,2.6132990000000000e-01,-4.7286139999999999e-01,-7.6769720000000000e-02,1.9838749999999999e-01,-2.3328260000000001e-01,8.9496569999999998e-02,-3.0149350000000003e-01,-9.1231660000000006e-02,-9.7179329999999994e-02,-3.5981600000000002e-01,1.5272200000000000e-01,-3.3639120000000000e-01,3.2621739999999999e-01,-3.1880259999999999e-01,3.7766899999999998e-01,1.2020740000000001e-01,-8.7447020000000000e-02,2.7637109999999998e-01,-3.8786460000000002e-02,2.0857280000000000e-01,-5.7984619999999998e-01,-3.7411870000000003e-01,3.7267610000000000e-02,-1.6129660000000001e-01,-2.9456780000000001e-05,-3.4654230000000003e-01,-2.1236610000000000e-01,3.0302519999999999e-01,-2.0478130000000000e-01,-3.4631610000000002e-01,3.6547330000000000e-01,-3.1657449999999998e-01,3.2510580000000000e-01,-1.9256129999999999e-01,5.0840850000000000e-02,-4.0240320000000002e-01,3.2070690000000002e-01,-1.8716959999999999e-01,3.9888550000000002e-02,-2.9645060000000001e-01,-3.1937660000000001e-01,-9.5950759999999996e-02,-2.9257680000000003e-01,-3.4290739999999997e-01,-2.6066990000000001e-01,-3.3019440000000000e-01,-3.4548010000000001e-01,-1.1783960000000000e-01],
"split_indices":[4,3,6,6,0,3,7,6,6,3,6,8,7,5,6,5,0,8,6,3,6,5,4,6,5,6,5,2,8,3,8,7,2,2,2,7,1,1,0,7,0,6,5,0,6,0,0,0,7,8,8,7,3,7,6,3,8,1,7,0,4,3,4,0,0,0,0,0,0,0,0,0,0,0,0,0,0,0,0,0,0,0,0,0,0,0,0,0,0,0,0,0,0,0,0,0,0,0,0,0,0,0,0,0,0,0,0,0,0,0,0,0,0,0,0,0,0],
"split_type":[0,0,0,0,0,0,0,0,0,0,0,0,0,0,0,0,0,0,0,0,0,0,0,0,0,0,0,0,0,0,0,0,0,0,0,0,0,0,0,0,0,0,0,0,0,0,0,0,0,0,0,0,0,0,0,0,0,0,0,0,0,0,0,0,0,0,0,0,0,0,0,0,0,0,0,0,0,0,0,0,0,0,0,0,0,0,0,0,0,0,0,0,0,0,0,0,0,0,0,0,0,0,0,0,0,0,0,0,0,0,0,0,0,0,0,0,0],
"sum_hessian":[0.0,0.0,0.0,0.0,0.0,0.0,0.0,0.0,0.0,0.0,0.0,0.0,0.0,0.0,0.0,0.0,0.0,0.0,0.0,0.0,0.0,0.0,0.0,0.0,0.0,0.0,0.0,0.0,0.0,0.0,0.0,0.0,0.0,0.0,0.0,0.0,0.0,0.0,0.0,0.0,0.0,0.0,0.0,0.0,0.0,0.0,0.0,0.0,0.0,0.0,0.0,0.0,0.0,0.0,0.0,0.0,0.0,0.0,0.0,0.0,0.0,0.0,0.0,0.0,0.0,0.0,0.0,0.0,0.0,0.0,0.0,0.0,0.0,0.0,0.0,0.0,0.0,0.0,0.0,0.0,0.0,0.0,0.0,0.0,0.0,0.0,0.0,0.0,0.0,0.0,0.0,0.0,0.0,0.0,0.0,0.0,0.0,0.0,0.0,0.0,0.0,0.0,0.0,0.0,0.0,0.0,0.0,0.0,0.0,0.0,0.0,0.0,0.0,0.0,0.0,0.0,0.0],
"tree_param":{"num_deleted":"0","num_feature":"9","num_nodes":"117","size_leaf_vector":"0"}
},
{
"base_weights":[0.0,0.0,0.0,0.0,0.0,0.0,0.0,0.0,0.0,0.0,0.0,0.0,0.0,0.0,0.0,0.0,0.0,0.0,0.0,0.0,0.0,0.0,0.0,0.0,0.0,0.0,0.0,0.0,0.0,0.0,0.0,0.0,0.0,0.0,0.0,0.0,0.0,0.0,0.0,0.0,0.0,0.0,0.0,0.0,0.0,0.0,0.0,0.0,0.0,0.0,0.0,0.0,0.0,0.0,0.0,0.0,0.0,0.0,0.0,0.0,0.0,0.0,0.0,0.0,0.0,0.0,0.0,0.0,0.0,0.0,0.0,0.0,0.0,0.0,0.0,0.0,0.0,0.0,0.0,0.0,0.0,0.0,0.0,0.0,0.0,0.0,0.0,0.0,0.0,0.0,0.0,0.0,0.0,0.0,0.0,0.0,0.0,0.0,0.0,0.0,0.0,0.0,0.0,0.0,0.0,0.0,0.0,0.0,0.0,0.0,0.0,0.0,0.0],
"categories":[],"categories_nodes":[],"categories_segments":[],"categories_sizes":[],
"default_left":[true,true,true,true,true,true,true,true,true,true,true,true,true,true,true,true,true,true,true,true,false,true,true,true,true,true,true,true,true,true,true,true,true,true,true,true,true,true,true,true,true,false,false,false,true,true,true,true,true,true,true,true,true,true,true,false,true,true,true,true,true,false,false,false,false,false,false,false,false,false,false,false,false,false,false,false,false,false,false,false,false,false,false,false,false,false,false,false,false,false,false,false,false,false,false,false,false,false,false,false,false,false,false,false,false,false,false,false,false,false,false,false,false],
"id":5,
"left_children":[1,3,5,7,9,11,13,15,17,19,21,23,25,27,29,31,33,35,37,39,-1,41,43,45,47,49,51,53,55,57,59,61,63,65,67,69,71,73,75,77,79,-1,-1,-1,81,83,85,87,89,91,93,95,97,99,101,-1,103,105,107,109,111,-1,-1,-1,-1,-1,-1,-1,-1,-1,-1,-1,-1,-1,-1,-1,-1,-1,-1,-1,-1,-1,-1,-1,-1,-1,-1,-1,-1,-1,-1,-1,-1,-1,-1,-1,-1,-1,-1,-1,-1,-1,-1,-1,-1,-1,-1,-1,-1,-1,-1,-1,-1],
"loss_changes":[0.0,0.0,0.0,0.0,0.0,0.0,0.0,0.0,0.0,0.0,0.0,0.0,0.0,0.0,0.0,0.0,0.0,0.0,0.0,0.0,0.0,0.0,0.0,0.0,0.0,0.0,0.0,0.0,0.0,0.0,0.0,0.0,0.0,0.0,0.0,0.0,0.0,0.0,0.0,0.0,0.0,0.0,0.0,0.0,0.0,0.0,0.0,0.0,0.0,0.0,0.0,0.0,0.0,0.0,0.0,0.0,0.0,0.0,0.0,0.0,0.0,0.0,0.0,0.0,0.0,0.0,0.0,0.0,0.0,0.0,0.0,0.0,0.0,0.0,0.0,0.0,0.0,0.0,0.0,0.0,0.0,0.0,0.0,0.0,0.0,0.0,0.0,0.0,0.0,0.0,0.0,0.0,0.0,0.0,0.0,0.0,0.0,0.0,0.0,0.0,0.0,0.0,0.0,0.0,0.0,0.0,0.0,0.0,0.0,0.0,0.0,0.0,0.0],
"parents":[2147483647,0,0,1,1,2,2,3,3,4,4,5,5,6,6,7,7,8,8,9,9,10,10,11,11,12,12,13,13,14,14,15,15,16,16,17,17,18,18,19,19,21,21,22,22,23,23,24,24,25,25,26,26,27,27,28,28,29,29,30,30,31,31,32,32,33,33,34,34,35,35,36,36,37,37,38,38,39,39,40,40,44,44,45,45,46,46,47,47,48,48,49,49,50,50,51,51,52,52,53,53,54,54,56,56,57,57,58,58,59,59,60,60],
"right_children":[2,4,6,8,10,12,14,16,18,20,22,24,26,28,30,32,34,36,38,40,-1,42,44,46,48,50,52,54,56,58,60,62,64,66,68,70,72,74,76,78,80,-1,-1,-1,82,84,86,88,90,92,94,96,98,100,102,-1,104,106,108,110,112,-1,-1,-1,-1,-1,-1,-1,-1,-1,-1,-1,-1,-1,-1,-1,-1,-1,-1,-1,-1,-1,-1,-1,-1,-1,-1,-1,-1,-1,-1,-1,-1,-1,-1,-1,-1,-1,-1,-1,-1,-1,-1,-1,-1,-1,-1,-1,-1,-1,-1,-1,-1],
"split_conditions":[1.1315849999999999e+01,1.8000000000000000e+01,4.8583869999999996e-03,4.3441349999999998e-03,3.5500000000000000e+01,1.6000000000000000e+01,1.4842050000000001e-02,3.9618600000000002e-03,4.9478910000000003e-03,2.4000000000000000e+01,3.5000000000000000e+00,4.2481079999999996e-03,1.0093230000000000e-02,2.0000000000000000e+00,5.4223960000000003e-03,6.5000000000000000e+00,1.1500000000000000e+01,1.2500000000000000e+01,3.8421739999999998e-03,3.7301740000000002e-03,-3.3381509999999998e-01,1.4901160000000000e-08,3.4037459999999999e-04,1.1500000000000000e+01,6.0000000000000000e+00,3.1291230000000001e-03,3.1772960000000000e-03,3.7709160000000000e-03,4.7219009999999997e-03,1.2000000000000000e+01,1.3714400000000000e-02,7.3109489999999997e-03,1.1500000000000000e+01,3.4465990000000002e-02,3.7419470000000003e-02,1.0500000000000000e+01,2.6892780000000002e-02,3.0874760000000001e-02,3.5126629999999999e-02,2.9803090000000000e-03,1.2487010000000000e-02,1.2536720000000001e-01,-3.2498850000000001e-01,-2.4573809999999999e-01,4.0618540000000002e-03,1.0000000000000000e+01,3.7500000000000000e+01,1.0530210000000000e-02,2.7169209999999999e-02,3.0467859999999999e-02,3.4500000000000000e+01,4.9500000000000000e+01,3.8466239999999999e-03,2.2569680000000002e-02,6.0000000000000000e+00,1.2551490000000001e-01,1.0000000000000000e+01,3.1096439999999999e-02,1.0590540000000001e-02,8.0000000000000000e+00,3.2490280000000003e-02,-1.0373159999999999e-01,-4.7065639999999997e-01,2.7021020000000001e-01,3.2386189999999998e-01,5.0381719999999998e-02,-5.2496750000000003e-01,2.6450730000000000e-01,-3.3821740000000000e-01,-2.1477550000000001e-01,-1.5353769999999999e-02,1.5424110000000000e-02,2.1282799999999999e-01,2.3606330000000000e-01,-2.9229189999999999e-01,-1.9402749999999999e-01,-3.2383380000000000e-01,-2.7821030000000002e-01,2.7169919999999997e-01,1.3222039999999999e-01,-3.0656470000000002e-01,9.6604480000000006e-02,3.2939689999999999e-01,5.7501169999999997e-02,-5.4549590000000003e-01,9.8607680000000003e-02,2.6650509999999999e-01,3.6066670000000001e-01,-3.5307790000000000e-01,-6.8551989999999993e-02,1.0512470000000000e-01,-3.1049599999999999e-01,1.6209760000000001e-01,-2.7545999999999998e-01,2.9594150000000002e-01,-3.3120749999999999e-01,-1.6539599999999999e-01,2.9798259999999999e-01,-2.9507600000000000e-01,2.4103179999999999e-01,-2.6930979999999999e-01,2.2740340000000001e-01,-3.3927889999999999e-01,-1.2920309999999999e-01,-3.1494159999999999e-01,-4.2369879999999999e-02,-2.3715770000000000e-01,1.7463480000000001e-01,-3.2329710000000000e-01,2.4208060000000001e-01,-2.1191150000000000e-01,-2.9722910000000002e-01,-3.3215400000000000e-01],
"split_indices":[4,3,6,6,3,3,8,6,6,3,0,6,7,2,6,0,0,0,5,6,0,6,5,0,3,6,5,5,8,3,7,7,0,8,8,0,7,8,8,5,7,0,0,0,6,3,1,7,7,8,3,3,6,7,3,0,3,8,7,0,8,0,0,0,0,0,0,0,0,0,0,0,0,0,0,0,0,0,0,0,0,0,0,0,0,0,0,0,0,0,0,0,0,0,0,0,0,0,0,0,0,0,0,0,0,0,0,0,0,0,0,0,0],
"split_type":[0,0,0,0,0,0,0,0,0,0,0,0,0,0,0,0,0,0,0,0,0,0,0,0,0,0,0,0,0,0,0,0,0,0,0,0,0,0,0,0,0,0,0,0,0,0,0,0,0,0,0,0,0,0,0,0,0,0,0,0,0,0,0,0,0,0,0,0,0,0,0,0,0,0,0,0,0,0,0,0,0,0,0,0,0,0,0,0,0,0,0,0,0,0,0,0,0,0,0,0,0,0,0,0,0,0,0,0,0,0,0,0,0],
"sum_hessian":[0.0,0.0,0.0,0.0,0.0,0.0,0.0,0.0,0.0,0.0,0.0,0.0,0.0,0.0,0.0,0.0,0.0,0.0,0.0,0.0,0.0,0.0,0.0,0.0,0.0,0.0,0.0,0.0,0.0,0.0,0.0,0.0,0.0,0.0,0.0,0.0,0.0,0.0,0.0,0.0,0.0,0.0,0.0,0.0,0.0,0.0,0.0,0.0,0.0,0.0,0.0,0.0,0.0,0.0,0.0,0.0,0.0,0.0,0.0,0.0,0.0,0.0,0.0,0.0,0.0,0.0,0.0,0.0,0.0,0.0,0.0,0.0,0.0,0.0,0.0,0.0,0.0,0.0,0.0,0.0,0.0,0.0,0.0,0.0,0.0,0.0,0.0,0.0,0.0,0.0,0.0,0.0,0.0,0.0,0.0,0.0,0.0,0.0,0.0,0.0,0.0,0.0,0.0,0.0,0.0,0.0,0.0,0.0,0.0,0.0,0.0,0.0,0.0],
"tree_param":{"num_deleted":"0","num_feature":"9","num_nodes":"113","size_leaf_vector":"0"}
},
{
"base_weights":[0.0,0.0,0.0,0.0,0.0,0.0,0.0,0.0,0.0,0.0,0.0,0.0,0.0,0.0,0.0,0.0,0.0,0.0,0.0,0.0,0.0,0.0,0.0,0.0,0.0,0.0,0.0,0.0,0.0,0.0,0.0,0.0,0.0,0.0,0.0,0.0,0.0,0.0,0.0,0.0,0.0,0.0,0.0,0.0,0.0,0.0,0.0,0.0,0.0,0.0,0.0,0.0,0.0,0.0,0.0,0.0,0.0,0.0,0.0,0.0,0.0,0.0,0.0,0.0,0.0,0.0,0.0,0.0,0.0,0.0,0.0,0.0,0.0,0.0,0.0,0.0,0.0,0.0,0.0,0.0,0.0,0.0,0.0,0.0,0.0,0.0,0.0,0.0,0.0,0.0,0.0,0.0,0.0,0.0,0.0,0.0,0.0,0.0,0.0,0.0,0.0,0.0,0.0,0.0,0.0,0.0,0.0,0.0,0.0,0.0,0.0,0.0,0.0,0.0,0.0],
"categories":[],"categories_nodes":[],"categories_segments":[],"categories_sizes":[],
"default_left":[true,true,true,true,true,true,true,true,true,true,true,true,true,true,true,true,true,true,true,true,true,false,true,true,true,true,true,true,true,true,true,true,true,true,true,true,true,true,false,true,true,false,true,true,true,true,true,true,true,true,true,true,true,true,false,true,true,true,true,true,true,false,false,false,false,false,false,false,false,false,false,false,false,false,false,false,false,false,false,false,false,false,false,false,false,false,false,false,false,false,false,false,false,false,false,false,false,false,false,false,false,false,false,false,false,false,false,false,false,false,false,false,false,false,false],
"id":6,
"left_children":[1,3,5,7,9,11,13,15,17,19,21,23,25,27,29,31,33,35,37,39,41,-1,43,45,47,49,51,53,55,57,59,61,63,65,67,69,71,73,-1,75,77,-1,79,81,83,85,87,89,91,93,95,97,99,101,-1,103,105,107,109,111,113,-1,-1,-1,-1,-1,-1,-1,-1,-1,-1,-1,-1,-1,-1,-1,-1,-1,-1,-1,-1,-1,-1,-1,-1,-1,-1,-1,-1,-1,-1,-1,-1,-1,-1,-1,-1,-1,-1,-1,-1,-1,-1,-1,-1,-1,-1,-1,-1,-1,-1,-1,-1,-1,-1],
"loss_changes":[0.0,0.0,0.0,0.0,0.0,0.0,0.0,0.0,0.0,0.0,0.0,0.0,0.0,0.0,0.0,0.0,0.0,0.0,0.0,0.0,0.0,0.0,0.0,0.0,0.0,0.0,0.0,0.0,0.0,0.0,0.0,0.0,0.0,0.0,0.0,0.0,0.0,0.0,0.0,0.0,0.0,0.0,0.0,0.0,0.0,0.0,0.0,0.0,0.0,0.0,0.0,0.0,0.0,0.0,0.0,0.0,0.0,0.0,0.0,0.0,0.0,0.0,0.0,0.0,0.0,0.0,0.0,0.0,0.0,0.0,0.0,0.0,0.0,0.0,0.0,0.0,0.0,0.0,0.0,0.0,0.0,0.0,0.0,0.0,0.0,0.0,0.0,0.0,0.0,0.0,0.0,0.0,0.0,0.0,0.0,0.0,0.0,0.0,0.0,0.0,0.0,0.0,0.0,0.0,0.0,0.0,0.0,0.0,0.0,0.0,0.0,0.0,0.0,0.0,0.0],
"parents":[2147483647,0,0,1,1,2,2,3,3,4,4,5,5,6,6,7,7,8,8,9,9,10,10,11,11,12,12,13,13,14,14,15,15,16,16,17,17,18,18,19,19,20,20,22,22,23,23,24,24,25,25,26,26,27,27,28,28,29,29,30,30,31,31,32,32,33,33,34,34,35,35,36,36,37,37,39,39,40,40,42,42,43,43,44,44,45,45,46,46,47,47,48,48,49,49,50,50,51,51,52,52,53,53,55,55,56,56,57,57,58,58,59,59,60,60],
"right_children":[2,4,6,8,10,12,14,16,18,20,22,24,26,28,30,32,34,36,38,40,42,-1,44,46,48,50,52,54,56,58,60,62,64,66,68,70,72,74,-1,76,78,-1,80,82,84,86,88,90,92,94,96,98,100,102,-1,104,106,108,110,112,114,-1,-1,-1,-1,-1,-1,-1,-1,-1,-1,-1,-1,-1,-1,-1,-1,-1,-1,-1,-1,-1,-1,-1,-1,-1,-1,-1,-1,-1,-1,-1,-1,-1,-1,-1,-1,-1,-1,-1,-1,-1,-1,-1,-1,-1,-1,-1,-1,-1,-1,-1,-1,-1,-1],
"split_conditions":[1.3098990000000001e+01,1.6000000000000000e+01,4.9790820000000001e-03,4.2974770000000001e-03,2.6000000000000000e+01,1.2000000000000000e+01,1.8299309999999999e-02,3.9338760000000002e-03,5.4161890000000001e-03,2.3019000000000001e-02,3.5500000000000000e+01,2.9791189999999999e-02,1.0093230000000000e-02,3.3039850000000002e-03,3.4771110000000001e-02,2.5630910000000000e-03,1.2500000000000000e+01,4.0918820000000002e-02,5.9574500000000004e-03,2.0000000000000000e+00,1.5500000000000000e+01,-3.2422230000000002e-01,3.5000000000000000e+00,1.7500000000000000e+01,3.9500000000000000e+01,2.8017900000000002e-03,3.1999880000000000e-03,2.6128630000000000e-02,5.0530490000000004e-03,1.2000000000000000e+01,5.4094879999999996e-03,8.4575390000000000e-03,2.0000000000000000e+00,2.0000000000000000e+00,3.7160270000000002e-02,2.9639110000000000e-02,1.3004510000000000e+01,3.5049089999999998e-02,-3.2163619999999998e-01,8.5000000000000000e+00,7.1826840000000001e+00,-3.3019310000000002e-01,4.3163510000000004e-03,1.4901160000000000e-08,3.6500000000000000e+01,2.0000000000000000e+00,2.5662720000000000e-02,1.2500000000000000e+01,2.2580680000000001e+01,3.4694290000000000e-03,3.4500000000000000e+01,4.9500000000000000e+01,3.8998320000000002e-03,4.1500000000000000e+01,-3.1693430000000000e-01,2.1370909999999999e+01,4.0000000000000000e+00,6.1868410000000002e-03,1.2545100000000000e-02,1.0000000000000000e+01,8.0722660000000005e+01,9.6883280000000002e-02,-4.2939670000000002e-01,3.0471480000000001e-01,1.2400899999999999e-01,9.0782849999999998e-02,-5.1565970000000005e-01,2.6119619999999999e-01,-2.5486560000000003e-01,-7.6634049999999999e-03,1.4679380000000000e-01,-3.5591440000000002e-01,2.5794440000000002e-01,-1.0226100000000000e-01,-3.2203120000000002e-01,-2.9173139999999997e-01,1.7060620000000001e-01,-1.0180080000000000e-01,-3.5161930000000002e-01,2.6546449999999999e-01,-2.6824579999999998e-01,1.0354990000000000e-01,-3.1295709999999999e-01,-1.0752800000000000e-01,2.9305029999999999e-01,1.7097080000000001e-01,-4.1148930000000000e-01,-4.7034330000000002e-01,6.4316750000000006e-02,-3.2758050000000000e-01,-1.3401489999999999e-01,1.5184619999999999e-01,-1.5139859999999999e-01,6.9301950000000001e-02,-3.2041120000000001e-01,-1.7644580000000001e-01,2.4327430000000000e-01,-3.2014680000000001e-01,-1.4422769999999999e-01,2.2352359999999999e-01,-2.5083260000000002e-01,1.7696350000000000e-01,-1.8826780000000001e-01,2.1041280000000001e-01,-2.1978059999999999e-01,1.3733600000000001e-01,-2.7067560000000002e-01,-1.2319730000000000e-01,-3.2091150000000002e-01,1.4342130000000000e-01,-3.1189610000000001e-01,-2.4033460000000001e-01,-3.2167950000000001e-01,-3.2327980000000001e-01,5.4707760000000001e-02],
"split_indices":[4,3,6,6,3,3,8,6,6,7,3,8,7,5,8,5,0,8,6,2,0,0,0,0,1,6,5,7,6,3,6,7,2,2,8,7,4,8,0,0,4,0,6,6,1,2,7,0,4,7,3,3,6,1,0,4,3,6,7,3,4,0,0,0,0,0,0,0,0,0,0,0,0,0,0,0,0,0,0,0,0,0,0,0,0,0,0,0,0,0,0,0,0,0,0,0,0,0,0,0,0,0,0,0,0,0,0,0,0,0,0,0,0,0,0],
"split_type":[0,0,0,0,0,0,0,0,0,0,0,0,0,0,0,0,0,0,0,0,0,0,0,0,0,0,0,0,0,0,0,0,0,0,0,0,0,0,0,0,0,0,0,0,0,0,0,0,0,0,0,0,0,0,0,0,0,0,0,0,0,0,0,0,0,0,0,0,0,0,0,0,0,0,0,0,0,0,0,0,0,0,0,0,0,0,0,0,0,0,0,0,0,0,0,0,0,0,0,0,0,0,0,0,0,0,0,0,0,0,0,0,0,0,0],
"sum_hessian":[0.0,0.0,0.0,0.0,0.0,0.0,0.0,0.0,0.0,0.0,0.0,0.0,0.0,0.0,0.0,0.0,0.0,0.0,0.0,0.0,0.0,0.0,0.0,0.0,0.0,0.0,0.0,0.0,0.0,0.0,0.0,0.0,0.0,0.0,0.0,0.0,0.0,0.0,0.0,0.0,0.0,0.0,0.0,0.0,0.0,0.0,0.0,0.0,0.0,0.0,0.0,0.0,0.0,0.0,0.0,0.0,0.0,0.0,0.0,0.0,0.0,0.0,0.0,0.0,0.0,0.0,0.0,0.0,0.0,0.0,0.0,0.0,0.0,0.0,0.0,0.0,0.0,0.0,0.0,0.0,0.0,0.0,0.0,0.0,0.0,0.0,0.0,0.0,0.0,0.0,0.0,0.0,0.0,0.0,0.0,0.0,0.0,0.0,0.0,0.0,0.0,0.0,0.0,0.0,0.0,0.0,0.0,0.0,0.0,0.0,0.0,0.0,0.0,0.0,0.0],
"tree_param":{"num_deleted":"0","num_feature":"9","num_nodes":"115","size_leaf_vector":"0"}
},
{
"base_weights":[0.0,0.0,0.0,0.0,0.0,0.0,0.0,0.0,0.0,0.0,0.0,0.0,0.0,0.0,0.0,0.0,0.0,0.0,0.0,0.0,0.0,0.0,0.0,0.0,0.0,0.0,0.0,0.0,0.0,0.0,0.0,0.0,0.0,0.0,0.0,0.0,0.0,0.0,0.0,0.0,0.0,0.0,0.0,0.0,0.0,0.0,0.0,0.0,0.0,0.0,0.0,0.0,0.0,0.0,0.0,0.0,0.0,0.0,0.0,0.0,0.0,0.0,0.0,0.0,0.0,0.0,0.0,0.0,0.0,0.0,0.0,0.0,0.0,0.0,0.0,0.0,0.0,0.0,0.0,0.0,0.0,0.0,0.0,0.0,0.0,0.0,0.0,0.0,0.0,0.0,0.0,0.0,0.0,0.0,0.0,0.0,0.0,0.0,0.0,0.0,0.0,0.0,0.0],
"categories":[],"categories_nodes":[],"categories_segments":[],"categories_sizes":[],
"default_left":[true,true,true,true,true,true,true,true,true,true,true,true,true,false,true,true,true,true,true,true,true,true,true,false,true,true,true,true,true,true,true,true,true,true,true,true,true,true,true,true,true,true,true,true,true,true,false,true,true,true,true,true,false,true,true,false,false,false,false,false,false,false,false,false,false,false,false,false,false,false,false,false,false,false,false,false,false,false,false,false,false,false,false,false,false,false,false,false,false,false,false,false,false,false,false,false,false,false,false,false,false,false,false],
"id":7,
"left_children":[1,3,5,7,9,11,13,15,17,19,21,23,25,-1,27,29,31,33,35,37,39,41,43,-1,45,47,49,51,53,55,57,59,61,63,65,67,69,71,73,75,77,79,81,83,85,87,-1,89,91,93,95,97,-1,99,101,-1,-1,-1,-1,-1,-1,-1,-1,-1,-1,-1,-1,-1,-1,-1,-1,-1,-1,-1,-1,-1,-1,-1,-1,-1,-1,-1,-1,-1,-1,-1,-1,-1,-1,-1,-1,-1,-1,-1,-1,-1,-1,-1,-1,-1,-1,-1,-1],
"loss_changes":[0.0,0.0,0.0,0.0,0.0,0.0,0.0,0.0,0.0,0.0,0.0,0.0,0.0,0.0,0.0,0.0,0.0,0.0,0.0,0.0,0.0,0.0,0.0,0.0,0.0,0.0,0.0,0.0,0.0,0.0,0.0,0.0,0.0,0.0,0.0,0.0,0.0,0.0,0.0,0.0,0.0,0.0,0.0,0.0,0.0,0.0,0.0,0.0,0.0,0.0,0.0,0.0,0.0,0.0,0.0,0.0,0.0,0.0,0.0,0.0,0.0,0.0,0.0,0.0,0.0,0.0,0.0,0.0,0.0,0.0,0.0,0.0,0.0,0.0,0.0,0.0,0.0,0.0,0.0,0.0,0.0,0.0,0.0,0.0,0.0,0.0,0.0,0.0,0.0,0.0,0.0,0.0,0.0,0.0,0.0,0.0,0.0,0.0,0.0,0.0,0.0,0.0,0.0],
"parents":[2147483647,0,0,1,1,2,2,3,3,4,4,5,5,6,6,7,7,8,8,9,9,10,10,11,11,12,12,14,14,15,15,16,16,17,17,18,18,19,19,20,20,21,21,22,22,24,24,25,25,26,26,27,27,28,28,29,29,30,30,31,31,32,32,33,33,34,34,35,35,36,36,37,37,38,38,39,39,40,40,41,41,42,42,43,43,44,44,45,45,47,47,48,48,49,49,50,50,51,51,53,53,54,54],
"right_children":[2,4,6,8,10,12,14,16,18,20,22,24,26,-1,28,30,32,34,36,38,40,42,44,-1,46,48,50,52,54,56,58,60,62,64,66,68,70,72,74,76,78,80,82,84,86,88,-1,90,92,94,96,98,-1,100,102,-1,-1,-1,-1,-1,-1,-1,-1,-1,-1,-1,-1,-1,-1,-1,-1,-1,-1,-1,-1,-1,-1,-1,-1,-1,-1,-1,-1,-1,-1,-1,-1,-1,-1,-1,-1,-1,-1,-1,-1,-1,-1,-1,-1,-1,-1,-1,-1],
"split_conditions":[1.4000000000000000e+01,4.3446420000000001e-03,2.5116510000000002e-02,3.9364769999999999e-03,5.4224169999999997e-03,1.0500000000000000e+01,1.1500000000000000e+01,1.0500000000000000e+01,1.2500000000000000e+01,3.9748710000000000e-02,3.2124560000000003e-02,3.5500000000000000e+01,4.0293480000000003e-03,-3.1812750000000001e-01,3.0348960000000001e-02,1.1614080000000001e-02,1.6168279999999999e+01,1.0000000000000000e+01,1.6788770000000001e-02,2.9904159999999999e-02,4.3730080000000003e-03,6.1864479999999998e-03,8.2664109999999997e+00,-3.1484420000000002e-01,3.7500000000000000e+01,2.8532319999999998e-03,1.5567540000000000e-02,3.0312450000000001e-02,8.0722660000000005e+01,2.0470089999999998e-03,2.9891420000000002e-03,2.0000000000000000e+00,3.2595419999999998e-03,1.0500000000000000e+01,3.6847920000000001e-03,2.0557220000000001e-02,3.2659319999999999e-02,2.8336199999999999e-02,1.1500000000000000e+01,3.0413740000000002e-02,4.2392409999999998e-02,3.7432250000000000e-02,1.4326469999999999e-02,3.0500000000000000e+01,3.4709100000000000e-02,3.7500000000000000e+01,-3.2306889999999999e-01,9.2890030000000005e-03,3.5495020000000000e-03,2.1210799999999998e-02,8.9111729999999997e-03,3.2239429999999999e-03,6.4021779999999995e-01,2.1810150000000000e-02,4.1337939999999997e-02,-3.2754329999999998e-01,2.3499300000000001e-01,-5.2237180000000005e-01,-4.9037390000000000e-02,2.9546220000000001e-01,1.4256820000000001e-01,5.0921939999999999e-02,2.2996900000000001e-01,-1.2259160000000000e-01,8.7295260000000000e-02,-5.6419120000000000e-01,-2.9181840000000001e-02,3.8469330000000003e-02,-9.6047660000000001e-01,2.4680640000000001e-01,-1.8560070000000001e-02,8.0506669999999992e-03,-2.5724239999999998e-01,-1.8837820000000000e-01,1.7119740000000000e-01,4.2019210000000001e-01,4.4431180000000001e-02,-1.8322849999999999e-01,-3.1461879999999998e-01,-1.8837920000000000e-01,6.2111390000000000e-01,1.8650760000000000e-01,-3.1451459999999998e-01,-2.9421599999999998e-01,3.6472549999999998e-01,-2.7325420000000000e-01,-3.1674809999999998e-01,-2.2784160000000001e-01,2.2812530000000000e-01,2.2152359999999999e-01,-3.1828190000000001e-01,4.1874620000000001e-01,1.4016000000000001e-01,-1.0704519999999999e-01,5.3872770000000003e-01,1.7434179999999999e-01,-2.7863870000000002e-01,-3.0308150000000000e-01,-1.4127290000000001e-01,-1.1281880000000000e-01,-3.0803920000000001e-01,-1.8022520000000000e-01,2.7522720000000001e-01],
"split_indices":[3,6,7,6,6,0,0,0,0,8,8,3,6,0,7,7,4,3,7,7,6,6,4,0,3,5,8,7,4,5,5,2,5,0,5,8,8,8,0,7,8,7,7,1,8,1,0,7,6,7,7,5,0,8,7,0,0,0,0,0,0,0,0,0,0,0,0,0,0,0,0,0,0,0,0,0,0,0,0,0,0,0,0,0,0,0,0,0,0,0,0,0,0,0,0,0,0,0,0,0,0,0,0],
"split_type":[0,0,0,0,0,0,0,0,0,0,0,0,0,0,0,0,0,0,0,0,0,0,0,0,0,0,0,0,0,0,0,0,0,0,0,0,0,0,0,0,0,0,0,0,0,0,0,0,0,0,0,0,0,0,0,0,0,0,0,0,0,0,0,0,0,0,0,0,0,0,0,0,0,0,0,0,0,0,0,0,0,0,0,0,0,0,0,0,0,0,0,0,0,0,0,0,0,0,0,0,0,0,0],
"sum_hessian":[0.0,0.0,0.0,0.0,0.0,0.0,0.0,0.0,0.0,0.0,0.0,0.0,0.0,0.0,0.0,0.0,0.0,0.0,0.0,0.0,0.0,0.0,0.0,0.0,0.0,0.0,0.0,0.0,0.0,0.0,0.0,0.0,0.0,0.0,0.0,0.0,0.0,0.0,0.0,0.0,0.0,0.0,0.0,0.0,0.0,0.0,0.0,0.0,0.0,0.0,0.0,0.0,0.0,0.0,0.0,0.0,0.0,0.0,0.0,0.0,0.0,0.0,0.0,0.0,0.0,0.0,0.0,0.0,0.0,0.0,0.0,0.0,0.0,0.0,0.0,0.0,0.0,0.0,0.0,0.0,0.0,0.0,0.0,0.0,0.0,0.0,0.0,0.0,0.0,0.0,0.0,0.0,0.0,0.0,0.0,0.0,0.0,0.0,0.0,0.0,0.0,0.0,0.0],
"tree_param":{"num_deleted":"0","num_feature":"9","num_nodes":"103","size_leaf_vector":"0"}
},
{
"base_weights":[0.0,0.0,0.0,0.0,0.0,0.0,0.0,0.0,0.0,0.0,0.0,0.0,0.0,0.0,0.0,0.0,0.0,0.0,0.0,0.0,0.0,0.0,0.0,0.0,0.0,0.0,0.0,0.0,0.0,0.0,0.0,0.0,0.0,0.0,0.0,0.0,0.0,0.0,0.0,0.0,0.0,0.0,0.0,0.0,0.0,0.0,0.0,0.0,0.0,0.0,0.0,0.0,0.0,0.0,0.0,0.0,0.0,0.0,0.0,0.0,0.0,0.0,0.0,0.0,0.0,0.0,0.0,0.0,0.0,0.0,0.0,0.0,0.0,0.0,0.0,0.0,0.0,0.0,0.0,0.0,0.0,0.0,0.0,0.0,0.0,0.0,0.0,0.0,0.0,0.0,0.0,0.0,0.0,0.0,0.0,0.0,0.0,0.0,0.0,0.0,0.0,0.0,0.0,0.0,0.0,0.0,0.0,0.0,0.0,0.0,0.0,0.0,0.0,0.0,0.0,0.0,0.0,0.0,0.0,0.0,0.0],
"categories":[],"categories_nodes":[],"categories_segments":[],"categories_sizes":[],
"default_left":[true,true,true,true,true,true,true,true,true,true,true,true,true,true,true,true,true,true,true,true,true,true,true,true,true,true,true,true,true,true,true,true,true,false,true,true,false,true,true,true,true,true,true,true,true,true,true,true,true,true,true,true,true,true,false,true,true,true,true,true,true,true,true,false,false,false,false,false,false,false,false,false,false,false,false,false,false,false,false,false,false,false,false,false,false,false,false,false,false,false,false,false,false,false,false,false,false,false,false,false,false,false,false,false,false,false,false,false,false,false,false,false,false,false,false,false,false,false,false,false,false],
"id":8,
"left_children":[1,3,5,7,9,11,13,15,17,19,21,23,25,27,29,31,33,35,37,39,41,43,45,47,49,51,53,55,57,59,61,63,65,-1,67,69,-1,71,73,75,77,79,81,83,85,87,89,91,93,95,97,99,101,103,-1,105,107,109,111,113,115,117,119,-1,-1,-1,-1,-1,-1,-1,-1,-1,-1,-1,-1,-1,-1,-1,-1,-1,-1,-1,-1,-1,-1,-1,-1,-1,-1,-1,-1,-1,-1,-1,-1,-1,-1,-1,-1,-1,-1,-1,-1,-1,-1,-1,-1,-1,-1,-1,-1,-1,-1,-1,-1,-1,-1,-1,-1,-1,-1],
"loss_changes":[0.0,0.0,0.0,0.0,0.0,0.0,0.0,0.0,0.0,0.0,0.0,0.0,0.0,0.0,0.0,0.0,0.0,0.0,0.0,0.0,0.0,0.0,0.0,0.0,0.0,0.0,0.0,0.0,0.0,0.0,0.0,0.0,0.0,0.0,0.0,0.0,0.0,0.0,0.0,0.0,0.0,0.0,0.0,0.0,0.0,0.0,0.0,0.0,0.0,0.0,0.0,0.0,0.0,0.0,0.0,0.0,0.0,0.0,0.0,0.0,0.0,0.0,0.0,0.0,0.0,0.0,0.0,0.0,0.0,0.0,0.0,0.0,0.0,0.0,0.0,0.0,0.0,0.0,0.0,0.0,0.0,0.0,0.0,0.0,0.0,0.0,0.0,0.0,0.0,0.0,0.0,0.0,0.0,0.0,0.0,0.0,0.0,0.0,0.0,0.0,0.0,0.0,0.0,0.0,0.0,0.0,0.0,0.0,0.0,0.0,0.0,0.0,0.0,0.0,0.0,0.0,0.0,0.0,0.0,0.0,0.0],
"parents":[2147483647,0,0,1,1,2,2,3,3,4,4,5,5,6,6,7,7,8,8,9,9,10,10,11,11,12,12,13,13,14,14,15,15,16,16,17,17,18,18,19,19,20,20,21,21,22,22,23,23,24,24,25,25,26,26,27,27,28,28,29,29,30,30,31,31,32,32,34,34,35,35,37,37,38,38,39,39,40,40,41,41,42,42,43,43,44,44,45,45,46,46,47,47,48,48,49,49,50,50,51,51,52,52,53,53,55,55,56,56,57,57,58,58,59,59,60,60,61,61,62,62],
"right_children":[2,4,6,8,10,12,14,16,18,20,22,24,26,28,30,32,34,36,38,40,42,44,46,48,50,52,54,56,58,60,62,64,66,-1,68,70,-1,72,74,76,78,80,82,84,86,88,90,92,94,96,98,100,102,104,-1,106,108,110,112,114,116,118,120,-1,-1,-1,-1,-1,-1,-1,-1,-1,-1,-1,-1,-1,-1,-1,-1,-1,-1,-1,-1,-1,-1,-1,-1,-1,-1,-1,-1,-1,-1,-1,-1,-1,-1,-1,-1,-1,-1,-1,-1,-1,-1,-1,-1,-1,-1,-1,-1,-1,-1,-1,-1,-1,-1,-1,-1,-1,-1],
"split_conditions":[1.0863989999999999e+01,8.5000000000000000e+00,1.2000000000000000e+01,8.0000000000000000e+00,4.1045480000000004e-03,4.9651829999999997e-03,1.7075070000000001e-02,1.0561289999999999e-02,3.5500000000000000e+01,1.1500000000000000e+01,4.2974190000000002e-03,3.5500000000000000e+01,3.4772220000000000e-02,3.5500000000000000e+01,1.2500000000000000e+01,5.5000000000000000e+00,4.1412840000000003e-03,1.6000000000000000e+01,3.5000000000000000e+00,1.1356190000000000e-02,3.3688049999999997e-02,3.2332119999999999e-02,2.7927250000000001e-02,2.7936670000000001e-03,2.0925670000000000e+01,3.8918239999999999e-03,5.4094879999999996e-03,1.6901670000000001e-02,3.9500000000000000e+01,1.1453120000000001e-02,4.2437940000000004e-03,6.4499220000000003e-03,2.2902679999999998e-03,-5.1754500000000003e-01,4.3939799999999996e-03,6.6020590000000004e-03,-3.1260280000000001e-01,6.6116240000000000e-04,4.4302600000000001e-04,2.3859780000000000e-03,3.7455790000000002e-03,2.0000000000000000e+01,2.5048780000000000e-02,2.5008150000000000e-02,2.7712210000000001e-02,4.6460929999999996e-03,4.9990829999999997e-03,7.3755310000000003e-03,3.6014739999999999e-03,4.1500000000000000e+01,9.0456849999999995e-03,1.0500000000000000e+01,3.4589000000000002e-02,4.2194769999999999e-02,-3.1141419999999997e-01,2.3379070000000002e-03,1.7628720000000001e+01,3.4735740000000001e-03,1.1500000000000000e+01,8.5000000000000000e+00,1.1500000000000000e+01,3.0222769999999999e-03,2.9864499999999999e-02,6.8705690000000000e-02,-3.1490269999999998e-01,3.1147700000000000e-02,3.1077270000000001e-01,1.9693800000000000e-01,-2.2929769999999999e-01,-1.3689530000000000e-01,-5.4427919999999996e-01,1.3059330000000000e-01,-2.8776760000000001e-01,-2.0334700000000001e-02,2.5414959999999998e-01,-2.6458189999999998e-01,2.4704160000000000e-01,1.1648350000000000e-01,-1.0797750000000000e-01,2.8493780000000002e-01,-2.3687150000000001e-01,-6.7450469999999996e-01,1.9937650000000001e-01,4.5788349999999998e-02,2.1057629999999999e-01,-4.8406369999999999e-01,-4.6286130000000002e-02,-1.0093779999999999e-01,-3.1144030000000000e-01,9.9513019999999994e-02,-1.6824140000000001e-01,6.9550749999999995e-02,-5.0250430000000001e-01,5.7835009999999999e-02,-1.9411719999999999e-01,8.7790080000000006e-02,2.4434570000000000e-01,3.0519380000000002e-01,-9.5619440000000000e-02,-2.4108330000000000e-01,1.3819110000000001e-01,-2.7847020000000000e-01,-5.1563440000000002e-02,-1.3754930000000001e-01,-3.0068390000000000e-01,-3.0493609999999999e-01,-1.9483629999999999e-01,-2.1474509999999999e-01,4.5521260000000002e-01,-1.8458949999999999e-01,2.2593890000000000e-01,-3.2146110000000000e-01,-1.4600710000000000e-01,-2.9944490000000001e-01,1.3243630000000001e-01,-3.1229440000000003e-01,-2.8013529999999998e-01,-3.0784919999999999e-01,2.0382339999999999e-01,-1.8625839999999999e-01,-2.9748100000000000e-01],
"split_indices":[4,0,3,3,6,6,7,7,3,0,5,1,8,3,0,0,5,3,0,7,8,8,7,5,4,5,6,7,3,8,6,8,5,0,5,7,0,7,5,5,6,3,7,7,7,6,6,7,5,1,7,0,7,8,0,5,4,6,0,0,0,5,8,0,0,0,0,0,0,0,0,0,0,0,0,0,0,0,0,0,0,0,0,0,0,0,0,0,0,0,0,0,0,0,0,0,0,0,0,0,0,0,0,0,0,0,0,0,0,0,0,0,0,0,0,0,0,0,0,0,0],
"split_type":[0,0,0,0,0,0,0,0,0,0,0,0,0,0,0,0,0,0,0,0,0,0,0,0,0,0,0,0,0,0,0,0,0,0,0,0,0,0,0,0,0,0,0,0,0,0,0,0,0,0,0,0,0,0,0,0,0,0,0,0,0,0,0,0,0,0,0,0,0,0,0,0,0,0,0,0,0,0,0,0,0,0,0,0,0,0,0,0,0,0,0,0,0,0,0,0,0,0,0,0,0,0,0,0,0,0,0,0,0,0,0,0,0,0,0,0,0,0,0,0,0],
"sum_hessian":[0.0,0.0,0.0,0.0,0.0,0.0,0.0,0.0,0.0,0.0,0.0,0.0,0.0,0.0,0.0,0.0,0.0,0.0,0.0,0.0,0.0,0.0,0.0,0.0,0.0,0.0,0.0,0.0,0.0,0.0,0.0,0.0,0.0,0.0,0.0,0.0,0.0,0.0,0.0,0.0,0.0,0.0,0.0,0.0,0.0,0.0,0.0,0.0,0.0,0.0,0.0,0.0,0.0,0.0,0.0,0.0,0.0,0.0,0.0,0.0,0.0,0.0,0.0,0.0,0.0,0.0,0.0,0.0,0.0,0.0,0.0,0.0,0.0,0.0,0.0,0.0,0.0,0.0,0.0,0.0,0.0,0.0,0.0,0.0,0.0,0.0,0.0,0.0,0.0,0.0,0.0,0.0,0.0,0.0,0.0,0.0,0.0,0.0,0.0,0.0,0.0,0.0,0.0,0.0,0.0,0.0,0.0,0.0,0.0,0.0,0.0,0.0,0.0,0.0,0.0,0.0,0.0,0.0,0.0,0.0,0.0],
"tree_param":{"num_deleted":"0","num_feature":"9","num_nodes":"121","size_leaf_vector":"0"}
},
{
"base_weights":[0.0,0.0,0.0,0.0,0.0,0.0,0.0,0.0,0.0,0.0,0.0,0.0,0.0,0.0,0.0,0.0,0.0,0.0,0.0,0.0,0.0,0.0,0.0,0.0,0.0,0.0,0.0,0.0,0.0,0.0,0.0,0.0,0.0,0.0,0.0,0.0,0.0,0.0,0.0,0.0,0.0,0.0,0.0,0.0,0.0,0.0,0.0,0.0,0.0,0.0,0.0,0.0,0.0,0.0,0.0,0.0,0.0,0.0,0.0,0.0,0.0,0.0,0.0,0.0,0.0,0.0,0.0,0.0,0.0,0.0,0.0,0.0,0.0,0.0,0.0,0.0,0.0,0.0,0.0,0.0,0.0,0.0,0.0,0.0,0.0,0.0,0.0,0.0,0.0,0.0,0.0,0.0,0.0,0.0,0.0,0.0,0.0,0.0,0.0,0.0,0.0,0.0,0.0,0.0,0.0,0.0,0.0],
"categories":[],"categories_nodes":[],"categories_segments":[],"categories_sizes":[],
"default_left":[true,true,true,true,true,true,true,true,true,true,true,true,true,false,true,true,true,true,true,true,true,true,true,true,true,true,true,true,true,true,true,true,true,true,true,true,true,true,true,true,true,true,true,false,true,true,true,true,true,true,true,true,true,true,false,true,false,false,false,false,false,false,false,false,false,false,false,false,false,false,false,false,false,false,false,false,false,false,false,false,false,false,false,false,false,false,false,false,false,false,false,false,false,false,false,false,false,false,false,false,false,false,false,false,false,false,false],
"id":9,
"left_children":[1,3,5,7,9,11,13,15,17,19,21,23,25,-1,27,29,31,33,35,37,39,41,43,45,47,49,51,53,55,57,59,61,63,65,67,69,71,73,75,77,79,81,83,-1,85,87,89,91,93,95,97,99,101,103,-1,105,-1,-1,-1,-1,-1,-1,-1,-1,-1,-1,-1,-1,-1,-1,-1,-1,-1,-1,-1,-1,-1,-1,-1,-1,-1,-1,-1,-1,-1,-1,-1,-1,-1,-1,-1,-1,-1,-1,-1,-1,-1,-1,-1,-1,-1,-1,-1,-1,-1,-1,-1],
"loss_changes":[0.0,0.0,0.0,0.0,0.0,0.0,0.0,0.0,0.0,0.0,0.0,0.0,0.0,0.0,0.0,0.0,0.0,0.0,0.0,0.0,0.0,0.0,0.0,0.0,0.0,0.0,0.0,0.0,0.0,0.0,0.0,0.0,0.0,0.0,0.0,0.0,0.0,0.0,0.0,0.0,0.0,0.0,0.0,0.0,0.0,0.0,0.0,0.0,0.0,0.0,0.0,0.0,0.0,0.0,0.0,0.0,0.0,0.0,0.0,0.0,0.0,0.0,0.0,0.0,0.0,0.0,0.0,0.0,0.0,0.0,0.0,0.0,0.0,0.0,0.0,0.0,0.0,0.0,0.0,0.0,0.0,0.0,0.0,0.0,0.0,0.0,0.0,0.0,0.0,0.0,0.0,0.0,0.0,0.0,0.0,0.0,0.0,0.0,0.0,0.0,0.0,0.0,0.0,0.0,0.0,0.0,0.0],
"parents":[2147483647,0,0,1,1,2,2,3,3,4,4,5,5,6,6,7,7,8,8,9,9,10,10,11,11,12,12,14,14,15,15,16,16,17,17,18,18,19,19,20,20,21,21,22,22,23,23,24,24,25,25,26,26,27,27,28,28,29,29,30,30,31,31,32,32,33,33,34,34,35,35,36,36,37,37,38,38,39,39,40,40,41,41,42,42,44,44,45,45,46,46,47,47,48,48,49,49,50,50,51,51,52,52,53,53,55,55],
"right_children":[2,4,6,8,10,12,14,16,18,20,22,24,26,-1,28,30,32,34,36,38,40,42,44,46,48,50,52,54,56,58,60,62,64,66,68,70,72,74,76,78,80,82,84,-1,86,88,90,92,94,96,98,100,102,104,-1,106,-1,-1,-1,-1,-1,-1,-1,-1,-1,-1,-1,-1,-1,-1,-1,-1,-1,-1,-1,-1,-1,-1,-1,-1,-1,-1,-1,-1,-1,-1,-1,-1,-1,-1,-1,-1,-1,-1,-1,-1,-1,-1,-1,-1,-1,-1,-1,-1,-1,-1,-1],
"split_conditions":[1.4000000000000000e+01,4.0616860000000001e-03,2.7364929999999999e-02,1.1500000000000000e+01,5.5488000000000004e-03,1.0500000000000000e+01,1.2500000000000000e+01,1.1356190000000000e-02,1.1282840000000000e+01,3.2527649999999998e-02,3.5036079999999997e-02,3.5500000000000000e+01,3.8547450000000001e-03,-3.0666280000000001e-01,2.9864499999999999e-02,2.0000000000000000e+00,2.9117660000000001e-03,3.4483899999999998e-02,3.7500000000000000e+01,2.5412350000000000e-02,2.7293260000000000e-02,6.1864479999999998e-03,4.9021079999999998e+01,2.6000000000000000e+01,3.7500000000000000e+01,2.8532319999999998e-03,2.0000000000000000e+00,2.9782280000000001e-02,8.0722660000000005e+01,3.7823810000000000e-03,6.6981770000000003e+00,1.2856670000000001e-02,3.7455790000000002e-03,2.0000000000000000e+00,2.3586710000000000e-02,3.7597690000000000e-03,3.9319629999999997e+01,2.5693959999999998e-02,3.1657690000000001e-03,4.4396720000000004e-03,4.1248920000000001e-02,3.8740709999999998e-02,1.4326469999999999e-02,-3.0909819999999999e-01,4.9701479999999997e+01,1.1268270000000000e-02,6.3457089999999997e-03,3.8500000000000000e+01,4.5011039999999997e-03,9.2890030000000005e-03,1.2580539999999999e+01,1.5565600000000001e-02,2.6756280000000000e-02,2.0934690000000000e+01,7.4049840000000000e-01,4.2064570000000003e-03,2.0598510000000000e-01,2.5238230000000000e-01,6.0781240000000000e-02,8.4079740000000000e-02,-4.4543939999999999e-01,-4.9495640000000000e-02,-5.8310079999999997e-01,1.2861710000000001e-01,-9.2625340000000000e-02,2.7865200000000001e-01,1.1151350000000000e-01,-6.1430130000000005e-01,1.4147699999999999e-01,1.3847290000000001e-01,-1.0486970000000000e-01,2.2342960000000001e-01,-4.1878949999999998e-01,1.3916150000000000e-02,-2.4032049999999999e-01,-3.5207460000000002e-01,1.7474799999999999e-01,-4.0693790000000002e-01,-2.2130159999999999e-01,-3.2817170000000000e-02,-2.5743860000000002e-01,-2.0244150000000000e-01,2.2330190000000000e-01,1.9049020000000000e-01,-2.9763640000000002e-01,2.9300189999999998e-01,-2.8398200000000001e-01,1.2144270000000000e-01,-3.2440590000000002e-01,-3.0696410000000002e-01,-2.0283119999999999e-01,-1.6916149999999999e-01,1.7297770000000001e-01,-1.3255729999999999e-01,-3.1325110000000000e-01,1.6973350000000001e-01,-3.0942960000000003e-01,1.4783940000000001e-01,4.0619499999999997e-01,6.2128440000000000e-02,-1.7987259999999999e-01,-3.5445680000000002e-01,-9.4273819999999994e-02,-5.9629380000000003e-02,-2.7781499999999998e-01,-1.7574640000000000e-01,-3.0102689999999999e-01],
"split_indices":[3,6,7,0,6,0,0,7,4,8,8,3,6,0,8,2,5,8,1,7,7,6,4,3,3,5,2,8,4,6,4,7,6,2,7,6,4,8,5,6,8,7,7,0,4,7,6,1,8,7,4,8,7,4,0,6,0,0,0,0,0,0,0,0,0,0,0,0,0,0,0,0,0,0,0,0,0,0,0,0,0,0,0,0,0,0,0,0,0,0,0,0,0,0,0,0,0,0,0,0,0,0,0,0,0,0,0],
"split_type":[0,0,0,0,0,0,0,0,0,0,0,0,0,0,0,0,0,0,0,0,0,0,0,0,0,0,0,0,0,0,0,0,0,0,0,0,0,0,0,0,0,0,0,0,0,0,0,0,0,0,0,0,0,0,0,0,0,0,0,0,0,0,0,0,0,0,0,0,0,0,0,0,0,0,0,0,0,0,0,0,0,0,0,0,0,0,0,0,0,0,0,0,0,0,0,0,0,0,0,0,0,0,0,0,0,0,0],
"sum_hessian":[0.0,0.0,0.0,0.0,0.0,0.0,0.0,0.0,0.0,0.0,0.0,0.0,0.0,0.0,0.0,0.0,0.0,0.0,0.0,0.0,0.0,0.0,0.0,0.0,0.0,0.0,0.0,0.0,0.0,0.0,0.0,0.0,0.0,0.0,0.0,0.0,0.0,0.0,0.0,0.0,0.0,0.0,0.0,0.0,0.0,0.0,0.0,0.0,0.0,0.0,0.0,0.0,0.0,0.0,0.0,0.0,0.0,0.0,0.0,0.0,0.0,0.0,0.0,0.0,0.0,0.0,0.0,0.0,0.0,0.0,0.0,0.0,0.0,0.0,0.0,0.0,0.0,0.0,0.0,0.0,0.0,0.0,0.0,0.0,0.0,0.0,0.0,0.0,0.0,0.0,0.0,0.0,0.0,0.0,0.0,0.0,0.0,0.0,0.0,0.0,0.0,0.0,0.0,0.0,0.0,0.0,0.0],
"tree_param":{"num_deleted":"0","num_feature":"9","num_nodes":"107","size_leaf_vector":"0"}
}
]
},"name":"gbtree"},"learner_model_param":{"base_score":"0","num_class":"0","num_feature":"9"},"objective":{"name":"binary:logitraw","reg_loss_param":{}}},"version":[1,4,2]}
