{"learner":{"attributes":{},"feature_names":[],"feature_types":[],"gradient_booster":{"model":{"gbtree_model_param":{"num_trees":"400","size_leaf_vector":"0"},
"tree_info":[0,0,0,0,0,0,0,0,0,0,0,0,0,0,0,0,0,0,0,0,0,0,0,0,0,0,0,0,0,0,0,0,0,0,0,0,0,0,0,0,0,0,0,0,0,0,0,0,0,0,0,0,0,0,0,0,0,0,0,0,0,0,0,0,0,0,0,0,0,0,0,0,0,0,0,0,0,0,0,0,0,0,0,0,0,0,0,0,0,0,0,0,0,0,0,0,0,0,0,0,0,0,0,0,0,0,0,0,0,0,0,0,0,0,0,0,0,0,0,0,0,0,0,0,0,0,0,0,0,0,0,0,0,0,0,0,0,0,0,0,0,0,0,0,0,0,0,0,0,0,0,0,0,0,0,0,0,0,0,0,0,0,0,0,0,0,0,0,0,0,0,0,0,0,0,0,0,0,0,0,0,0,0,0,0,0,0,0,0,0,0,0,0,0,0,0,0,0,0,0,0,0,0,0,0,0,0,0,0,0,0,0,0,0,0,0,0,0,0,0,0,0,0,0,0,0,0,0,0,0,0,0,0,0,0,0,0,0,0,0,0,0,0,0,0,0,0,0,0,0,0,0,0,0,0,0,0,0,0,0,0,0,0,0,0,0,0,0,0,0,0,0,0,0,0,0,0,0,0,0,0,0,0,0,0,0,0,0,0,0,0,0,0,0,0,0,0,0,0,0,0,0,0,0,0,0,0,0,0,0,0,0,0,0,0,0,0,0,0,0,0,0,0,0,0,0,0,0,0,0,0,0,0,0,0,0,0,0,0,0,0,0,0,0,0,0,0,0,0,0,0,0,0,0,0,0,0,0,0,0,0,0,0,0,0,0,0,0,0,0,0,0,0,0,0,0,0,0,0,0,0,0,0,0,0,0,0,0,0,0,0,0,0,0,0,0,0,0,0,0],
"trees":
[
{
"base_weights":[0.0,0.0,0.0,0.0,0.0,0.0,0.0],
"categories":[],"categories_nodes":[],"categories_segments":[],"categories_sizes":[],
"default_left":[true,true,true,false,false,false,false],
"id":0,
"left_children":[1,3,5,-1,-1,-1,-1],
"loss_changes":[0.0,0.0,0.0,0.0,0.0,0.0,0.0],
"parents":[2147483647,0,0,1,1,2,2],
"right_children":[2,4,6,-1,-1,-1,-1],
"split_conditions":[5.5374847725033760e-03,2.3374658584594727e+01,4.3936489105224609e+01,-9.9000000000000000e+01,-9.9000000000000000e+01,-9.9000000000000000e+01,-9.9000000000000000e+01],
"split_indices":[3,4,4,0,0,0,0],
"split_type":[0,0,0,0,0,0,0],
"sum_hessian":[0.0,0.0,0.0,0.0,0.0,0.0,0.0],
"tree_param":{"num_deleted":"0","num_feature":"5","num_nodes":"7","size_leaf_vector":"0"}
},
{
"base_weights":[0.0,0.0,0.0,0.0,0.0,0.0,0.0,0.0,0.0],
"categories":[],"categories_nodes":[],"categories_segments":[],"categories_sizes":[],
"default_left":[true,true,true,false,false,true,false,false,false],
"id":1,
"left_children":[1,3,5,-1,-1,7,-1,-1,-1],
"loss_changes":[0.0,0.0,0.0,0.0,0.0,0.0,0.0,0.0,0.0],
"parents":[2147483647,0,0,1,1,2,2,5,5],
"right_children":[2,4,6,-1,-1,8,-1,-1,-1],
"split_conditions":[2.5125835090875626e-02,1.3699638366699219e+01,3.4611988067626953e+01,-9.9000000000000000e+01,-9.9000000000000000e+01,5.8388146571815014e-03,-9.9000000000000000e+01,-9.9000000000000000e+01,-9.9000000000000000e+01],
"split_indices":[2,4,4,0,0,3,0,0,0],
"split_type":[0,0,0,0,0,0,0,0,0],
"sum_hessian":[0.0,0.0,0.0,0.0,0.0,0.0,0.0,0.0,0.0],
"tree_param":{"num_deleted":"0","num_feature":"5","num_nodes":"9","size_leaf_vector":"0"}
},
{
"base_weights":[0.0,0.0,0.0,0.0,0.0,0.0,0.0,0.0,0.0],
"categories":[],"categories_nodes":[],"categories_segments":[],"categories_sizes":[],
"default_left":[true,true,true,false,false,true,false,false,false],
"id":2,
"left_children":[1,3,5,-1,-1,7,-1,-1,-1],
"loss_changes":[0.0,0.0,0.0,0.0,0.0,0.0,0.0,0.0,0.0],
"parents":[2147483647,0,0,1,1,2,2,5,5],
"right_children":[2,4,6,-1,-1,8,-1,-1,-1],
"split_conditions":[2.0938197150826454e-02,1.6654840469360352e+01,2.8993324279785156e+01,-9.9000000000000000e+01,-9.9000000000000000e+01,3.6891408264636993e-02,-9.9000000000000000e+01,-9.9000000000000000e+01,-9.9000000000000000e+01],
"split_indices":[2,4,4,0,0,2,0,0,0],
"split_type":[0,0,0,0,0,0,0,0,0],
"sum_hessian":[0.0,0.0,0.0,0.0,0.0,0.0,0.0,0.0,0.0],
"tree_param":{"num_deleted":"0","num_feature":"5","num_nodes":"9","size_leaf_vector":"0"}
},
{
"base_weights":[0.0,0.0,0.0,0.0,0.0,0.0,0.0],
"categories":[],"categories_nodes":[],"categories_segments":[],"categories_sizes":[],
"default_left":[true,true,true,false,false,false,false],
"id":3,
"left_children":[1,3,5,-1,-1,-1,-1],
"loss_changes":[0.0,0.0,0.0,0.0,0.0,0.0,0.0],
"parents":[2147483647,0,0,1,1,2,2],
"right_children":[2,4,6,-1,-1,-1,-1],
"split_conditions":[4.9222088418900967e-03,1.5477312088012695e+01,4.5887226104736328e+01,-9.9000000000000000e+01,-9.9000000000000000e+01,-9.9000000000000000e+01,-9.9000000000000000e+01],
"split_indices":[3,4,4,0,0,0,0],
"split_type":[0,0,0,0,0,0,0],
"sum_hessian":[0.0,0.0,0.0,0.0,0.0,0.0,0.0],
"tree_param":{"num_deleted":"0","num_feature":"5","num_nodes":"7","size_leaf_vector":"0"}
},
{
"base_weights":[0.0,0.0,0.0,0.0,0.0,0.0,0.0,0.0,0.0],
"categories":[],"categories_nodes":[],"categories_segments":[],"categories_sizes":[],
"default_left":[true,false,true,true,true,false,false,false,false],
"id":4,
"left_children":[1,-1,3,5,7,-1,-1,-1,-1],
"loss_changes":[0.0,0.0,0.0,0.0,0.0,0.0,0.0,0.0,0.0],
"parents":[2147483647,0,0,2,2,3,3,4,4],
"right_children":[2,-1,4,6,8,-1,-1,-1,-1],
"split_conditions":[1.6750557348132133e-02,-9.9000000000000000e+01,1.4210796356201172e+01,2.2796677052974701e-01,3.2557763159275055e-02,-9.9000000000000000e+01,-9.9000000000000000e+01,-9.9000000000000000e+01,-9.9000000000000000e+01],
"split_indices":[2,0,0,1,2,0,0,0,0],
"split_type":[0,0,0,0,0,0,0,0,0],
"sum_hessian":[0.0,0.0,0.0,0.0,0.0,0.0,0.0,0.0,0.0],
"tree_param":{"num_deleted":"0","num_feature":"5","num_nodes":"9","size_leaf_vector":"0"}
},
{
"base_weights":[0.0,0.0,0.0,0.0,0.0,0.0,0.0],
"categories":[],"categories_nodes":[],"categories_segments":[],"categories_sizes":[],
"default_left":[true,true,true,false,false,false,false],
"id":5,
"left_children":[1,3,5,-1,-1,-1,-1],
"loss_changes":[0.0,0.0,0.0,0.0,0.0,0.0,0.0],
"parents":[2147483647,0,0,1,1,2,2],
"right_children":[2,4,6,-1,-1,-1,-1],
"split_conditions":[7.0946164131164551e+00,2.6863965392112732e-01,2.1294236183166504e-02,-9.9000000000000000e+01,-9.9000000000000000e+01,-9.9000000000000000e+01,-9.9000000000000000e+01],
"split_indices":[0,1,2,0,0,0,0],
"split_type":[0,0,0,0,0,0,0],
"sum_hessian":[0.0,0.0,0.0,0.0,0.0,0.0,0.0],
"tree_param":{"num_deleted":"0","num_feature":"5","num_nodes":"7","size_leaf_vector":"0"}
},
{
"base_weights":[0.0,0.0,0.0,0.0,0.0],
"categories":[],"categories_nodes":[],"categories_segments":[],"categories_sizes":[],
"default_left":[true,false,true,false,false],
"id":6,
"left_children":[1,-1,3,-1,-1],
"loss_changes":[0.0,0.0,0.0,0.0,0.0],
"parents":[2147483647,0,0,2,2],
"right_children":[2,-1,4,-1,-1],
"split_conditions":[1.6750557348132133e-02,-9.9000000000000000e+01,1.4210796356201172e+01,-9.9000000000000000e+01,-9.9000000000000000e+01],
"split_indices":[2,0,0,0,0],
"split_type":[0,0,0,0,0],
"sum_hessian":[0.0,0.0,0.0,0.0,0.0],
"tree_param":{"num_deleted":"0","num_feature":"5","num_nodes":"5","size_leaf_vector":"0"}
},
{
"base_weights":[0.0,0.0,0.0,0.0,0.0,0.0,0.0],
"categories":[],"categories_nodes":[],"categories_segments":[],"categories_sizes":[],
"default_left":[true,true,false,false,true,false,false],
"id":7,
"left_children":[1,3,-1,-1,5,-1,-1],
"loss_changes":[0.0,0.0,0.0,0.0,0.0,0.0,0.0],
"parents":[2147483647,0,0,1,1,4,4],
"right_children":[2,4,-1,-1,6,-1,-1],
"split_conditions":[4.6064030379056931e-02,3.2777641296386719e+01,-9.9000000000000000e+01,-9.9000000000000000e+01,1.3160909526050091e-02,-9.9000000000000000e+01,-9.9000000000000000e+01],
"split_indices":[2,4,0,0,2,0,0],
"split_type":[0,0,0,0,0,0,0],
"sum_hessian":[0.0,0.0,0.0,0.0,0.0,0.0,0.0],
"tree_param":{"num_deleted":"0","num_feature":"5","num_nodes":"7","size_leaf_vector":"0"}
},
{
"base_weights":[0.0,0.0,0.0,0.0,0.0,0.0,0.0],
"categories":[],"categories_nodes":[],"categories_segments":[],"categories_sizes":[],
"default_left":[true,false,true,true,false,false,false],
"id":8,
"left_children":[1,-1,3,5,-1,-1,-1],
"loss_changes":[0.0,0.0,0.0,0.0,0.0,0.0,0.0],
"parents":[2147483647,0,0,2,2,3,3],
"right_children":[2,-1,4,6,-1,-1,-1],
"split_conditions":[4.3069324456155300e-03,-9.9000000000000000e+01,5.0803832709789276e-02,1.1790264129638672e+01,-9.9000000000000000e+01,-9.9000000000000000e+01,-9.9000000000000000e+01],
"split_indices":[3,0,2,0,0,0,0],
"split_type":[0,0,0,0,0,0,0],
"sum_hessian":[0.0,0.0,0.0,0.0,0.0,0.0,0.0],
"tree_param":{"num_deleted":"0","num_feature":"5","num_nodes":"7","size_leaf_vector":"0"}
},
{
"base_weights":[0.0,0.0,0.0,0.0,0.0,0.0,0.0,0.0,0.0],
"categories":[],"categories_nodes":[],"categories_segments":[],"categories_sizes":[],
"default_left":[true,true,true,false,false,true,false,false,false],
"id":9,
"left_children":[1,3,5,-1,-1,7,-1,-1,-1],
"loss_changes":[0.0,0.0,0.0,0.0,0.0,0.0,0.0,0.0,0.0],
"parents":[2147483647,0,0,1,1,2,2,5,5],
"right_children":[2,4,6,-1,-1,8,-1,-1,-1],
"split_conditions":[4.1876394301652908e-02,3.8372373580932617e-01,1.4868211746215820e-01,-9.9000000000000000e+01,-9.9000000000000000e+01,4.9385122954845428e-02,-9.9000000000000000e+01,-9.9000000000000000e+01,-9.9000000000000000e+01],
"split_indices":[2,1,1,0,0,2,0,0,0],
"split_type":[0,0,0,0,0,0,0,0,0],
"sum_hessian":[0.0,0.0,0.0,0.0,0.0,0.0,0.0,0.0,0.0],
"tree_param":{"num_deleted":"0","num_feature":"5","num_nodes":"9","size_leaf_vector":"0"}
},
{
"base_weights":[0.0,0.0,0.0,0.0,0.0,0.0,0.0,0.0,0.0],
"categories":[],"categories_nodes":[],"categories_segments":[],"categories_sizes":[],
"default_left":[true,true,true,false,false,false,true,false,false],
"id":10,
"left_children":[1,3,5,-1,-1,-1,7,-1,-1],
"loss_changes":[0.0,0.0,0.0,0.0,0.0,0.0,0.0,0.0,0.0],
"parents":[2147483647,0,0,1,1,2,2,6,6],
"right_children":[2,4,6,-1,-1,-1,8,-1,-1],
"split_conditions":[4.3069324456155300e-03,2.1663442611694336e+01,5.1502975463867188e+01,-9.9000000000000000e+01,-9.9000000000000000e+01,-9.9000000000000000e+01,5.5375080555677414e-03,-9.9000000000000000e+01,-9.9000000000000000e+01],
"split_indices":[3,4,4,0,0,0,3,0,0],
"split_type":[0,0,0,0,0,0,0,0,0],
"sum_hessian":[0.0,0.0,0.0,0.0,0.0,0.0,0.0,0.0,0.0],
"tree_param":{"num_deleted":"0","num_feature":"5","num_nodes":"9","size_leaf_vector":"0"}
},
{
"base_weights":[0.0,0.0,0.0,0.0,0.0,0.0,0.0],
"categories":[],"categories_nodes":[],"categories_segments":[],"categories_sizes":[],
"default_left":[true,false,true,false,true,false,false],
"id":11,
"left_children":[1,-1,3,-1,5,-1,-1],
"loss_changes":[0.0,0.0,0.0,0.0,0.0,0.0,0.0],
"parents":[2147483647,0,0,2,2,4,4],
"right_children":[2,-1,4,-1,6,-1,-1],
"split_conditions":[1.6750557348132133e-02,-9.9000000000000000e+01,3.9083859883248806e-03,-9.9000000000000000e+01,1.7845050990581512e-01,-9.9000000000000000e+01,-9.9000000000000000e+01],
"split_indices":[2,0,3,0,1,0,0],
"split_type":[0,0,0,0,0,0,0],
"sum_hessian":[0.0,0.0,0.0,0.0,0.0,0.0,0.0],
"tree_param":{"num_deleted":"0","num_feature":"5","num_nodes":"7","size_leaf_vector":"0"}
},
{
"base_weights":[0.0,0.0,0.0,0.0,0.0,0.0,0.0,0.0,0.0,0.0,0.0],
"categories":[],"categories_nodes":[],"categories_segments":[],"categories_sizes":[],
"default_left":[true,true,true,false,true,true,false,false,false,false,false],
"id":12,
"left_children":[1,3,5,-1,7,9,-1,-1,-1,-1,-1],
"loss_changes":[0.0,0.0,0.0,0.0,0.0,0.0,0.0,0.0,0.0,0.0,0.0],
"parents":[2147483647,0,0,1,1,2,2,4,4,5,5],
"right_children":[2,4,6,-1,8,10,-1,-1,-1,-1,-1],
"split_conditions":[4.3069324456155300e-03,2.5816131591796875e+01,3.0172390863299370e-02,-9.9000000000000000e+01,3.6916243843734264e-03,9.3697309494018555e+00,-9.9000000000000000e+01,-9.9000000000000000e+01,-9.9000000000000000e+01,-9.9000000000000000e+01,-9.9000000000000000e+01],
"split_indices":[3,4,2,0,3,0,0,0,0,0,0],
"split_type":[0,0,0,0,0,0,0,0,0,0,0],
"sum_hessian":[0.0,0.0,0.0,0.0,0.0,0.0,0.0,0.0,0.0,0.0,0.0],
"tree_param":{"num_deleted":"0","num_feature":"5","num_nodes":"11","size_leaf_vector":"0"}
},
{
"base_weights":[0.0,0.0,0.0,0.0,0.0,0.0,0.0,0.0,0.0,0.0,0.0,0.0,0.0],
"categories":[],"categories_nodes":[],"categories_segments":[],"categories_sizes":[],
"default_left":[true,true,true,true,true,true,false,false,false,false,false,false,false],
"id":13,
"left_children":[1,3,5,7,9,11,-1,-1,-1,-1,-1,-1,-1],
"loss_changes":[0.0,0.0,0.0,0.0,0.0,0.0,0.0,0.0,0.0,0.0,0.0,0.0,0.0],
"parents":[2147483647,0,0,1,1,2,2,3,3,4,4,5,5],
"right_children":[2,4,6,8,10,12,-1,-1,-1,-1,-1,-1,-1],
"split_conditions":[7.0946164131164551e+00,2.9313474893569946e-02,4.4447388648986816e+00,1.8493095397949219e+01,1.8509566783905029e-01,1.2527695298194885e-01,-9.9000000000000000e+01,-9.9000000000000000e+01,-9.9000000000000000e+01,-9.9000000000000000e+01,-9.9000000000000000e+01,-9.9000000000000000e+01,-9.9000000000000000e+01],
"split_indices":[0,2,0,4,1,1,0,0,0,0,0,0,0],
"split_type":[0,0,0,0,0,0,0,0,0,0,0,0,0],
"sum_hessian":[0.0,0.0,0.0,0.0,0.0,0.0,0.0,0.0,0.0,0.0,0.0,0.0,0.0],
"tree_param":{"num_deleted":"0","num_feature":"5","num_nodes":"13","size_leaf_vector":"0"}
},
{
"base_weights":[0.0,0.0,0.0,0.0,0.0,0.0,0.0,0.0,0.0],
"categories":[],"categories_nodes":[],"categories_segments":[],"categories_sizes":[],
"default_left":[true,true,true,true,false,false,false,false,false],
"id":14,
"left_children":[1,3,5,7,-1,-1,-1,-1,-1],
"loss_changes":[0.0,0.0,0.0,0.0,0.0,0.0,0.0,0.0,0.0],
"parents":[2147483647,0,0,1,1,2,2,3,3],
"right_children":[2,4,6,8,-1,-1,-1,-1,-1],
"split_conditions":[4.1876394301652908e-02,1.4046868324279785e+01,3.4629711151123047e+01,3.3151942491531372e-01,-9.9000000000000000e+01,-9.9000000000000000e+01,-9.9000000000000000e+01,-9.9000000000000000e+01,-9.9000000000000000e+01],
"split_indices":[2,0,4,1,0,0,0,0,0],
"split_type":[0,0,0,0,0,0,0,0,0],
"sum_hessian":[0.0,0.0,0.0,0.0,0.0,0.0,0.0,0.0,0.0],
"tree_param":{"num_deleted":"0","num_feature":"5","num_nodes":"9","size_leaf_vector":"0"}
},
{
"base_weights":[0.0,0.0,0.0,0.0,0.0],
"categories":[],"categories_nodes":[],"categories_segments":[],"categories_sizes":[],
"default_left":[true,false,true,false,false],
"id":15,
"left_children":[1,-1,3,-1,-1],
"loss_changes":[0.0,0.0,0.0,0.0,0.0],
"parents":[2147483647,0,0,2,2],
"right_children":[2,-1,4,-1,-1],
"split_conditions":[2.0999118804931641e+01,-9.9000000000000000e+01,1.5836259350180626e-02,-9.9000000000000000e+01,-9.9000000000000000e+01],
"split_indices":[0,0,2,0,0],
"split_type":[0,0,0,0,0],
"sum_hessian":[0.0,0.0,0.0,0.0,0.0],
"tree_param":{"num_deleted":"0","num_feature":"5","num_nodes":"5","size_leaf_vector":"0"}
},
{
"base_weights":[0.0,0.0,0.0,0.0,0.0,0.0,0.0,0.0,0.0,0.0,0.0],
"categories":[],"categories_nodes":[],"categories_segments":[],"categories_sizes":[],
"default_left":[true,true,true,false,true,false,true,false,false,false,false],
"id":16,
"left_children":[1,3,5,-1,7,-1,9,-1,-1,-1,-1],
"loss_changes":[0.0,0.0,0.0,0.0,0.0,0.0,0.0,0.0,0.0,0.0,0.0],
"parents":[2147483647,0,0,1,1,2,2,4,4,6,6],
"right_children":[2,4,6,-1,8,-1,10,-1,-1,-1,-1],
"split_conditions":[2.9313474893569946e-02,6.7678256034851074e+00,8.4093280136585236e-02,-9.9000000000000000e+01,2.4668632075190544e-02,-9.9000000000000000e+01,2.8993324279785156e+01,-9.9000000000000000e+01,-9.9000000000000000e+01,-9.9000000000000000e+01,-9.9000000000000000e+01],
"split_indices":[2,0,1,0,2,0,4,0,0,0,0],
"split_type":[0,0,0,0,0,0,0,0,0,0,0],
"sum_hessian":[0.0,0.0,0.0,0.0,0.0,0.0,0.0,0.0,0.0,0.0,0.0],
"tree_param":{"num_deleted":"0","num_feature":"5","num_nodes":"11","size_leaf_vector":"0"}
},
{
"base_weights":[0.0,0.0,0.0,0.0,0.0,0.0,0.0],
"categories":[],"categories_nodes":[],"categories_segments":[],"categories_sizes":[],
"default_left":[true,false,true,true,false,false,false],
"id":17,
"left_children":[1,-1,3,5,-1,-1,-1],
"loss_changes":[0.0,0.0,0.0,0.0,0.0,0.0,0.0],
"parents":[2147483647,0,0,2,2,3,3],
"right_children":[2,-1,4,6,-1,-1,-1],
"split_conditions":[2.0999118804931641e+01,-9.9000000000000000e+01,3.3631783723831177e-01,1.6879228875041008e-02,-9.9000000000000000e+01,-9.9000000000000000e+01,-9.9000000000000000e+01],
"split_indices":[0,0,1,2,0,0,0],
"split_type":[0,0,0,0,0,0,0],
"sum_hessian":[0.0,0.0,0.0,0.0,0.0,0.0,0.0],
"tree_param":{"num_deleted":"0","num_feature":"5","num_nodes":"7","size_leaf_vector":"0"}
},
{
"base_weights":[0.0,0.0,0.0,0.0,0.0,0.0,0.0],
"categories":[],"categories_nodes":[],"categories_segments":[],"categories_sizes":[],
"default_left":[true,true,false,false,true,false,false],
"id":18,
"left_children":[1,3,-1,-1,5,-1,-1],
"loss_changes":[0.0,0.0,0.0,0.0,0.0,0.0,0.0],
"parents":[2147483647,0,0,1,1,4,4],
"right_children":[2,4,-1,-1,6,-1,-1],
"split_conditions":[4.3112960457801819e-01,8.7990779876708984e+00,-9.9000000000000000e+01,-9.9000000000000000e+01,3.8520185947418213e+00,-9.9000000000000000e+01,-9.9000000000000000e+01],
"split_indices":[1,0,0,0,0,0,0],
"split_type":[0,0,0,0,0,0,0],
"sum_hessian":[0.0,0.0,0.0,0.0,0.0,0.0,0.0],
"tree_param":{"num_deleted":"0","num_feature":"5","num_nodes":"7","size_leaf_vector":"0"}
},
{
"base_weights":[0.0,0.0,0.0,0.0,0.0,0.0,0.0,0.0,0.0],
"categories":[],"categories_nodes":[],"categories_segments":[],"categories_sizes":[],
"default_left":[true,true,true,false,true,false,false,false,false],
"id":19,
"left_children":[1,3,5,-1,7,-1,-1,-1,-1],
"loss_changes":[0.0,0.0,0.0,0.0,0.0,0.0,0.0,0.0,0.0],
"parents":[2147483647,0,0,1,1,2,2,4,4],
"right_children":[2,4,6,-1,8,-1,-1,-1,-1],
"split_conditions":[2.4150609970092773e-01,1.0827995300292969e+01,1.6868824005126953e+01,-9.9000000000000000e+01,5.2304902076721191e+00,-9.9000000000000000e+01,-9.9000000000000000e+01,-9.9000000000000000e+01,-9.9000000000000000e+01],
"split_indices":[1,0,0,0,0,0,0,0,0],
"split_type":[0,0,0,0,0,0,0,0,0],
"sum_hessian":[0.0,0.0,0.0,0.0,0.0,0.0,0.0,0.0,0.0],
"tree_param":{"num_deleted":"0","num_feature":"5","num_nodes":"9","size_leaf_vector":"0"}
},
{
"base_weights":[0.0,0.0,0.0,0.0,0.0,0.0,0.0],
"categories":[],"categories_nodes":[],"categories_segments":[],"categories_sizes":[],
"default_left":[true,true,false,false,true,false,false],
"id":20,
"left_children":[1,3,-1,-1,5,-1,-1],
"loss_changes":[0.0,0.0,0.0,0.0,0.0,0.0,0.0],
"parents":[2147483647,0,0,1,1,4,4],
"right_children":[2,4,-1,-1,6,-1,-1],
"split_conditions":[4.1876394301652908e-02,1.4046868324279785e+01,-9.9000000000000000e+01,-9.9000000000000000e+01,2.8444463014602661e-01,-9.9000000000000000e+01,-9.9000000000000000e+01],
"split_indices":[2,0,0,0,1,0,0],
"split_type":[0,0,0,0,0,0,0],
"sum_hessian":[0.0,0.0,0.0,0.0,0.0,0.0,0.0],
"tree_param":{"num_deleted":"0","num_feature":"5","num_nodes":"7","size_leaf_vector":"0"}
},
{
"base_weights":[0.0,0.0,0.0,0.0,0.0],
"categories":[],"categories_nodes":[],"categories_segments":[],"categories_sizes":[],
"default_left":[true,false,true,false,false],
"id":21,
"left_children":[1,-1,3,-1,-1],
"loss_changes":[0.0,0.0,0.0,0.0,0.0],
"parents":[2147483647,0,0,2,2],
"right_children":[2,-1,4,-1,-1],
"split_conditions":[1.2562917545437813e-02,-9.9000000000000000e+01,5.1467983245849609e+01,-9.9000000000000000e+01,-9.9000000000000000e+01],
"split_indices":[2,0,4,0,0],
"split_type":[0,0,0,0,0],
"sum_hessian":[0.0,0.0,0.0,0.0,0.0],
"tree_param":{"num_deleted":"0","num_feature":"5","num_nodes":"5","size_leaf_vector":"0"}
},
{
"base_weights":[0.0,0.0,0.0,0.0,0.0,0.0,0.0,0.0,0.0,0.0,0.0],
"categories":[],"categories_nodes":[],"categories_segments":[],"categories_sizes":[],
"default_left":[true,true,true,false,true,true,false,false,false,false,false],
"id":22,
"left_children":[1,3,5,-1,7,9,-1,-1,-1,-1,-1],
"loss_changes":[0.0,0.0,0.0,0.0,0.0,0.0,0.0,0.0,0.0,0.0,0.0],
"parents":[2147483647,0,0,1,1,2,2,4,4,5,5],
"right_children":[2,4,6,-1,8,10,-1,-1,-1,-1,-1],
"split_conditions":[2.9313474893569946e-02,3.1687915802001953e+01,1.5959627926349640e-01,-9.9000000000000000e+01,8.2301645278930664e+00,9.7958164215087891e+00,-9.9000000000000000e+01,-9.9000000000000000e+01,-9.9000000000000000e+01,-9.9000000000000000e+01,-9.9000000000000000e+01],
"split_indices":[2,4,1,0,4,0,0,0,0,0,0],
"split_type":[0,0,0,0,0,0,0,0,0,0,0],
"sum_hessian":[0.0,0.0,0.0,0.0,0.0,0.0,0.0,0.0,0.0,0.0,0.0],
"tree_param":{"num_deleted":"0","num_feature":"5","num_nodes":"11","size_leaf_vector":"0"}
},
{
"base_weights":[0.0,0.0,0.0,0.0,0.0,0.0,0.0,0.0,0.0],
"categories":[],"categories_nodes":[],"categories_segments":[],"categories_sizes":[],
"default_left":[true,false,true,true,true,false,false,false,false],
"id":23,
"left_children":[1,-1,3,5,7,-1,-1,-1,-1],
"loss_changes":[0.0,0.0,0.0,0.0,0.0,0.0,0.0,0.0,0.0],
"parents":[2147483647,0,0,2,2,3,3,4,4],
"right_children":[2,-1,4,6,8,-1,-1,-1,-1],
"split_conditions":[9.9288471043109894e-02,-9.9000000000000000e+01,4.3069324456155300e-03,3.1374448537826538e-01,1.9026777267456055e+01,-9.9000000000000000e+01,-9.9000000000000000e+01,-9.9000000000000000e+01,-9.9000000000000000e+01],
"split_indices":[1,0,3,1,0,0,0,0,0],
"split_type":[0,0,0,0,0,0,0,0,0],
"sum_hessian":[0.0,0.0,0.0,0.0,0.0,0.0,0.0,0.0,0.0],
"tree_param":{"num_deleted":"0","num_feature":"5","num_nodes":"9","size_leaf_vector":"0"}
},
{
"base_weights":[0.0,0.0,0.0,0.0,0.0,0.0,0.0,0.0,0.0,0.0,0.0],
"categories":[],"categories_nodes":[],"categories_segments":[],"categories_sizes":[],
"default_left":[true,true,true,false,true,true,false,false,false,false,false],
"id":24,
"left_children":[1,3,5,-1,7,9,-1,-1,-1,-1,-1],
"loss_changes":[0.0,0.0,0.0,0.0,0.0,0.0,0.0,0.0,0.0,0.0,0.0],
"parents":[2147483647,0,0,1,1,2,2,4,4,5,5],
"right_children":[2,4,6,-1,8,10,-1,-1,-1,-1,-1],
"split_conditions":[1.9410021603107452e-01,9.5898761749267578e+00,2.0938197150826454e-02,-9.9000000000000000e+01,4.9195359461009502e-03,1.4061882972717285e+01,-9.9000000000000000e+01,-9.9000000000000000e+01,-9.9000000000000000e+01,-9.9000000000000000e+01,-9.9000000000000000e+01],
"split_indices":[1,0,2,0,3,0,0,0,0,0,0],
"split_type":[0,0,0,0,0,0,0,0,0,0,0],
"sum_hessian":[0.0,0.0,0.0,0.0,0.0,0.0,0.0,0.0,0.0,0.0,0.0],
"tree_param":{"num_deleted":"0","num_feature":"5","num_nodes":"11","size_leaf_vector":"0"}
},
{
"base_weights":[0.0,0.0,0.0,0.0,0.0,0.0,0.0],
"categories":[],"categories_nodes":[],"categories_segments":[],"categories_sizes":[],
"default_left":[true,true,false,true,false,false,false],
"id":25,
"left_children":[1,3,-1,5,-1,-1,-1],
"loss_changes":[0.0,0.0,0.0,0.0,0.0,0.0,0.0],
"parents":[2147483647,0,0,1,1,3,3],
"right_children":[2,4,-1,6,-1,-1,-1],
"split_conditions":[6.7680370993912220e-03,5.0251670181751251e-02,-9.9000000000000000e+01,4.3112960457801819e-01,-9.9000000000000000e+01,-9.9000000000000000e+01,-9.9000000000000000e+01],
"split_indices":[3,2,0,1,0,0,0],
"split_type":[0,0,0,0,0,0,0],
"sum_hessian":[0.0,0.0,0.0,0.0,0.0,0.0,0.0],
"tree_param":{"num_deleted":"0","num_feature":"5","num_nodes":"7","size_leaf_vector":"0"}
},
{
"base_weights":[0.0,0.0,0.0,0.0,0.0],
"categories":[],"categories_nodes":[],"categories_segments":[],"categories_sizes":[],
"default_left":[true,false,true,false,false],
"id":26,
"left_children":[1,-1,3,-1,-1],
"loss_changes":[0.0,0.0,0.0,0.0,0.0],
"parents":[2147483647,0,0,2,2],
"right_children":[2,-1,4,-1,-1],
"split_conditions":[3.6916565150022507e-03,-9.9000000000000000e+01,2.3256978988647461e+01,-9.9000000000000000e+01,-9.9000000000000000e+01],
"split_indices":[3,0,0,0,0],
"split_type":[0,0,0,0,0],
"sum_hessian":[0.0,0.0,0.0,0.0,0.0],
"tree_param":{"num_deleted":"0","num_feature":"5","num_nodes":"5","size_leaf_vector":"0"}
},
{
"base_weights":[0.0,0.0,0.0,0.0,0.0,0.0,0.0,0.0,0.0,0.0,0.0],
"categories":[],"categories_nodes":[],"categories_segments":[],"categories_sizes":[],
"default_left":[true,true,true,true,true,false,false,false,false,false,false],
"id":27,
"left_children":[1,3,5,7,9,-1,-1,-1,-1,-1,-1],
"loss_changes":[0.0,0.0,0.0,0.0,0.0,0.0,0.0,0.0,0.0,0.0,0.0],
"parents":[2147483647,0,0,1,1,2,2,3,3,4,4],
"right_children":[2,4,6,8,10,-1,-1,-1,-1,-1,-1],
"split_conditions":[4.6064030379056931e-02,1.4046868324279785e+01,1.1563101410865784e-01,3.3151942491531372e-01,1.0735377311706543e+01,-9.9000000000000000e+01,-9.9000000000000000e+01,-9.9000000000000000e+01,-9.9000000000000000e+01,-9.9000000000000000e+01,-9.9000000000000000e+01],
"split_indices":[2,0,1,1,0,0,0,0,0,0,0],
"split_type":[0,0,0,0,0,0,0,0,0,0,0],
"sum_hessian":[0.0,0.0,0.0,0.0,0.0,0.0,0.0,0.0,0.0,0.0,0.0],
"tree_param":{"num_deleted":"0","num_feature":"5","num_nodes":"11","size_leaf_vector":"0"}
},
{
"base_weights":[0.0,0.0,0.0,0.0,0.0,0.0,0.0],
"categories":[],"categories_nodes":[],"categories_segments":[],"categories_sizes":[],
"default_left":[true,true,false,false,true,false,false],
"id":28,
"left_children":[1,3,-1,-1,5,-1,-1],
"loss_changes":[0.0,0.0,0.0,0.0,0.0,0.0,0.0],
"parents":[2147483647,0,0,1,1,4,4],
"right_children":[2,4,-1,-1,6,-1,-1],
"split_conditions":[4.6064030379056931e-02,1.7547961324453354e-02,-9.9000000000000000e+01,-9.9000000000000000e+01,2.2344215214252472e-01,-9.9000000000000000e+01,-9.9000000000000000e+01],
"split_indices":[2,2,0,0,1,0,0],
"split_type":[0,0,0,0,0,0,0],
"sum_hessian":[0.0,0.0,0.0,0.0,0.0,0.0,0.0],
"tree_param":{"num_deleted":"0","num_feature":"5","num_nodes":"7","size_leaf_vector":"0"}
},
{
"base_weights":[0.0,0.0,0.0,0.0,0.0,0.0,0.0,0.0,0.0,0.0,0.0],
"categories":[],"categories_nodes":[],"categories_segments":[],"categories_sizes":[],
"default_left":[true,true,true,true,true,false,false,false,false,false,false],
"id":29,
"left_children":[1,3,5,7,9,-1,-1,-1,-1,-1,-1],
"loss_changes":[0.0,0.0,0.0,0.0,0.0,0.0,0.0,0.0,0.0,0.0,0.0],
"parents":[2147483647,0,0,1,1,2,2,3,3,4,4],
"right_children":[2,4,6,8,10,-1,-1,-1,-1,-1,-1],
"split_conditions":[4.5849319458007812e+01,5.5374847725033760e-03,3.9374843239784241e-02,2.2336511611938477e+01,3.7688754498958588e-02,-9.9000000000000000e+01,-9.9000000000000000e+01,-9.9000000000000000e+01,-9.9000000000000000e+01,-9.9000000000000000e+01,-9.9000000000000000e+01],
"split_indices":[4,3,2,4,2,0,0,0,0,0,0],
"split_type":[0,0,0,0,0,0,0,0,0,0,0],
"sum_hessian":[0.0,0.0,0.0,0.0,0.0,0.0,0.0,0.0,0.0,0.0,0.0],
"tree_param":{"num_deleted":"0","num_feature":"5","num_nodes":"11","size_leaf_vector":"0"}
},
{
"base_weights":[0.0,0.0,0.0,0.0,0.0,0.0,0.0,0.0,0.0,0.0,0.0],
"categories":[],"categories_nodes":[],"categories_segments":[],"categories_sizes":[],
"default_left":[true,true,true,true,false,true,false,false,false,false,false],
"id":30,
"left_children":[1,3,5,7,-1,9,-1,-1,-1,-1,-1],
"loss_changes":[0.0,0.0,0.0,0.0,0.0,0.0,0.0,0.0,0.0,0.0,0.0],
"parents":[2147483647,0,0,1,1,2,2,3,3,5,5],
"right_children":[2,4,6,8,-1,10,-1,-1,-1,-1,-1],
"split_conditions":[1.4046868324279785e+01,3.3501114696264267e-02,4.3403518676757812e+01,3.3689096570014954e-01,-9.9000000000000000e+01,5.5374847725033760e-03,-9.9000000000000000e+01,-9.9000000000000000e+01,-9.9000000000000000e+01,-9.9000000000000000e+01,-9.9000000000000000e+01],
"split_indices":[0,2,4,1,0,3,0,0,0,0,0],
"split_type":[0,0,0,0,0,0,0,0,0,0,0],
"sum_hessian":[0.0,0.0,0.0,0.0,0.0,0.0,0.0,0.0,0.0,0.0,0.0],
"tree_param":{"num_deleted":"0","num_feature":"5","num_nodes":"11","size_leaf_vector":"0"}
},
{
"base_weights":[0.0,0.0,0.0,0.0,0.0,0.0,0.0,0.0,0.0],
"categories":[],"categories_nodes":[],"categories_segments":[],"categories_sizes":[],
"default_left":[true,true,true,false,false,true,false,false,false],
"id":31,
"left_children":[1,3,5,-1,-1,7,-1,-1,-1],
"loss_changes":[0.0,0.0,0.0,0.0,0.0,0.0,0.0,0.0,0.0],
"parents":[2147483647,0,0,1,1,2,2,5,5],
"right_children":[2,4,6,-1,-1,8,-1,-1,-1],
"split_conditions":[1.4046868324279785e+01,3.3501114696264267e-02,4.7768077850341797e+00,-9.9000000000000000e+01,-9.9000000000000000e+01,1.9823797047138214e-02,-9.9000000000000000e+01,-9.9000000000000000e+01,-9.9000000000000000e+01],
"split_indices":[0,2,0,0,0,2,0,0,0],
"split_type":[0,0,0,0,0,0,0,0,0],
"sum_hessian":[0.0,0.0,0.0,0.0,0.0,0.0,0.0,0.0,0.0],
"tree_param":{"num_deleted":"0","num_feature":"5","num_nodes":"9","size_leaf_vector":"0"}
},
{
"base_weights":[0.0,0.0,0.0,0.0,0.0,0.0,0.0],
"categories":[],"categories_nodes":[],"categories_segments":[],"categories_sizes":[],
"default_left":[true,false,true,true,false,false,false],
"id":32,
"left_children":[1,-1,3,5,-1,-1,-1],
"loss_changes":[0.0,0.0,0.0,0.0,0.0,0.0,0.0],
"parents":[2147483647,0,0,2,2,3,3],
"right_children":[2,-1,4,6,-1,-1,-1],
"split_conditions":[5.1467983245849609e+01,-9.9000000000000000e+01,4.4243858337402344e+01,3.8372373580932617e-01,-9.9000000000000000e+01,-9.9000000000000000e+01,-9.9000000000000000e+01],
"split_indices":[4,0,4,1,0,0,0],
"split_type":[0,0,0,0,0,0,0],
"sum_hessian":[0.0,0.0,0.0,0.0,0.0,0.0,0.0],
"tree_param":{"num_deleted":"0","num_feature":"5","num_nodes":"7","size_leaf_vector":"0"}
},
{
"base_weights":[0.0,0.0,0.0,0.0,0.0],
"categories":[],"categories_nodes":[],"categories_segments":[],"categories_sizes":[],
"default_left":[true,false,true,false,false],
"id":33,
"left_children":[1,-1,3,-1,-1],
"loss_changes":[0.0,0.0,0.0,0.0,0.0],
"parents":[2147483647,0,0,2,2],
"right_children":[2,-1,4,-1,-1],
"split_conditions":[2.0999118804931641e+01,-9.9000000000000000e+01,9.0806217193603516e+00,-9.9000000000000000e+01,-9.9000000000000000e+01],
"split_indices":[0,0,0,0,0],
"split_type":[0,0,0,0,0],
"sum_hessian":[0.0,0.0,0.0,0.0,0.0],
"tree_param":{"num_deleted":"0","num_feature":"5","num_nodes":"5","size_leaf_vector":"0"}
},
{
"base_weights":[0.0,0.0,0.0,0.0,0.0,0.0,0.0,0.0,0.0,0.0,0.0],
"categories":[],"categories_nodes":[],"categories_segments":[],"categories_sizes":[],
"default_left":[true,true,true,false,true,true,false,false,false,false,false],
"id":34,
"left_children":[1,3,5,-1,7,9,-1,-1,-1,-1,-1],
"loss_changes":[0.0,0.0,0.0,0.0,0.0,0.0,0.0,0.0,0.0,0.0,0.0],
"parents":[2147483647,0,0,1,1,2,2,4,4,5,5],
"right_children":[2,4,6,-1,8,10,-1,-1,-1,-1,-1],
"split_conditions":[1.4669434726238251e-01,1.0318426132202148e+01,4.3069324456155300e-03,-9.9000000000000000e+01,3.5340507030487061e+00,1.9977304458618164e+01,-9.9000000000000000e+01,-9.9000000000000000e+01,-9.9000000000000000e+01,-9.9000000000000000e+01,-9.9000000000000000e+01],
"split_indices":[1,0,3,0,0,4,0,0,0,0,0],
"split_type":[0,0,0,0,0,0,0,0,0,0,0],
"sum_hessian":[0.0,0.0,0.0,0.0,0.0,0.0,0.0,0.0,0.0,0.0,0.0],
"tree_param":{"num_deleted":"0","num_feature":"5","num_nodes":"11","size_leaf_vector":"0"}
},
{
"base_weights":[0.0,0.0,0.0,0.0,0.0,0.0,0.0],
"categories":[],"categories_nodes":[],"categories_segments":[],"categories_sizes":[],
"default_left":[true,false,true,true,false,false,false],
"id":35,
"left_children":[1,-1,3,5,-1,-1,-1],
"loss_changes":[0.0,0.0,0.0,0.0,0.0,0.0,0.0],
"parents":[2147483647,0,0,2,2,3,3],
"right_children":[2,-1,4,6,-1,-1,-1],
"split_conditions":[2.0999118804931641e+01,-9.9000000000000000e+01,4.3898582458496094e+01,5.1080632209777832e+00,-9.9000000000000000e+01,-9.9000000000000000e+01,-9.9000000000000000e+01],
"split_indices":[0,0,4,0,0,0,0],
"split_type":[0,0,0,0,0,0,0],
"sum_hessian":[0.0,0.0,0.0,0.0,0.0,0.0,0.0],
"tree_param":{"num_deleted":"0","num_feature":"5","num_nodes":"7","size_leaf_vector":"0"}
},
{
"base_weights":[0.0,0.0,0.0,0.0,0.0],
"categories":[],"categories_nodes":[],"categories_segments":[],"categories_sizes":[],
"default_left":[true,false,true,false,false],
"id":36,
"left_children":[1,-1,3,-1,-1],
"loss_changes":[0.0,0.0,0.0,0.0,0.0],
"parents":[2147483647,0,0,2,2],
"right_children":[2,-1,4,-1,-1],
"split_conditions":[9.9288471043109894e-02,-9.9000000000000000e+01,2.2430126190185547e+01,-9.9000000000000000e+01,-9.9000000000000000e+01],
"split_indices":[1,0,0,0,0],
"split_type":[0,0,0,0,0],
"sum_hessian":[0.0,0.0,0.0,0.0,0.0],
"tree_param":{"num_deleted":"0","num_feature":"5","num_nodes":"5","size_leaf_vector":"0"}
},
{
"base_weights":[0.0,0.0,0.0,0.0,0.0,0.0,0.0,0.0,0.0],
"categories":[],"categories_nodes":[],"categories_segments":[],"categories_sizes":[],
"default_left":[true,true,true,false,true,false,false,false,false],
"id":37,
"left_children":[1,3,5,-1,7,-1,-1,-1,-1],
"loss_changes":[0.0,0.0,0.0,0.0,0.0,0.0,0.0,0.0,0.0],
"parents":[2147483647,0,0,1,1,2,2,4,4],
"right_children":[2,4,6,-1,8,-1,-1,-1,-1],
"split_conditions":[6.7680370993912220e-03,5.1467983245849609e+01,2.7246780395507812e+01,-9.9000000000000000e+01,8.1239767074584961e+00,-9.9000000000000000e+01,-9.9000000000000000e+01,-9.9000000000000000e+01,-9.9000000000000000e+01],
"split_indices":[3,4,4,0,4,0,0,0,0],
"split_type":[0,0,0,0,0,0,0,0,0],
"sum_hessian":[0.0,0.0,0.0,0.0,0.0,0.0,0.0,0.0,0.0],
"tree_param":{"num_deleted":"0","num_feature":"5","num_nodes":"9","size_leaf_vector":"0"}
},
{
"base_weights":[0.0,0.0,0.0,0.0,0.0,0.0,0.0],
"categories":[],"categories_nodes":[],"categories_segments":[],"categories_sizes":[],
"default_left":[true,false,true,false,true,false,false],
"id":38,
"left_children":[1,-1,3,-1,5,-1,-1],
"loss_changes":[0.0,0.0,0.0,0.0,0.0,0.0,0.0],
"parents":[2147483647,0,0,2,2,4,4],
"right_children":[2,-1,4,-1,6,-1,-1],
"split_conditions":[3.6916565150022507e-03,-9.9000000000000000e+01,1.7793526872992516e-02,-9.9000000000000000e+01,1.3598544895648956e-01,-9.9000000000000000e+01,-9.9000000000000000e+01],
"split_indices":[3,0,2,0,1,0,0],
"split_type":[0,0,0,0,0,0,0],
"sum_hessian":[0.0,0.0,0.0,0.0,0.0,0.0,0.0],
"tree_param":{"num_deleted":"0","num_feature":"5","num_nodes":"7","size_leaf_vector":"0"}
},
{
"base_weights":[0.0,0.0,0.0,0.0,0.0,0.0,0.0],
"categories":[],"categories_nodes":[],"categories_segments":[],"categories_sizes":[],
"default_left":[true,false,true,true,false,false,false],
"id":39,
"left_children":[1,-1,3,5,-1,-1,-1],
"loss_changes":[0.0,0.0,0.0,0.0,0.0,0.0,0.0],
"parents":[2147483647,0,0,2,2,3,3],
"right_children":[2,-1,4,6,-1,-1,-1],
"split_conditions":[2.0999118804931641e+01,-9.9000000000000000e+01,9.0806217193603516e+00,2.3754388093948364e-02,-9.9000000000000000e+01,-9.9000000000000000e+01,-9.9000000000000000e+01],
"split_indices":[0,0,0,2,0,0,0],
"split_type":[0,0,0,0,0,0,0],
"sum_hessian":[0.0,0.0,0.0,0.0,0.0,0.0,0.0],
"tree_param":{"num_deleted":"0","num_feature":"5","num_nodes":"7","size_leaf_vector":"0"}
},
{
"base_weights":[0.0,0.0,0.0,0.0,0.0,0.0,0.0],
"categories":[],"categories_nodes":[],"categories_segments":[],"categories_sizes":[],
"default_left":[true,true,false,false,true,false,false],
"id":40,
"left_children":[1,3,-1,-1,5,-1,-1],
"loss_changes":[0.0,0.0,0.0,0.0,0.0,0.0,0.0],
"parents":[2147483647,0,0,1,1,4,4],
"right_children":[2,4,-1,-1,6,-1,-1],
"split_conditions":[4.3112960457801819e-01,1.3538538478314877e-02,-9.9000000000000000e+01,-9.9000000000000000e+01,8.7990779876708984e+00,-9.9000000000000000e+01,-9.9000000000000000e+01],
"split_indices":[1,2,0,0,0,0,0],
"split_type":[0,0,0,0,0,0,0],
"sum_hessian":[0.0,0.0,0.0,0.0,0.0,0.0,0.0],
"tree_param":{"num_deleted":"0","num_feature":"5","num_nodes":"7","size_leaf_vector":"0"}
},
{
"base_weights":[0.0,0.0,0.0,0.0,0.0],
"categories":[],"categories_nodes":[],"categories_segments":[],"categories_sizes":[],
"default_left":[true,false,true,false,false],
"id":41,
"left_children":[1,-1,3,-1,-1],
"loss_changes":[0.0,0.0,0.0,0.0,0.0],
"parents":[2147483647,0,0,2,2],
"right_children":[2,-1,4,-1,-1],
"split_conditions":[2.4150609970092773e-01,-9.9000000000000000e+01,5.5374847725033760e-03,-9.9000000000000000e+01,-9.9000000000000000e+01],
"split_indices":[1,0,3,0,0],
"split_type":[0,0,0,0,0],
"sum_hessian":[0.0,0.0,0.0,0.0,0.0],
"tree_param":{"num_deleted":"0","num_feature":"5","num_nodes":"5","size_leaf_vector":"0"}
},
{
"base_weights":[0.0,0.0,0.0,0.0,0.0,0.0,0.0,0.0,0.0],
"categories":[],"categories_nodes":[],"categories_segments":[],"categories_sizes":[],
"default_left":[true,true,true,false,true,false,false,false,false],
"id":42,
"left_children":[1,3,5,-1,7,-1,-1,-1,-1],
"loss_changes":[0.0,0.0,0.0,0.0,0.0,0.0,0.0,0.0,0.0],
"parents":[2147483647,0,0,1,1,2,2,4,4],
"right_children":[2,4,6,-1,8,-1,-1,-1,-1],
"split_conditions":[2.3374658584594727e+01,2.0163843154907227e+01,1.8198523670434952e-02,-9.9000000000000000e+01,2.7743590995669365e-02,-9.9000000000000000e+01,-9.9000000000000000e+01,-9.9000000000000000e+01,-9.9000000000000000e+01],
"split_indices":[4,4,2,0,2,0,0,0,0],
"split_type":[0,0,0,0,0,0,0,0,0],
"sum_hessian":[0.0,0.0,0.0,0.0,0.0,0.0,0.0,0.0,0.0],
"tree_param":{"num_deleted":"0","num_feature":"5","num_nodes":"9","size_leaf_vector":"0"}
},
{
"base_weights":[0.0,0.0,0.0,0.0,0.0,0.0,0.0,0.0,0.0,0.0,0.0],
"categories":[],"categories_nodes":[],"categories_segments":[],"categories_sizes":[],
"default_left":[true,true,true,false,true,true,false,false,false,false,false],
"id":43,
"left_children":[1,3,5,-1,7,9,-1,-1,-1,-1,-1],
"loss_changes":[0.0,0.0,0.0,0.0,0.0,0.0,0.0,0.0,0.0,0.0,0.0],
"parents":[2147483647,0,0,1,1,2,2,4,4,5,5],
"right_children":[2,4,6,-1,8,10,-1,-1,-1,-1,-1],
"split_conditions":[1.9410021603107452e-01,1.1951753616333008e+01,2.0938197150826454e-02,-9.9000000000000000e+01,7.6712988317012787e-02,1.1971289634704590e+01,-9.9000000000000000e+01,-9.9000000000000000e+01,-9.9000000000000000e+01,-9.9000000000000000e+01,-9.9000000000000000e+01],
"split_indices":[1,0,2,0,1,4,0,0,0,0,0],
"split_type":[0,0,0,0,0,0,0,0,0,0,0],
"sum_hessian":[0.0,0.0,0.0,0.0,0.0,0.0,0.0,0.0,0.0,0.0,0.0],
"tree_param":{"num_deleted":"0","num_feature":"5","num_nodes":"11","size_leaf_vector":"0"}
},
{
"base_weights":[0.0,0.0,0.0,0.0,0.0,0.0,0.0,0.0,0.0,0.0,0.0],
"categories":[],"categories_nodes":[],"categories_segments":[],"categories_sizes":[],
"default_left":[true,true,true,false,true,true,false,false,false,false,false],
"id":44,
"left_children":[1,3,5,-1,7,9,-1,-1,-1,-1,-1],
"loss_changes":[0.0,0.0,0.0,0.0,0.0,0.0,0.0,0.0,0.0,0.0,0.0],
"parents":[2147483647,0,0,1,1,2,2,4,4,5,5],
"right_children":[2,4,6,-1,8,10,-1,-1,-1,-1,-1],
"split_conditions":[1.9410021603107452e-01,6.3998275436460972e-03,2.4065446853637695e+01,-9.9000000000000000e+01,3.8744327545166016e+01,8.6214103698730469e+00,-9.9000000000000000e+01,-9.9000000000000000e+01,-9.9000000000000000e+01,-9.9000000000000000e+01,-9.9000000000000000e+01],
"split_indices":[1,3,4,0,4,4,0,0,0,0,0],
"split_type":[0,0,0,0,0,0,0,0,0,0,0],
"sum_hessian":[0.0,0.0,0.0,0.0,0.0,0.0,0.0,0.0,0.0,0.0,0.0],
"tree_param":{"num_deleted":"0","num_feature":"5","num_nodes":"11","size_leaf_vector":"0"}
},
{
"base_weights":[0.0,0.0,0.0,0.0,0.0,0.0,0.0],
"categories":[],"categories_nodes":[],"categories_segments":[],"categories_sizes":[],
"default_left":[true,false,true,false,true,false,false],
"id":45,
"left_children":[1,-1,3,-1,5,-1,-1],
"loss_changes":[0.0,0.0,0.0,0.0,0.0,0.0,0.0],
"parents":[2147483647,0,0,2,2,4,4],
"right_children":[2,-1,4,-1,6,-1,-1],
"split_conditions":[3.6916565150022507e-03,-9.9000000000000000e+01,1.2192734718322754e+01,-9.9000000000000000e+01,2.1423204243183136e-01,-9.9000000000000000e+01,-9.9000000000000000e+01],
"split_indices":[3,0,4,0,1,0,0],
"split_type":[0,0,0,0,0,0,0],
"sum_hessian":[0.0,0.0,0.0,0.0,0.0,0.0,0.0],
"tree_param":{"num_deleted":"0","num_feature":"5","num_nodes":"7","size_leaf_vector":"0"}
},
{
"base_weights":[0.0,0.0,0.0,0.0,0.0,0.0,0.0],
"categories":[],"categories_nodes":[],"categories_segments":[],"categories_sizes":[],
"default_left":[true,false,true,true,false,false,false],
"id":46,
"left_children":[1,-1,3,5,-1,-1,-1],
"loss_changes":[0.0,0.0,0.0,0.0,0.0,0.0,0.0],
"parents":[2147483647,0,0,2,2,3,3],
"right_children":[2,-1,4,6,-1,-1,-1],
"split_conditions":[2.0999118804931641e+01,-9.9000000000000000e+01,4.3898582458496094e+01,4.1149234771728516e+00,-9.9000000000000000e+01,-9.9000000000000000e+01,-9.9000000000000000e+01],
"split_indices":[0,0,4,0,0,0,0],
"split_type":[0,0,0,0,0,0,0],
"sum_hessian":[0.0,0.0,0.0,0.0,0.0,0.0,0.0],
"tree_param":{"num_deleted":"0","num_feature":"5","num_nodes":"7","size_leaf_vector":"0"}
},
{
"base_weights":[0.0,0.0,0.0,0.0,0.0,0.0,0.0],
"categories":[],"categories_nodes":[],"categories_segments":[],"categories_sizes":[],
"default_left":[true,false,true,true,false,false,false],
"id":47,
"left_children":[1,-1,3,5,-1,-1,-1],
"loss_changes":[0.0,0.0,0.0,0.0,0.0,0.0,0.0],
"parents":[2147483647,0,0,2,2,3,3],
"right_children":[2,-1,4,6,-1,-1,-1],
"split_conditions":[5.1467983245849609e+01,-9.9000000000000000e+01,4.4243858337402344e+01,5.5374847725033760e-03,-9.9000000000000000e+01,-9.9000000000000000e+01,-9.9000000000000000e+01],
"split_indices":[4,0,4,3,0,0,0],
"split_type":[0,0,0,0,0,0,0],
"sum_hessian":[0.0,0.0,0.0,0.0,0.0,0.0,0.0],
"tree_param":{"num_deleted":"0","num_feature":"5","num_nodes":"7","size_leaf_vector":"0"}
},
{
"base_weights":[0.0,0.0,0.0,0.0,0.0,0.0,0.0,0.0,0.0,0.0,0.0],
"categories":[],"categories_nodes":[],"categories_segments":[],"categories_sizes":[],
"default_left":[true,true,true,false,true,true,false,false,false,false,false],
"id":48,
"left_children":[1,3,5,-1,7,9,-1,-1,-1,-1,-1],
"loss_changes":[0.0,0.0,0.0,0.0,0.0,0.0,0.0,0.0,0.0,0.0,0.0],
"parents":[2147483647,0,0,1,1,2,2,4,4,5,5],
"right_children":[2,4,6,-1,8,10,-1,-1,-1,-1,-1],
"split_conditions":[6.1527607031166553e-03,2.3374658584594727e+01,2.2201332092285156e+01,-9.9000000000000000e+01,8.3025598526000977e+00,1.0422418266534805e-01,-9.9000000000000000e+01,-9.9000000000000000e+01,-9.9000000000000000e+01,-9.9000000000000000e+01,-9.9000000000000000e+01],
"split_indices":[3,4,4,0,0,1,0,0,0,0,0],
"split_type":[0,0,0,0,0,0,0,0,0,0,0],
"sum_hessian":[0.0,0.0,0.0,0.0,0.0,0.0,0.0,0.0,0.0,0.0,0.0],
"tree_param":{"num_deleted":"0","num_feature":"5","num_nodes":"11","size_leaf_vector":"0"}
},
{
"base_weights":[0.0,0.0,0.0,0.0,0.0],
"categories":[],"categories_nodes":[],"categories_segments":[],"categories_sizes":[],
"default_left":[true,false,true,false,false],
"id":49,
"left_children":[1,-1,3,-1,-1],
"loss_changes":[0.0,0.0,0.0,0.0,0.0],
"parents":[2147483647,0,0,2,2],
"right_children":[2,-1,4,-1,-1],
"split_conditions":[3.6916565150022507e-03,-9.9000000000000000e+01,1.2192734718322754e+01,-9.9000000000000000e+01,-9.9000000000000000e+01],
"split_indices":[3,0,4,0,0],
"split_type":[0,0,0,0,0],
"sum_hessian":[0.0,0.0,0.0,0.0,0.0],
"tree_param":{"num_deleted":"0","num_feature":"5","num_nodes":"5","size_leaf_vector":"0"}
},
{
"base_weights":[0.0,0.0,0.0,0.0,0.0],
"categories":[],"categories_nodes":[],"categories_segments":[],"categories_sizes":[],
"default_left":[true,true,false,false,false],
"id":50,
"left_children":[1,3,-1,-1,-1],
"loss_changes":[0.0,0.0,0.0,0.0,0.0],
"parents":[2147483647,0,0,1,1],
"right_children":[2,4,-1,-1,-1],
"split_conditions":[3.3631783723831177e-01,3.2937948703765869e+00,-9.9000000000000000e+01,-9.9000000000000000e+01,-9.9000000000000000e+01],
"split_indices":[1,0,0,0,0],
"split_type":[0,0,0,0,0],
"sum_hessian":[0.0,0.0,0.0,0.0,0.0],
"tree_param":{"num_deleted":"0","num_feature":"5","num_nodes":"5","size_leaf_vector":"0"}
},
{
"base_weights":[0.0,0.0,0.0,0.0,0.0,0.0,0.0],
"categories":[],"categories_nodes":[],"categories_segments":[],"categories_sizes":[],
"default_left":[true,true,false,true,false,false,false],
"id":51,
"left_children":[1,3,-1,5,-1,-1,-1],
"loss_changes":[0.0,0.0,0.0,0.0,0.0,0.0,0.0],
"parents":[2147483647,0,0,1,1,3,3],
"right_children":[2,4,-1,6,-1,-1,-1],
"split_conditions":[7.3833130300045013e-03,5.0251670181751251e-02,-9.9000000000000000e+01,5.1467983245849609e+01,-9.9000000000000000e+01,-9.9000000000000000e+01,-9.9000000000000000e+01],
"split_indices":[3,2,0,4,0,0,0],
"split_type":[0,0,0,0,0,0,0],
"sum_hessian":[0.0,0.0,0.0,0.0,0.0,0.0,0.0],
"tree_param":{"num_deleted":"0","num_feature":"5","num_nodes":"7","size_leaf_vector":"0"}
},
{
"base_weights":[0.0,0.0,0.0,0.0,0.0,0.0,0.0,0.0,0.0,0.0,0.0],
"categories":[],"categories_nodes":[],"categories_segments":[],"categories_sizes":[],
"default_left":[true,true,true,false,true,false,true,false,false,false,false],
"id":52,
"left_children":[1,3,5,-1,7,-1,9,-1,-1,-1,-1],
"loss_changes":[0.0,0.0,0.0,0.0,0.0,0.0,0.0,0.0,0.0,0.0,0.0],
"parents":[2147483647,0,0,1,1,2,2,4,4,6,6],
"right_children":[2,4,6,-1,8,-1,10,-1,-1,-1,-1],
"split_conditions":[3.4611988067626953e+01,2.4389510974287987e-02,3.0608611181378365e-02,-9.9000000000000000e+01,5.8843502998352051e+00,-9.9000000000000000e+01,5.8388146571815014e-03,-9.9000000000000000e+01,-9.9000000000000000e+01,-9.9000000000000000e+01,-9.9000000000000000e+01],
"split_indices":[4,2,2,0,0,0,3,0,0,0,0],
"split_type":[0,0,0,0,0,0,0,0,0,0,0],
"sum_hessian":[0.0,0.0,0.0,0.0,0.0,0.0,0.0,0.0,0.0,0.0,0.0],
"tree_param":{"num_deleted":"0","num_feature":"5","num_nodes":"11","size_leaf_vector":"0"}
},
{
"base_weights":[0.0,0.0,0.0,0.0,0.0,0.0,0.0,0.0,0.0,0.0,0.0],
"categories":[],"categories_nodes":[],"categories_segments":[],"categories_sizes":[],
"default_left":[true,true,true,true,false,true,false,false,false,false,false],
"id":53,
"left_children":[1,3,5,7,-1,9,-1,-1,-1,-1,-1],
"loss_changes":[0.0,0.0,0.0,0.0,0.0,0.0,0.0,0.0,0.0,0.0,0.0],
"parents":[2147483647,0,0,1,1,2,2,3,3,5,5],
"right_children":[2,4,6,8,-1,10,-1,-1,-1,-1,-1],
"split_conditions":[6.1527607031166553e-03,2.4150609970092773e-01,2.2201332092285156e+01,1.0827995300292969e+01,-9.9000000000000000e+01,3.0798978805541992e+01,-9.9000000000000000e+01,-9.9000000000000000e+01,-9.9000000000000000e+01,-9.9000000000000000e+01,-9.9000000000000000e+01],
"split_indices":[3,1,4,0,0,4,0,0,0,0,0],
"split_type":[0,0,0,0,0,0,0,0,0,0,0],
"sum_hessian":[0.0,0.0,0.0,0.0,0.0,0.0,0.0,0.0,0.0,0.0,0.0],
"tree_param":{"num_deleted":"0","num_feature":"5","num_nodes":"11","size_leaf_vector":"0"}
},
{
"base_weights":[0.0,0.0,0.0,0.0,0.0,0.0,0.0,0.0,0.0],
"categories":[],"categories_nodes":[],"categories_segments":[],"categories_sizes":[],
"default_left":[true,true,true,true,false,false,false,false,false],
"id":54,
"left_children":[1,3,5,7,-1,-1,-1,-1,-1],
"loss_changes":[0.0,0.0,0.0,0.0,0.0,0.0,0.0,0.0,0.0],
"parents":[2147483647,0,0,1,1,2,2,3,3],
"right_children":[2,4,6,8,-1,-1,-1,-1,-1],
"split_conditions":[6.1527607031166553e-03,1.9410021603107452e-01,6.4750951714813709e-03,4.6389393806457520e+00,-9.9000000000000000e+01,-9.9000000000000000e+01,-9.9000000000000000e+01,-9.9000000000000000e+01,-9.9000000000000000e+01],
"split_indices":[3,1,3,0,0,0,0,0,0],
"split_type":[0,0,0,0,0,0,0,0,0],
"sum_hessian":[0.0,0.0,0.0,0.0,0.0,0.0,0.0,0.0,0.0],
"tree_param":{"num_deleted":"0","num_feature":"5","num_nodes":"9","size_leaf_vector":"0"}
},
{
"base_weights":[0.0,0.0,0.0,0.0,0.0,0.0,0.0,0.0,0.0,0.0,0.0],
"categories":[],"categories_nodes":[],"categories_segments":[],"categories_sizes":[],
"default_left":[true,true,true,false,true,true,false,false,false,false,false],
"id":55,
"left_children":[1,3,5,-1,7,9,-1,-1,-1,-1,-1],
"loss_changes":[0.0,0.0,0.0,0.0,0.0,0.0,0.0,0.0,0.0,0.0,0.0],
"parents":[2147483647,0,0,1,1,2,2,4,4,5,5],
"right_children":[2,4,6,-1,8,10,-1,-1,-1,-1,-1],
"split_conditions":[3.3501114696264267e-02,3.9018249511718750e+01,3.4613628387451172e+01,-9.9000000000000000e+01,1.4046868324279785e+01,2.3376386642456055e+01,-9.9000000000000000e+01,-9.9000000000000000e+01,-9.9000000000000000e+01,-9.9000000000000000e+01,-9.9000000000000000e+01],
"split_indices":[2,4,4,0,0,4,0,0,0,0,0],
"split_type":[0,0,0,0,0,0,0,0,0,0,0],
"sum_hessian":[0.0,0.0,0.0,0.0,0.0,0.0,0.0,0.0,0.0,0.0,0.0],
"tree_param":{"num_deleted":"0","num_feature":"5","num_nodes":"11","size_leaf_vector":"0"}
},
{
"base_weights":[0.0,0.0,0.0,0.0,0.0,0.0,0.0,0.0,0.0,0.0,0.0,0.0,0.0],
"categories":[],"categories_nodes":[],"categories_segments":[],"categories_sizes":[],
"default_left":[true,true,true,true,true,false,true,false,false,false,false,false,false],
"id":56,
"left_children":[1,3,5,7,9,-1,11,-1,-1,-1,-1,-1,-1],
"loss_changes":[0.0,0.0,0.0,0.0,0.0,0.0,0.0,0.0,0.0,0.0,0.0,0.0,0.0],
"parents":[2147483647,0,0,1,1,2,2,3,3,4,4,6,6],
"right_children":[2,4,6,8,10,-1,12,-1,-1,-1,-1,-1,-1],
"split_conditions":[3.4611988067626953e+01,2.4389510974287987e-02,3.0608611181378365e-02,6.0461251996457577e-03,5.8843502998352051e+00,-9.9000000000000000e+01,5.8388146571815014e-03,-9.9000000000000000e+01,-9.9000000000000000e+01,-9.9000000000000000e+01,-9.9000000000000000e+01,-9.9000000000000000e+01,-9.9000000000000000e+01],
"split_indices":[4,2,2,3,0,0,3,0,0,0,0,0,0],
"split_type":[0,0,0,0,0,0,0,0,0,0,0,0,0],
"sum_hessian":[0.0,0.0,0.0,0.0,0.0,0.0,0.0,0.0,0.0,0.0,0.0,0.0,0.0],
"tree_param":{"num_deleted":"0","num_feature":"5","num_nodes":"13","size_leaf_vector":"0"}
},
{
"base_weights":[0.0,0.0,0.0,0.0,0.0,0.0,0.0],
"categories":[],"categories_nodes":[],"categories_segments":[],"categories_sizes":[],
"default_left":[true,true,false,false,true,false,false],
"id":57,
"left_children":[1,3,-1,-1,5,-1,-1],
"loss_changes":[0.0,0.0,0.0,0.0,0.0,0.0,0.0],
"parents":[2147483647,0,0,1,1,4,4],
"right_children":[2,4,-1,-1,6,-1,-1],
"split_conditions":[2.8891196846961975e-01,3.9207120425999165e-03,-9.9000000000000000e+01,-9.9000000000000000e+01,7.5332939624786377e-02,-9.9000000000000000e+01,-9.9000000000000000e+01],
"split_indices":[1,3,0,0,1,0,0],
"split_type":[0,0,0,0,0,0,0],
"sum_hessian":[0.0,0.0,0.0,0.0,0.0,0.0,0.0],
"tree_param":{"num_deleted":"0","num_feature":"5","num_nodes":"7","size_leaf_vector":"0"}
},
{
"base_weights":[0.0,0.0,0.0,0.0,0.0,0.0,0.0],
"categories":[],"categories_nodes":[],"categories_segments":[],"categories_sizes":[],
"default_left":[true,true,false,false,true,false,false],
"id":58,
"left_children":[1,3,-1,-1,5,-1,-1],
"loss_changes":[0.0,0.0,0.0,0.0,0.0,0.0,0.0],
"parents":[2147483647,0,0,1,1,4,4],
"right_children":[2,4,-1,-1,6,-1,-1],
"split_conditions":[2.8891196846961975e-01,1.9050945281982422e+01,-9.9000000000000000e+01,-9.9000000000000000e+01,3.2777641296386719e+01,-9.9000000000000000e+01,-9.9000000000000000e+01],
"split_indices":[1,0,0,0,4,0,0],
"split_type":[0,0,0,0,0,0,0],
"sum_hessian":[0.0,0.0,0.0,0.0,0.0,0.0,0.0],
"tree_param":{"num_deleted":"0","num_feature":"5","num_nodes":"7","size_leaf_vector":"0"}
},
{
"base_weights":[0.0,0.0,0.0,0.0,0.0,0.0,0.0,0.0,0.0,0.0,0.0],
"categories":[],"categories_nodes":[],"categories_segments":[],"categories_sizes":[],
"default_left":[true,true,true,false,true,true,false,false,false,false,false],
"id":59,
"left_children":[1,3,5,-1,7,9,-1,-1,-1,-1,-1],
"loss_changes":[0.0,0.0,0.0,0.0,0.0,0.0,0.0,0.0,0.0,0.0,0.0],
"parents":[2147483647,0,0,1,1,2,2,4,4,5,5],
"right_children":[2,4,6,-1,8,10,-1,-1,-1,-1,-1],
"split_conditions":[1.4669434726238251e-01,3.0060712248086929e-02,4.3069324456155300e-03,-9.9000000000000000e+01,8.0928474664688110e-02,1.2346383094787598e+01,-9.9000000000000000e+01,-9.9000000000000000e+01,-9.9000000000000000e+01,-9.9000000000000000e+01,-9.9000000000000000e+01],
"split_indices":[1,2,3,0,1,4,0,0,0,0,0],
"split_type":[0,0,0,0,0,0,0,0,0,0,0],
"sum_hessian":[0.0,0.0,0.0,0.0,0.0,0.0,0.0,0.0,0.0,0.0,0.0],
"tree_param":{"num_deleted":"0","num_feature":"5","num_nodes":"11","size_leaf_vector":"0"}
},
{
"base_weights":[0.0,0.0,0.0,0.0,0.0,0.0,0.0,0.0,0.0,0.0,0.0],
"categories":[],"categories_nodes":[],"categories_segments":[],"categories_sizes":[],
"default_left":[true,true,true,false,true,false,true,false,false,false,false],
"id":60,
"left_children":[1,3,5,-1,7,-1,9,-1,-1,-1,-1],
"loss_changes":[0.0,0.0,0.0,0.0,0.0,0.0,0.0,0.0,0.0,0.0,0.0],
"parents":[2147483647,0,0,1,1,2,2,4,4,6,6],
"right_children":[2,4,6,-1,8,-1,10,-1,-1,-1,-1],
"split_conditions":[1.4669434726238251e-01,1.0318426132202148e+01,2.2651172637939453e+01,-9.9000000000000000e+01,7.1786451153457165e-03,-9.9000000000000000e+01,3.4396930694580078e+01,-9.9000000000000000e+01,-9.9000000000000000e+01,-9.9000000000000000e+01,-9.9000000000000000e+01],
"split_indices":[1,0,0,0,3,0,4,0,0,0,0],
"split_type":[0,0,0,0,0,0,0,0,0,0,0],
"sum_hessian":[0.0,0.0,0.0,0.0,0.0,0.0,0.0,0.0,0.0,0.0,0.0],
"tree_param":{"num_deleted":"0","num_feature":"5","num_nodes":"11","size_leaf_vector":"0"}
},
{
"base_weights":[0.0,0.0,0.0,0.0,0.0,0.0,0.0,0.0,0.0],
"categories":[],"categories_nodes":[],"categories_segments":[],"categories_sizes":[],
"default_left":[true,true,true,false,true,false,false,false,false],
"id":61,
"left_children":[1,3,5,-1,7,-1,-1,-1,-1],
"loss_changes":[0.0,0.0,0.0,0.0,0.0,0.0,0.0,0.0,0.0],
"parents":[2147483647,0,0,1,1,2,2,4,4],
"right_children":[2,4,6,-1,8,-1,-1,-1,-1],
"split_conditions":[1.4669434726238251e-01,1.0318426132202148e+01,2.2651172637939453e+01,-9.9000000000000000e+01,3.5340507030487061e+00,-9.9000000000000000e+01,-9.9000000000000000e+01,-9.9000000000000000e+01,-9.9000000000000000e+01],
"split_indices":[1,0,0,0,0,0,0,0,0],
"split_type":[0,0,0,0,0,0,0,0,0],
"sum_hessian":[0.0,0.0,0.0,0.0,0.0,0.0,0.0,0.0,0.0],
"tree_param":{"num_deleted":"0","num_feature":"5","num_nodes":"9","size_leaf_vector":"0"}
},
{
"base_weights":[0.0,0.0,0.0,0.0,0.0],
"categories":[],"categories_nodes":[],"categories_segments":[],"categories_sizes":[],
"default_left":[true,false,true,false,false],
"id":62,
"left_children":[1,-1,3,-1,-1],
"loss_changes":[0.0,0.0,0.0,0.0,0.0],
"parents":[2147483647,0,0,2,2],
"right_children":[2,-1,4,-1,-1],
"split_conditions":[1.2562917545437813e-02,-9.9000000000000000e+01,4.8457108438014984e-02,-9.9000000000000000e+01,-9.9000000000000000e+01],
"split_indices":[2,0,2,0,0],
"split_type":[0,0,0,0,0],
"sum_hessian":[0.0,0.0,0.0,0.0,0.0],
"tree_param":{"num_deleted":"0","num_feature":"5","num_nodes":"5","size_leaf_vector":"0"}
},
{
"base_weights":[0.0,0.0,0.0,0.0,0.0,0.0,0.0],
"categories":[],"categories_nodes":[],"categories_segments":[],"categories_sizes":[],
"default_left":[true,false,true,false,true,false,false],
"id":63,
"left_children":[1,-1,3,-1,5,-1,-1],
"loss_changes":[0.0,0.0,0.0,0.0,0.0,0.0,0.0],
"parents":[2147483647,0,0,2,2,4,4],
"right_children":[2,-1,4,-1,6,-1,-1],
"split_conditions":[1.2562917545437813e-02,-9.9000000000000000e+01,1.2137329101562500e+01,-9.9000000000000000e+01,2.9927262663841248e-01,-9.9000000000000000e+01,-9.9000000000000000e+01],
"split_indices":[2,0,4,0,1,0,0],
"split_type":[0,0,0,0,0,0,0],
"sum_hessian":[0.0,0.0,0.0,0.0,0.0,0.0,0.0],
"tree_param":{"num_deleted":"0","num_feature":"5","num_nodes":"7","size_leaf_vector":"0"}
},
{
"base_weights":[0.0,0.0,0.0,0.0,0.0],
"categories":[],"categories_nodes":[],"categories_segments":[],"categories_sizes":[],
"default_left":[true,false,true,false,false],
"id":64,
"left_children":[1,-1,3,-1,-1],
"loss_changes":[0.0,0.0,0.0,0.0,0.0],
"parents":[2147483647,0,0,2,2],
"right_children":[2,-1,4,-1,-1],
"split_conditions":[1.2562917545437813e-02,-9.9000000000000000e+01,2.0999118804931641e+01,-9.9000000000000000e+01,-9.9000000000000000e+01],
"split_indices":[2,0,0,0,0],
"split_type":[0,0,0,0,0],
"sum_hessian":[0.0,0.0,0.0,0.0,0.0],
"tree_param":{"num_deleted":"0","num_feature":"5","num_nodes":"5","size_leaf_vector":"0"}
},
{
"base_weights":[0.0,0.0,0.0,0.0,0.0,0.0,0.0],
"categories":[],"categories_nodes":[],"categories_segments":[],"categories_sizes":[],
"default_left":[true,true,false,false,true,false,false],
"id":65,
"left_children":[1,3,-1,-1,5,-1,-1],
"loss_changes":[0.0,0.0,0.0,0.0,0.0,0.0,0.0],
"parents":[2147483647,0,0,1,1,4,4],
"right_children":[2,4,-1,-1,6,-1,-1],
"split_conditions":[4.3112960457801819e-01,1.3538538478314877e-02,-9.9000000000000000e+01,-9.9000000000000000e+01,2.0763835310935974e-01,-9.9000000000000000e+01,-9.9000000000000000e+01],
"split_indices":[1,2,0,0,1,0,0],
"split_type":[0,0,0,0,0,0,0],
"sum_hessian":[0.0,0.0,0.0,0.0,0.0,0.0,0.0],
"tree_param":{"num_deleted":"0","num_feature":"5","num_nodes":"7","size_leaf_vector":"0"}
},
{
"base_weights":[0.0,0.0,0.0,0.0,0.0,0.0,0.0,0.0,0.0,0.0,0.0],
"categories":[],"categories_nodes":[],"categories_segments":[],"categories_sizes":[],
"default_left":[true,true,true,true,true,false,false,false,false,false,false],
"id":66,
"left_children":[1,3,5,7,9,-1,-1,-1,-1,-1,-1],
"loss_changes":[0.0,0.0,0.0,0.0,0.0,0.0,0.0,0.0,0.0,0.0,0.0],
"parents":[2147483647,0,0,1,1,2,2,3,3,4,4],
"right_children":[2,4,6,8,10,-1,-1,-1,-1,-1,-1],
"split_conditions":[4.5849319458007812e+01,5.5374847725033760e-03,3.9374843239784241e-02,2.4474039077758789e+01,2.2304286956787109e+01,-9.9000000000000000e+01,-9.9000000000000000e+01,-9.9000000000000000e+01,-9.9000000000000000e+01,-9.9000000000000000e+01,-9.9000000000000000e+01],
"split_indices":[4,3,2,4,4,0,0,0,0,0,0],
"split_type":[0,0,0,0,0,0,0,0,0,0,0],
"sum_hessian":[0.0,0.0,0.0,0.0,0.0,0.0,0.0,0.0,0.0,0.0,0.0],
"tree_param":{"num_deleted":"0","num_feature":"5","num_nodes":"11","size_leaf_vector":"0"}
},
{
"base_weights":[0.0,0.0,0.0,0.0,0.0,0.0,0.0],
"categories":[],"categories_nodes":[],"categories_segments":[],"categories_sizes":[],
"default_left":[true,true,false,false,true,false,false],
"id":67,
"left_children":[1,3,-1,-1,5,-1,-1],
"loss_changes":[0.0,0.0,0.0,0.0,0.0,0.0,0.0],
"parents":[2147483647,0,0,1,1,4,4],
"right_children":[2,4,-1,-1,6,-1,-1],
"split_conditions":[4.3112960457801819e-01,1.3538538478314877e-02,-9.9000000000000000e+01,-9.9000000000000000e+01,1.7455791473388672e+01,-9.9000000000000000e+01,-9.9000000000000000e+01],
"split_indices":[1,2,0,0,0,0,0],
"split_type":[0,0,0,0,0,0,0],
"sum_hessian":[0.0,0.0,0.0,0.0,0.0,0.0,0.0],
"tree_param":{"num_deleted":"0","num_feature":"5","num_nodes":"7","size_leaf_vector":"0"}
},
{
"base_weights":[0.0,0.0,0.0,0.0,0.0,0.0,0.0],
"categories":[],"categories_nodes":[],"categories_segments":[],"categories_sizes":[],
"default_left":[true,true,false,false,true,false,false],
"id":68,
"left_children":[1,3,-1,-1,5,-1,-1],
"loss_changes":[0.0,0.0,0.0,0.0,0.0,0.0,0.0],
"parents":[2147483647,0,0,1,1,4,4],
"right_children":[2,4,-1,-1,6,-1,-1],
"split_conditions":[4.3112960457801819e-01,1.3538538478314877e-02,-9.9000000000000000e+01,-9.9000000000000000e+01,1.2637369334697723e-01,-9.9000000000000000e+01,-9.9000000000000000e+01],
"split_indices":[1,2,0,0,1,0,0],
"split_type":[0,0,0,0,0,0,0],
"sum_hessian":[0.0,0.0,0.0,0.0,0.0,0.0,0.0],
"tree_param":{"num_deleted":"0","num_feature":"5","num_nodes":"7","size_leaf_vector":"0"}
},
{
"base_weights":[0.0,0.0,0.0,0.0,0.0,0.0,0.0],
"categories":[],"categories_nodes":[],"categories_segments":[],"categories_sizes":[],
"default_left":[true,true,false,false,true,false,false],
"id":69,
"left_children":[1,3,-1,-1,5,-1,-1],
"loss_changes":[0.0,0.0,0.0,0.0,0.0,0.0,0.0],
"parents":[2147483647,0,0,1,1,4,4],
"right_children":[2,4,-1,-1,6,-1,-1],
"split_conditions":[4.3112960457801819e-01,1.3538538478314877e-02,-9.9000000000000000e+01,-9.9000000000000000e+01,1.7455791473388672e+01,-9.9000000000000000e+01,-9.9000000000000000e+01],
"split_indices":[1,2,0,0,0,0,0],
"split_type":[0,0,0,0,0,0,0],
"sum_hessian":[0.0,0.0,0.0,0.0,0.0,0.0,0.0],
"tree_param":{"num_deleted":"0","num_feature":"5","num_nodes":"7","size_leaf_vector":"0"}
},
{
"base_weights":[0.0,0.0,0.0,0.0,0.0,0.0,0.0,0.0,0.0,0.0,0.0],
"categories":[],"categories_nodes":[],"categories_segments":[],"categories_sizes":[],
"default_left":[true,true,true,true,true,false,false,false,false,false,false],
"id":70,
"left_children":[1,3,5,7,9,-1,-1,-1,-1,-1,-1],
"loss_changes":[0.0,0.0,0.0,0.0,0.0,0.0,0.0,0.0,0.0,0.0,0.0],
"parents":[2147483647,0,0,1,1,2,2,3,3,4,4],
"right_children":[2,4,6,8,10,-1,-1,-1,-1,-1,-1],
"split_conditions":[4.5849319458007812e+01,4.9222088418900967e-03,3.9374843239784241e-02,9.8124504089355469e-02,3.8372373580932617e-01,-9.9000000000000000e+01,-9.9000000000000000e+01,-9.9000000000000000e+01,-9.9000000000000000e+01,-9.9000000000000000e+01,-9.9000000000000000e+01],
"split_indices":[4,3,2,1,1,0,0,0,0,0,0],
"split_type":[0,0,0,0,0,0,0,0,0,0,0],
"sum_hessian":[0.0,0.0,0.0,0.0,0.0,0.0,0.0,0.0,0.0,0.0,0.0],
"tree_param":{"num_deleted":"0","num_feature":"5","num_nodes":"11","size_leaf_vector":"0"}
},
{
"base_weights":[0.0,0.0,0.0,0.0,0.0,0.0,0.0],
"categories":[],"categories_nodes":[],"categories_segments":[],"categories_sizes":[],
"default_left":[true,false,true,true,false,false,false],
"id":71,
"left_children":[1,-1,3,5,-1,-1,-1],
"loss_changes":[0.0,0.0,0.0,0.0,0.0,0.0,0.0],
"parents":[2147483647,0,0,2,2,3,3],
"right_children":[2,-1,4,6,-1,-1,-1],
"split_conditions":[9.9288471043109894e-02,-9.9000000000000000e+01,4.5849319458007812e+01,4.9222088418900967e-03,-9.9000000000000000e+01,-9.9000000000000000e+01,-9.9000000000000000e+01],
"split_indices":[1,0,4,3,0,0,0],
"split_type":[0,0,0,0,0,0,0],
"sum_hessian":[0.0,0.0,0.0,0.0,0.0,0.0,0.0],
"tree_param":{"num_deleted":"0","num_feature":"5","num_nodes":"7","size_leaf_vector":"0"}
},
{
"base_weights":[0.0,0.0,0.0,0.0,0.0,0.0,0.0,0.0,0.0,0.0,0.0],
"categories":[],"categories_nodes":[],"categories_segments":[],"categories_sizes":[],
"default_left":[true,true,true,false,true,false,true,false,false,false,false],
"id":72,
"left_children":[1,3,5,-1,7,-1,9,-1,-1,-1,-1],
"loss_changes":[0.0,0.0,0.0,0.0,0.0,0.0,0.0,0.0,0.0,0.0,0.0],
"parents":[2147483647,0,0,1,1,2,2,4,4,6,6],
"right_children":[2,4,6,-1,8,-1,10,-1,-1,-1,-1],
"split_conditions":[6.1527607031166553e-03,2.4150609970092773e-01,1.8727600574493408e-01,-9.9000000000000000e+01,1.5661719322204590e+01,-9.9000000000000000e+01,1.1920380592346191e-01,-9.9000000000000000e+01,-9.9000000000000000e+01,-9.9000000000000000e+01,-9.9000000000000000e+01],
"split_indices":[3,1,1,0,4,0,1,0,0,0,0],
"split_type":[0,0,0,0,0,0,0,0,0,0,0],
"sum_hessian":[0.0,0.0,0.0,0.0,0.0,0.0,0.0,0.0,0.0,0.0,0.0],
"tree_param":{"num_deleted":"0","num_feature":"5","num_nodes":"11","size_leaf_vector":"0"}
},
{
"base_weights":[0.0,0.0,0.0,0.0,0.0,0.0,0.0],
"categories":[],"categories_nodes":[],"categories_segments":[],"categories_sizes":[],
"default_left":[true,false,true,true,false,false,false],
"id":73,
"left_children":[1,-1,3,5,-1,-1,-1],
"loss_changes":[0.0,0.0,0.0,0.0,0.0,0.0,0.0],
"parents":[2147483647,0,0,2,2,3,3],
"right_children":[2,-1,4,6,-1,-1,-1],
"split_conditions":[5.1467983245849609e+01,-9.9000000000000000e+01,4.4243858337402344e+01,2.5125835090875626e-02,-9.9000000000000000e+01,-9.9000000000000000e+01,-9.9000000000000000e+01],
"split_indices":[4,0,4,2,0,0,0],
"split_type":[0,0,0,0,0,0,0],
"sum_hessian":[0.0,0.0,0.0,0.0,0.0,0.0,0.0],
"tree_param":{"num_deleted":"0","num_feature":"5","num_nodes":"7","size_leaf_vector":"0"}
},
{
"base_weights":[0.0,0.0,0.0,0.0,0.0,0.0,0.0,0.0,0.0,0.0,0.0],
"categories":[],"categories_nodes":[],"categories_segments":[],"categories_sizes":[],
"default_left":[true,true,true,false,true,true,false,false,false,false,false],
"id":74,
"left_children":[1,3,5,-1,7,9,-1,-1,-1,-1,-1],
"loss_changes":[0.0,0.0,0.0,0.0,0.0,0.0,0.0,0.0,0.0,0.0,0.0],
"parents":[2147483647,0,0,1,1,2,2,4,4,5,5],
"right_children":[2,4,6,-1,8,10,-1,-1,-1,-1,-1],
"split_conditions":[2.9313474893569946e-02,3.6086189270019531e+01,2.8993324279785156e+01,-9.9000000000000000e+01,2.5125674903392792e-02,3.7181396037340164e-02,-9.9000000000000000e+01,-9.9000000000000000e+01,-9.9000000000000000e+01,-9.9000000000000000e+01,-9.9000000000000000e+01],
"split_indices":[2,4,4,0,2,2,0,0,0,0,0],
"split_type":[0,0,0,0,0,0,0,0,0,0,0],
"sum_hessian":[0.0,0.0,0.0,0.0,0.0,0.0,0.0,0.0,0.0,0.0,0.0],
"tree_param":{"num_deleted":"0","num_feature":"5","num_nodes":"11","size_leaf_vector":"0"}
},
{
"base_weights":[0.0,0.0,0.0,0.0,0.0,0.0,0.0,0.0,0.0,0.0,0.0,0.0,0.0],
"categories":[],"categories_nodes":[],"categories_segments":[],"categories_sizes":[],
"default_left":[true,true,true,false,true,true,true,false,false,false,false,false,false],
"id":75,
"left_children":[1,3,5,-1,7,9,11,-1,-1,-1,-1,-1,-1],
"loss_changes":[0.0,0.0,0.0,0.0,0.0,0.0,0.0,0.0,0.0,0.0,0.0,0.0,0.0],
"parents":[2147483647,0,0,1,1,2,2,4,4,5,5,6,6],
"right_children":[2,4,6,-1,8,10,12,-1,-1,-1,-1,-1,-1],
"split_conditions":[2.0938197150826454e-02,1.1626336097717285e+01,2.8993324279785156e+01,-9.9000000000000000e+01,4.3069324456155300e-03,1.9628694534301758e+01,3.6891408264636993e-02,-9.9000000000000000e+01,-9.9000000000000000e+01,-9.9000000000000000e+01,-9.9000000000000000e+01,-9.9000000000000000e+01,-9.9000000000000000e+01],
"split_indices":[2,0,4,0,3,4,2,0,0,0,0,0,0],
"split_type":[0,0,0,0,0,0,0,0,0,0,0,0,0],
"sum_hessian":[0.0,0.0,0.0,0.0,0.0,0.0,0.0,0.0,0.0,0.0,0.0,0.0,0.0],
"tree_param":{"num_deleted":"0","num_feature":"5","num_nodes":"13","size_leaf_vector":"0"}
},
{
"base_weights":[0.0,0.0,0.0,0.0,0.0,0.0,0.0,0.0,0.0,0.0,0.0],
"categories":[],"categories_nodes":[],"categories_segments":[],"categories_sizes":[],
"default_left":[true,true,true,false,true,true,false,false,false,false,false],
"id":76,
"left_children":[1,3,5,-1,7,9,-1,-1,-1,-1,-1],
"loss_changes":[0.0,0.0,0.0,0.0,0.0,0.0,0.0,0.0,0.0,0.0,0.0],
"parents":[2147483647,0,0,1,1,2,2,4,4,5,5],
"right_children":[2,4,6,-1,8,10,-1,-1,-1,-1,-1],
"split_conditions":[4.9222088418900967e-03,3.4913726806640625e+01,4.5887226104736328e+01,-9.9000000000000000e+01,2.3575668334960938e+01,2.1705314517021179e-02,-9.9000000000000000e+01,-9.9000000000000000e+01,-9.9000000000000000e+01,-9.9000000000000000e+01,-9.9000000000000000e+01],
"split_indices":[3,4,4,0,4,2,0,0,0,0,0],
"split_type":[0,0,0,0,0,0,0,0,0,0,0],
"sum_hessian":[0.0,0.0,0.0,0.0,0.0,0.0,0.0,0.0,0.0,0.0,0.0],
"tree_param":{"num_deleted":"0","num_feature":"5","num_nodes":"11","size_leaf_vector":"0"}
},
{
"base_weights":[0.0,0.0,0.0,0.0,0.0,0.0,0.0],
"categories":[],"categories_nodes":[],"categories_segments":[],"categories_sizes":[],
"default_left":[true,false,true,false,true,false,false],
"id":77,
"left_children":[1,-1,3,-1,5,-1,-1],
"loss_changes":[0.0,0.0,0.0,0.0,0.0,0.0,0.0],
"parents":[2147483647,0,0,2,2,4,4],
"right_children":[2,-1,4,-1,6,-1,-1],
"split_conditions":[3.6916565150022507e-03,-9.9000000000000000e+01,1.2192734718322754e+01,-9.9000000000000000e+01,5.2840190887451172e+01,-9.9000000000000000e+01,-9.9000000000000000e+01],
"split_indices":[3,0,4,0,4,0,0],
"split_type":[0,0,0,0,0,0,0],
"sum_hessian":[0.0,0.0,0.0,0.0,0.0,0.0,0.0],
"tree_param":{"num_deleted":"0","num_feature":"5","num_nodes":"7","size_leaf_vector":"0"}
},
{
"base_weights":[0.0,0.0,0.0],
"categories":[],"categories_nodes":[],"categories_segments":[],"categories_sizes":[],
"default_left":[true,false,false],
"id":78,
"left_children":[1,-1,-1],
"loss_changes":[0.0,0.0,0.0],
"parents":[2147483647,0,0],
"right_children":[2,-1,-1],
"split_conditions":[4.3112960457801819e-01,-9.9000000000000000e+01,-9.9000000000000000e+01],
"split_indices":[1,0,0],
"split_type":[0,0,0],
"sum_hessian":[0.0,0.0,0.0],
"tree_param":{"num_deleted":"0","num_feature":"5","num_nodes":"3","size_leaf_vector":"0"}
},
{
"base_weights":[0.0,0.0,0.0,0.0,0.0,0.0,0.0],
"categories":[],"categories_nodes":[],"categories_segments":[],"categories_sizes":[],
"default_left":[true,true,false,false,true,false,false],
"id":79,
"left_children":[1,3,-1,-1,5,-1,-1],
"loss_changes":[0.0,0.0,0.0,0.0,0.0,0.0,0.0],
"parents":[2147483647,0,0,1,1,4,4],
"right_children":[2,4,-1,-1,6,-1,-1],
"split_conditions":[4.3112960457801819e-01,3.6916565150022507e-03,-9.9000000000000000e+01,-9.9000000000000000e+01,1.7621926963329315e-02,-9.9000000000000000e+01,-9.9000000000000000e+01],
"split_indices":[1,3,0,0,2,0,0],
"split_type":[0,0,0,0,0,0,0],
"sum_hessian":[0.0,0.0,0.0,0.0,0.0,0.0,0.0],
"tree_param":{"num_deleted":"0","num_feature":"5","num_nodes":"7","size_leaf_vector":"0"}
},
{
"base_weights":[0.0,0.0,0.0,0.0,0.0],
"categories":[],"categories_nodes":[],"categories_segments":[],"categories_sizes":[],
"default_left":[true,true,false,false,false],
"id":80,
"left_children":[1,3,-1,-1,-1],
"loss_changes":[0.0,0.0,0.0,0.0,0.0],
"parents":[2147483647,0,0,1,1],
"right_children":[2,4,-1,-1,-1],
"split_conditions":[3.3631783723831177e-01,3.2937948703765869e+00,-9.9000000000000000e+01,-9.9000000000000000e+01,-9.9000000000000000e+01],
"split_indices":[1,0,0,0,0],
"split_type":[0,0,0,0,0],
"sum_hessian":[0.0,0.0,0.0,0.0,0.0],
"tree_param":{"num_deleted":"0","num_feature":"5","num_nodes":"5","size_leaf_vector":"0"}
},
{
"base_weights":[0.0,0.0,0.0,0.0,0.0,0.0,0.0,0.0,0.0],
"categories":[],"categories_nodes":[],"categories_segments":[],"categories_sizes":[],
"default_left":[true,true,false,true,true,false,false,false,false],
"id":81,
"left_children":[1,3,-1,5,7,-1,-1,-1,-1],
"loss_changes":[0.0,0.0,0.0,0.0,0.0,0.0,0.0,0.0,0.0],
"parents":[2147483647,0,0,1,1,3,3,4,4],
"right_children":[2,4,-1,6,8,-1,-1,-1,-1],
"split_conditions":[7.3833130300045013e-03,5.2737570367753506e-03,-9.9000000000000000e+01,4.0230651855468750e+01,4.3936489105224609e+01,-9.9000000000000000e+01,-9.9000000000000000e+01,-9.9000000000000000e+01,-9.9000000000000000e+01],
"split_indices":[3,3,0,4,4,0,0,0,0],
"split_type":[0,0,0,0,0,0,0,0,0],
"sum_hessian":[0.0,0.0,0.0,0.0,0.0,0.0,0.0,0.0,0.0],
"tree_param":{"num_deleted":"0","num_feature":"5","num_nodes":"9","size_leaf_vector":"0"}
},
{
"base_weights":[0.0,0.0,0.0,0.0,0.0,0.0,0.0,0.0,0.0,0.0,0.0],
"categories":[],"categories_nodes":[],"categories_segments":[],"categories_sizes":[],
"default_left":[true,true,true,false,true,true,false,false,false,false,false],
"id":82,
"left_children":[1,3,5,-1,7,9,-1,-1,-1,-1,-1],
"loss_changes":[0.0,0.0,0.0,0.0,0.0,0.0,0.0,0.0,0.0,0.0,0.0],
"parents":[2147483647,0,0,1,1,2,2,4,4,5,5],
"right_children":[2,4,6,-1,8,10,-1,-1,-1,-1,-1],
"split_conditions":[5.5374847725033760e-03,4.0230651855468750e+01,4.3936489105224609e+01,-9.9000000000000000e+01,2.3374502182006836e+01,2.5309778749942780e-02,-9.9000000000000000e+01,-9.9000000000000000e+01,-9.9000000000000000e+01,-9.9000000000000000e+01,-9.9000000000000000e+01],
"split_indices":[3,4,4,0,4,2,0,0,0,0,0],
"split_type":[0,0,0,0,0,0,0,0,0,0,0],
"sum_hessian":[0.0,0.0,0.0,0.0,0.0,0.0,0.0,0.0,0.0,0.0,0.0],
"tree_param":{"num_deleted":"0","num_feature":"5","num_nodes":"11","size_leaf_vector":"0"}
},
{
"base_weights":[0.0,0.0,0.0,0.0,0.0,0.0,0.0,0.0,0.0,0.0,0.0],
"categories":[],"categories_nodes":[],"categories_segments":[],"categories_sizes":[],
"default_left":[true,true,true,false,true,true,false,false,false,false,false],
"id":83,
"left_children":[1,3,5,-1,7,9,-1,-1,-1,-1,-1],
"loss_changes":[0.0,0.0,0.0,0.0,0.0,0.0,0.0,0.0,0.0,0.0,0.0],
"parents":[2147483647,0,0,1,1,2,2,4,4,5,5],
"right_children":[2,4,6,-1,8,10,-1,-1,-1,-1,-1],
"split_conditions":[5.5374847725033760e-03,4.0230651855468750e+01,4.3936489105224609e+01,-9.9000000000000000e+01,3.7688754498958588e-02,2.3471618652343750e+01,-9.9000000000000000e+01,-9.9000000000000000e+01,-9.9000000000000000e+01,-9.9000000000000000e+01,-9.9000000000000000e+01],
"split_indices":[3,4,4,0,2,4,0,0,0,0,0],
"split_type":[0,0,0,0,0,0,0,0,0,0,0],
"sum_hessian":[0.0,0.0,0.0,0.0,0.0,0.0,0.0,0.0,0.0,0.0,0.0],
"tree_param":{"num_deleted":"0","num_feature":"5","num_nodes":"11","size_leaf_vector":"0"}
},
{
"base_weights":[0.0,0.0,0.0,0.0,0.0,0.0,0.0],
"categories":[],"categories_nodes":[],"categories_segments":[],"categories_sizes":[],
"default_left":[true,false,true,true,false,false,false],
"id":84,
"left_children":[1,-1,3,5,-1,-1,-1],
"loss_changes":[0.0,0.0,0.0,0.0,0.0,0.0,0.0],
"parents":[2147483647,0,0,2,2,3,3],
"right_children":[2,-1,4,6,-1,-1,-1],
"split_conditions":[5.1467983245849609e+01,-9.9000000000000000e+01,2.9313474893569946e-02,6.7678256034851074e+00,-9.9000000000000000e+01,-9.9000000000000000e+01,-9.9000000000000000e+01],
"split_indices":[4,0,2,0,0,0,0],
"split_type":[0,0,0,0,0,0,0],
"sum_hessian":[0.0,0.0,0.0,0.0,0.0,0.0,0.0],
"tree_param":{"num_deleted":"0","num_feature":"5","num_nodes":"7","size_leaf_vector":"0"}
},
{
"base_weights":[0.0,0.0,0.0,0.0,0.0],
"categories":[],"categories_nodes":[],"categories_segments":[],"categories_sizes":[],
"default_left":[true,true,false,false,false],
"id":85,
"left_children":[1,3,-1,-1,-1],
"loss_changes":[0.0,0.0,0.0,0.0,0.0],
"parents":[2147483647,0,0,1,1],
"right_children":[2,4,-1,-1,-1],
"split_conditions":[4.3112960457801819e-01,1.3538538478314877e-02,-9.9000000000000000e+01,-9.9000000000000000e+01,-9.9000000000000000e+01],
"split_indices":[1,2,0,0,0],
"split_type":[0,0,0,0,0],
"sum_hessian":[0.0,0.0,0.0,0.0,0.0],
"tree_param":{"num_deleted":"0","num_feature":"5","num_nodes":"5","size_leaf_vector":"0"}
},
{
"base_weights":[0.0,0.0,0.0,0.0,0.0,0.0,0.0],
"categories":[],"categories_nodes":[],"categories_segments":[],"categories_sizes":[],
"default_left":[true,true,false,false,true,false,false],
"id":86,
"left_children":[1,3,-1,-1,5,-1,-1],
"loss_changes":[0.0,0.0,0.0,0.0,0.0,0.0,0.0],
"parents":[2147483647,0,0,1,1,4,4],
"right_children":[2,4,-1,-1,6,-1,-1],
"split_conditions":[4.3112960457801819e-01,3.6916565150022507e-03,-9.9000000000000000e+01,-9.9000000000000000e+01,2.0979028940200806e-01,-9.9000000000000000e+01,-9.9000000000000000e+01],
"split_indices":[1,3,0,0,1,0,0],
"split_type":[0,0,0,0,0,0,0],
"sum_hessian":[0.0,0.0,0.0,0.0,0.0,0.0,0.0],
"tree_param":{"num_deleted":"0","num_feature":"5","num_nodes":"7","size_leaf_vector":"0"}
},
{
"base_weights":[0.0,0.0,0.0,0.0,0.0,0.0,0.0],
"categories":[],"categories_nodes":[],"categories_segments":[],"categories_sizes":[],
"default_left":[true,false,true,true,false,false,false],
"id":87,
"left_children":[1,-1,3,5,-1,-1,-1],
"loss_changes":[0.0,0.0,0.0,0.0,0.0,0.0,0.0],
"parents":[2147483647,0,0,2,2,3,3],
"right_children":[2,-1,4,6,-1,-1,-1],
"split_conditions":[5.1467983245849609e+01,-9.9000000000000000e+01,8.1239767074584961e+00,1.4387763105332851e-02,-9.9000000000000000e+01,-9.9000000000000000e+01,-9.9000000000000000e+01],
"split_indices":[4,0,4,2,0,0,0],
"split_type":[0,0,0,0,0,0,0],
"sum_hessian":[0.0,0.0,0.0,0.0,0.0,0.0,0.0],
"tree_param":{"num_deleted":"0","num_feature":"5","num_nodes":"7","size_leaf_vector":"0"}
},
{
"base_weights":[0.0,0.0,0.0,0.0,0.0,0.0,0.0,0.0,0.0],
"categories":[],"categories_nodes":[],"categories_segments":[],"categories_sizes":[],
"default_left":[true,false,true,true,true,false,false,false,false],
"id":88,
"left_children":[1,-1,3,5,7,-1,-1,-1,-1],
"loss_changes":[0.0,0.0,0.0,0.0,0.0,0.0,0.0,0.0,0.0],
"parents":[2147483647,0,0,2,2,3,3,4,4],
"right_children":[2,-1,4,6,8,-1,-1,-1,-1],
"split_conditions":[2.0999118804931641e+01,-9.9000000000000000e+01,6.1012029647827148e+00,1.7024467468261719e+01,2.0607366561889648e+01,-9.9000000000000000e+01,-9.9000000000000000e+01,-9.9000000000000000e+01,-9.9000000000000000e+01],
"split_indices":[0,0,0,4,4,0,0,0,0],
"split_type":[0,0,0,0,0,0,0,0,0],
"sum_hessian":[0.0,0.0,0.0,0.0,0.0,0.0,0.0,0.0,0.0],
"tree_param":{"num_deleted":"0","num_feature":"5","num_nodes":"9","size_leaf_vector":"0"}
},
{
"base_weights":[0.0,0.0,0.0,0.0,0.0,0.0,0.0,0.0,0.0,0.0,0.0,0.0,0.0],
"categories":[],"categories_nodes":[],"categories_segments":[],"categories_sizes":[],
"default_left":[true,true,true,true,true,false,true,false,false,false,false,false,false],
"id":89,
"left_children":[1,3,5,7,9,-1,11,-1,-1,-1,-1,-1,-1],
"loss_changes":[0.0,0.0,0.0,0.0,0.0,0.0,0.0,0.0,0.0,0.0,0.0,0.0,0.0],
"parents":[2147483647,0,0,1,1,2,2,3,3,4,4,6,6],
"right_children":[2,4,6,8,10,-1,12,-1,-1,-1,-1,-1,-1],
"split_conditions":[3.4611988067626953e+01,2.0324593409895897e-02,5.1668528467416763e-03,6.0461251996457577e-03,1.1626336097717285e+01,-9.9000000000000000e+01,1.2212193012237549e-01,-9.9000000000000000e+01,-9.9000000000000000e+01,-9.9000000000000000e+01,-9.9000000000000000e+01,-9.9000000000000000e+01,-9.9000000000000000e+01],
"split_indices":[4,2,3,3,0,0,1,0,0,0,0,0,0],
"split_type":[0,0,0,0,0,0,0,0,0,0,0,0,0],
"sum_hessian":[0.0,0.0,0.0,0.0,0.0,0.0,0.0,0.0,0.0,0.0,0.0,0.0,0.0],
"tree_param":{"num_deleted":"0","num_feature":"5","num_nodes":"13","size_leaf_vector":"0"}
},
{
"base_weights":[0.0,0.0,0.0,0.0,0.0,0.0,0.0,0.0,0.0,0.0,0.0,0.0,0.0,0.0,0.0],
"categories":[],"categories_nodes":[],"categories_segments":[],"categories_sizes":[],
"default_left":[true,true,true,true,true,true,true,false,false,false,false,false,false,false,false],
"id":90,
"left_children":[1,3,5,7,9,11,13,-1,-1,-1,-1,-1,-1,-1,-1],
"loss_changes":[0.0,0.0,0.0,0.0,0.0,0.0,0.0,0.0,0.0,0.0,0.0,0.0,0.0,0.0,0.0],
"parents":[2147483647,0,0,1,1,2,2,3,3,4,4,5,5,6,6],
"right_children":[2,4,6,8,10,12,14,-1,-1,-1,-1,-1,-1,-1,-1],
"split_conditions":[3.4611988067626953e+01,4.9222088418900967e-03,5.8388146571815014e-03,2.5309778749942780e-02,1.6073977574706078e-02,6.6067925654351711e-03,5.1186941564083099e-03,-9.9000000000000000e+01,-9.9000000000000000e+01,-9.9000000000000000e+01,-9.9000000000000000e+01,-9.9000000000000000e+01,-9.9000000000000000e+01,-9.9000000000000000e+01,-9.9000000000000000e+01],
"split_indices":[4,3,3,2,2,3,3,0,0,0,0,0,0,0,0],
"split_type":[0,0,0,0,0,0,0,0,0,0,0,0,0,0,0],
"sum_hessian":[0.0,0.0,0.0,0.0,0.0,0.0,0.0,0.0,0.0,0.0,0.0,0.0,0.0,0.0,0.0],
"tree_param":{"num_deleted":"0","num_feature":"5","num_nodes":"15","size_leaf_vector":"0"}
},
{
"base_weights":[0.0,0.0,0.0,0.0,0.0,0.0,0.0,0.0,0.0,0.0,0.0,0.0,0.0],
"categories":[],"categories_nodes":[],"categories_segments":[],"categories_sizes":[],
"default_left":[true,true,true,false,true,true,true,false,false,false,false,false,false],
"id":91,
"left_children":[1,3,5,-1,7,9,11,-1,-1,-1,-1,-1,-1],
"loss_changes":[0.0,0.0,0.0,0.0,0.0,0.0,0.0,0.0,0.0,0.0,0.0,0.0,0.0],
"parents":[2147483647,0,0,1,1,2,2,4,4,5,5,6,6],
"right_children":[2,4,6,-1,8,10,12,-1,-1,-1,-1,-1,-1],
"split_conditions":[2.5125835090875626e-02,3.0765821456909180e+01,3.4611988067626953e+01,-9.9000000000000000e+01,1.6543767929077148e+01,2.7994364500045776e-02,5.8388146571815014e-03,-9.9000000000000000e+01,-9.9000000000000000e+01,-9.9000000000000000e+01,-9.9000000000000000e+01,-9.9000000000000000e+01,-9.9000000000000000e+01],
"split_indices":[2,4,4,0,4,2,3,0,0,0,0,0,0],
"split_type":[0,0,0,0,0,0,0,0,0,0,0,0,0],
"sum_hessian":[0.0,0.0,0.0,0.0,0.0,0.0,0.0,0.0,0.0,0.0,0.0,0.0,0.0],
"tree_param":{"num_deleted":"0","num_feature":"5","num_nodes":"13","size_leaf_vector":"0"}
},
{
"base_weights":[0.0,0.0,0.0,0.0,0.0,0.0,0.0,0.0,0.0],
"categories":[],"categories_nodes":[],"categories_segments":[],"categories_sizes":[],
"default_left":[true,true,true,false,true,false,false,false,false],
"id":92,
"left_children":[1,3,5,-1,7,-1,-1,-1,-1],
"loss_changes":[0.0,0.0,0.0,0.0,0.0,0.0,0.0,0.0,0.0],
"parents":[2147483647,0,0,1,1,2,2,4,4],
"right_children":[2,4,6,-1,8,-1,-1,-1,-1],
"split_conditions":[3.4611988067626953e+01,4.9222088418900967e-03,5.4678985595703125e+01,-9.9000000000000000e+01,1.0531866073608398e+01,-9.9000000000000000e+01,-9.9000000000000000e+01,-9.9000000000000000e+01,-9.9000000000000000e+01],
"split_indices":[4,3,4,0,4,0,0,0,0],
"split_type":[0,0,0,0,0,0,0,0,0],
"sum_hessian":[0.0,0.0,0.0,0.0,0.0,0.0,0.0,0.0,0.0],
"tree_param":{"num_deleted":"0","num_feature":"5","num_nodes":"9","size_leaf_vector":"0"}
},
{
"base_weights":[0.0,0.0,0.0,0.0,0.0,0.0,0.0],
"categories":[],"categories_nodes":[],"categories_segments":[],"categories_sizes":[],
"default_left":[true,true,false,false,true,false,false],
"id":93,
"left_children":[1,3,-1,-1,5,-1,-1],
"loss_changes":[0.0,0.0,0.0,0.0,0.0,0.0,0.0],
"parents":[2147483647,0,0,1,1,4,4],
"right_children":[2,4,-1,-1,6,-1,-1],
"split_conditions":[3.8372373580932617e-01,1.7621926963329315e-02,-9.9000000000000000e+01,-9.9000000000000000e+01,2.4234360083937645e-02,-9.9000000000000000e+01,-9.9000000000000000e+01],
"split_indices":[1,2,0,0,2,0,0],
"split_type":[0,0,0,0,0,0,0],
"sum_hessian":[0.0,0.0,0.0,0.0,0.0,0.0,0.0],
"tree_param":{"num_deleted":"0","num_feature":"5","num_nodes":"7","size_leaf_vector":"0"}
},
{
"base_weights":[0.0,0.0,0.0,0.0,0.0,0.0,0.0,0.0,0.0],
"categories":[],"categories_nodes":[],"categories_segments":[],"categories_sizes":[],
"default_left":[true,true,true,false,false,true,false,false,false],
"id":94,
"left_children":[1,3,5,-1,-1,7,-1,-1,-1],
"loss_changes":[0.0,0.0,0.0,0.0,0.0,0.0,0.0,0.0,0.0],
"parents":[2147483647,0,0,1,1,2,2,5,5],
"right_children":[2,4,6,-1,-1,8,-1,-1,-1],
"split_conditions":[6.7680370993912220e-03,2.7246780395507812e+01,1.7755994796752930e+01,-9.9000000000000000e+01,-9.9000000000000000e+01,2.2257637977600098e-01,-9.9000000000000000e+01,-9.9000000000000000e+01,-9.9000000000000000e+01],
"split_indices":[3,4,4,0,0,1,0,0,0],
"split_type":[0,0,0,0,0,0,0,0,0],
"sum_hessian":[0.0,0.0,0.0,0.0,0.0,0.0,0.0,0.0,0.0],
"tree_param":{"num_deleted":"0","num_feature":"5","num_nodes":"9","size_leaf_vector":"0"}
},
{
"base_weights":[0.0,0.0,0.0,0.0,0.0,0.0,0.0,0.0,0.0],
"categories":[],"categories_nodes":[],"categories_segments":[],"categories_sizes":[],
"default_left":[true,true,true,false,false,true,false,false,false],
"id":95,
"left_children":[1,3,5,-1,-1,7,-1,-1,-1],
"loss_changes":[0.0,0.0,0.0,0.0,0.0,0.0,0.0,0.0,0.0],
"parents":[2147483647,0,0,1,1,2,2,5,5],
"right_children":[2,4,6,-1,-1,8,-1,-1,-1],
"split_conditions":[6.7680370993912220e-03,2.7246780395507812e+01,6.4457394182682037e-03,-9.9000000000000000e+01,-9.9000000000000000e+01,4.0230651855468750e+01,-9.9000000000000000e+01,-9.9000000000000000e+01,-9.9000000000000000e+01],
"split_indices":[3,4,3,0,0,4,0,0,0],
"split_type":[0,0,0,0,0,0,0,0,0],
"sum_hessian":[0.0,0.0,0.0,0.0,0.0,0.0,0.0,0.0,0.0],
"tree_param":{"num_deleted":"0","num_feature":"5","num_nodes":"9","size_leaf_vector":"0"}
},
{
"base_weights":[0.0,0.0,0.0,0.0,0.0,0.0,0.0,0.0,0.0],
"categories":[],"categories_nodes":[],"categories_segments":[],"categories_sizes":[],
"default_left":[true,true,true,false,false,true,false,false,false],
"id":96,
"left_children":[1,3,5,-1,-1,7,-1,-1,-1],
"loss_changes":[0.0,0.0,0.0,0.0,0.0,0.0,0.0,0.0,0.0],
"parents":[2147483647,0,0,1,1,2,2,5,5],
"right_children":[2,4,6,-1,-1,8,-1,-1,-1],
"split_conditions":[6.7680370993912220e-03,3.1698998063802719e-02,5.0251670181751251e-02,-9.9000000000000000e+01,-9.9000000000000000e+01,2.3928973823785782e-02,-9.9000000000000000e+01,-9.9000000000000000e+01,-9.9000000000000000e+01],
"split_indices":[3,2,2,0,0,2,0,0,0],
"split_type":[0,0,0,0,0,0,0,0,0],
"sum_hessian":[0.0,0.0,0.0,0.0,0.0,0.0,0.0,0.0,0.0],
"tree_param":{"num_deleted":"0","num_feature":"5","num_nodes":"9","size_leaf_vector":"0"}
},
{
"base_weights":[0.0,0.0,0.0,0.0,0.0,0.0,0.0,0.0,0.0],
"categories":[],"categories_nodes":[],"categories_segments":[],"categories_sizes":[],
"default_left":[true,true,true,false,false,true,false,false,false],
"id":97,
"left_children":[1,3,5,-1,-1,7,-1,-1,-1],
"loss_changes":[0.0,0.0,0.0,0.0,0.0,0.0,0.0,0.0,0.0],
"parents":[2147483647,0,0,1,1,2,2,5,5],
"right_children":[2,4,6,-1,-1,8,-1,-1,-1],
"split_conditions":[6.7680370993912220e-03,2.7246780395507812e+01,4.3112960457801819e-01,-9.9000000000000000e+01,-9.9000000000000000e+01,8.7990779876708984e+00,-9.9000000000000000e+01,-9.9000000000000000e+01,-9.9000000000000000e+01],
"split_indices":[3,4,1,0,0,0,0,0,0],
"split_type":[0,0,0,0,0,0,0,0,0],
"sum_hessian":[0.0,0.0,0.0,0.0,0.0,0.0,0.0,0.0,0.0],
"tree_param":{"num_deleted":"0","num_feature":"5","num_nodes":"9","size_leaf_vector":"0"}
},
{
"base_weights":[0.0,0.0,0.0,0.0,0.0,0.0,0.0,0.0,0.0],
"categories":[],"categories_nodes":[],"categories_segments":[],"categories_sizes":[],
"default_left":[true,true,true,false,true,false,false,false,false],
"id":98,
"left_children":[1,3,5,-1,7,-1,-1,-1,-1],
"loss_changes":[0.0,0.0,0.0,0.0,0.0,0.0,0.0,0.0,0.0],
"parents":[2147483647,0,0,1,1,2,2,4,4],
"right_children":[2,4,6,-1,8,-1,-1,-1,-1],
"split_conditions":[4.5849319458007812e+01,4.9222088418900967e-03,3.9374843239784241e-02,-9.9000000000000000e+01,3.5158612299710512e-03,-9.9000000000000000e+01,-9.9000000000000000e+01,-9.9000000000000000e+01,-9.9000000000000000e+01],
"split_indices":[4,3,2,0,3,0,0,0,0],
"split_type":[0,0,0,0,0,0,0,0,0],
"sum_hessian":[0.0,0.0,0.0,0.0,0.0,0.0,0.0,0.0,0.0],
"tree_param":{"num_deleted":"0","num_feature":"5","num_nodes":"9","size_leaf_vector":"0"}
},
{
"base_weights":[0.0,0.0,0.0,0.0,0.0,0.0,0.0,0.0,0.0,0.0,0.0],
"categories":[],"categories_nodes":[],"categories_segments":[],"categories_sizes":[],
"default_left":[true,true,true,false,true,true,false,false,false,false,false],
"id":99,
"left_children":[1,3,5,-1,7,9,-1,-1,-1,-1,-1],
"loss_changes":[0.0,0.0,0.0,0.0,0.0,0.0,0.0,0.0,0.0,0.0,0.0],
"parents":[2147483647,0,0,1,1,2,2,4,4,5,5],
"right_children":[2,4,6,-1,8,10,-1,-1,-1,-1,-1],
"split_conditions":[9.9288471043109894e-02,7.6712049543857574e-02,4.5849319458007812e+01,-9.9000000000000000e+01,8.9611224830150604e-02,2.0163858413696289e+01,-9.9000000000000000e+01,-9.9000000000000000e+01,-9.9000000000000000e+01,-9.9000000000000000e+01,-9.9000000000000000e+01],
"split_indices":[1,1,4,0,1,4,0,0,0,0,0],
"split_type":[0,0,0,0,0,0,0,0,0,0,0],
"sum_hessian":[0.0,0.0,0.0,0.0,0.0,0.0,0.0,0.0,0.0,0.0,0.0],
"tree_param":{"num_deleted":"0","num_feature":"5","num_nodes":"11","size_leaf_vector":"0"}
},
{
"base_weights":[0.0,0.0,0.0,0.0,0.0],
"categories":[],"categories_nodes":[],"categories_segments":[],"categories_sizes":[],
"default_left":[true,false,true,false,false],
"id":100,
"left_children":[1,-1,3,-1,-1],
"loss_changes":[0.0,0.0,0.0,0.0,0.0],
"parents":[2147483647,0,0,2,2],
"right_children":[2,-1,4,-1,-1],
"split_conditions":[2.0999118804931641e+01,-9.9000000000000000e+01,1.6032600402832031e+01,-9.9000000000000000e+01,-9.9000000000000000e+01],
"split_indices":[0,0,0,0,0],
"split_type":[0,0,0,0,0],
"sum_hessian":[0.0,0.0,0.0,0.0,0.0],
"tree_param":{"num_deleted":"0","num_feature":"5","num_nodes":"5","size_leaf_vector":"0"}
},
{
"base_weights":[0.0,0.0,0.0,0.0,0.0,0.0,0.0,0.0,0.0,0.0,0.0,0.0,0.0],
"categories":[],"categories_nodes":[],"categories_segments":[],"categories_sizes":[],
"default_left":[true,true,true,false,true,true,true,false,false,false,false,false,false],
"id":101,
"left_children":[1,3,5,-1,7,9,11,-1,-1,-1,-1,-1,-1],
"loss_changes":[0.0,0.0,0.0,0.0,0.0,0.0,0.0,0.0,0.0,0.0,0.0,0.0,0.0],
"parents":[2147483647,0,0,1,1,2,2,4,4,5,5,6,6],
"right_children":[2,4,6,-1,8,10,12,-1,-1,-1,-1,-1,-1],
"split_conditions":[9.9288471043109894e-02,7.6712049543857574e-02,3.4611988067626953e+01,-9.9000000000000000e+01,8.9611224830150604e-02,2.8190431594848633e+01,5.8388146571815014e-03,-9.9000000000000000e+01,-9.9000000000000000e+01,-9.9000000000000000e+01,-9.9000000000000000e+01,-9.9000000000000000e+01,-9.9000000000000000e+01],
"split_indices":[1,1,4,0,1,4,3,0,0,0,0,0,0],
"split_type":[0,0,0,0,0,0,0,0,0,0,0,0,0],
"sum_hessian":[0.0,0.0,0.0,0.0,0.0,0.0,0.0,0.0,0.0,0.0,0.0,0.0,0.0],
"tree_param":{"num_deleted":"0","num_feature":"5","num_nodes":"13","size_leaf_vector":"0"}
},
{
"base_weights":[0.0,0.0,0.0,0.0,0.0,0.0,0.0,0.0,0.0],
"categories":[],"categories_nodes":[],"categories_segments":[],"categories_sizes":[],
"default_left":[true,true,true,false,true,false,false,false,false],
"id":102,
"left_children":[1,3,5,-1,7,-1,-1,-1,-1],
"loss_changes":[0.0,0.0,0.0,0.0,0.0,0.0,0.0,0.0,0.0],
"parents":[2147483647,0,0,1,1,2,2,4,4],
"right_children":[2,4,6,-1,8,-1,-1,-1,-1],
"split_conditions":[2.3374658584594727e+01,2.1234056472778320e+01,2.2073075175285339e-02,-9.9000000000000000e+01,1.6392580032348633e+01,-9.9000000000000000e+01,-9.9000000000000000e+01,-9.9000000000000000e+01,-9.9000000000000000e+01],
"split_indices":[4,4,2,0,4,0,0,0,0],
"split_type":[0,0,0,0,0,0,0,0,0],
"sum_hessian":[0.0,0.0,0.0,0.0,0.0,0.0,0.0,0.0,0.0],
"tree_param":{"num_deleted":"0","num_feature":"5","num_nodes":"9","size_leaf_vector":"0"}
},
{
"base_weights":[0.0,0.0,0.0,0.0,0.0,0.0,0.0],
"categories":[],"categories_nodes":[],"categories_segments":[],"categories_sizes":[],
"default_left":[true,false,true,false,true,false,false],
"id":103,
"left_children":[1,-1,3,-1,5,-1,-1],
"loss_changes":[0.0,0.0,0.0,0.0,0.0,0.0,0.0],
"parents":[2147483647,0,0,2,2,4,4],
"right_children":[2,-1,4,-1,6,-1,-1],
"split_conditions":[9.9288471043109894e-02,-9.9000000000000000e+01,2.2430126190185547e+01,-9.9000000000000000e+01,4.5583667755126953e+01,-9.9000000000000000e+01,-9.9000000000000000e+01],
"split_indices":[1,0,0,0,4,0,0],
"split_type":[0,0,0,0,0,0,0],
"sum_hessian":[0.0,0.0,0.0,0.0,0.0,0.0,0.0],
"tree_param":{"num_deleted":"0","num_feature":"5","num_nodes":"7","size_leaf_vector":"0"}
},
{
"base_weights":[0.0,0.0,0.0,0.0,0.0,0.0,0.0,0.0,0.0,0.0,0.0,0.0,0.0],
"categories":[],"categories_nodes":[],"categories_segments":[],"categories_sizes":[],
"default_left":[true,true,true,true,true,false,true,false,false,false,false,false,false],
"id":104,
"left_children":[1,3,5,7,9,-1,11,-1,-1,-1,-1,-1,-1],
"loss_changes":[0.0,0.0,0.0,0.0,0.0,0.0,0.0,0.0,0.0,0.0,0.0,0.0,0.0],
"parents":[2147483647,0,0,1,1,2,2,3,3,4,4,6,6],
"right_children":[2,4,6,8,10,-1,12,-1,-1,-1,-1,-1,-1],
"split_conditions":[2.5125835090875626e-02,3.4611988067626953e+01,3.0765821456909180e+01,7.2671723365783691e+00,5.8388146571815014e-03,-9.9000000000000000e+01,1.6543767929077148e+01,-9.9000000000000000e+01,-9.9000000000000000e+01,-9.9000000000000000e+01,-9.9000000000000000e+01,-9.9000000000000000e+01,-9.9000000000000000e+01],
"split_indices":[2,4,4,0,3,0,4,0,0,0,0,0,0],
"split_type":[0,0,0,0,0,0,0,0,0,0,0,0,0],
"sum_hessian":[0.0,0.0,0.0,0.0,0.0,0.0,0.0,0.0,0.0,0.0,0.0,0.0,0.0],
"tree_param":{"num_deleted":"0","num_feature":"5","num_nodes":"13","size_leaf_vector":"0"}
},
{
"base_weights":[0.0,0.0,0.0,0.0,0.0,0.0,0.0,0.0,0.0],
"categories":[],"categories_nodes":[],"categories_segments":[],"categories_sizes":[],
"default_left":[true,true,true,false,false,false,true,false,false],
"id":105,
"left_children":[1,3,5,-1,-1,-1,7,-1,-1],
"loss_changes":[0.0,0.0,0.0,0.0,0.0,0.0,0.0,0.0,0.0],
"parents":[2147483647,0,0,1,1,2,2,6,6],
"right_children":[2,4,6,-1,-1,-1,8,-1,-1],
"split_conditions":[6.1527607031166553e-03,4.3112960457801819e-01,1.8727600574493408e-01,-9.9000000000000000e+01,-9.9000000000000000e+01,-9.9000000000000000e+01,4.6130336821079254e-02,-9.9000000000000000e+01,-9.9000000000000000e+01],
"split_indices":[3,1,1,0,0,0,2,0,0],
"split_type":[0,0,0,0,0,0,0,0,0],
"sum_hessian":[0.0,0.0,0.0,0.0,0.0,0.0,0.0,0.0,0.0],
"tree_param":{"num_deleted":"0","num_feature":"5","num_nodes":"9","size_leaf_vector":"0"}
},
{
"base_weights":[0.0,0.0,0.0,0.0,0.0,0.0,0.0,0.0,0.0],
"categories":[],"categories_nodes":[],"categories_segments":[],"categories_sizes":[],
"default_left":[true,true,true,false,false,false,true,false,false],
"id":106,
"left_children":[1,3,5,-1,-1,-1,7,-1,-1],
"loss_changes":[0.0,0.0,0.0,0.0,0.0,0.0,0.0,0.0,0.0],
"parents":[2147483647,0,0,1,1,2,2,6,6],
"right_children":[2,4,6,-1,-1,-1,8,-1,-1],
"split_conditions":[2.5125835090875626e-02,3.4611988067626953e+01,2.6499277114868164e+01,-9.9000000000000000e+01,-9.9000000000000000e+01,-9.9000000000000000e+01,1.5527546882629395e+01,-9.9000000000000000e+01,-9.9000000000000000e+01],
"split_indices":[2,4,4,0,0,0,4,0,0],
"split_type":[0,0,0,0,0,0,0,0,0],
"sum_hessian":[0.0,0.0,0.0,0.0,0.0,0.0,0.0,0.0,0.0],
"tree_param":{"num_deleted":"0","num_feature":"5","num_nodes":"9","size_leaf_vector":"0"}
},
{
"base_weights":[0.0,0.0,0.0,0.0,0.0,0.0,0.0,0.0,0.0],
"categories":[],"categories_nodes":[],"categories_segments":[],"categories_sizes":[],
"default_left":[true,true,true,false,false,true,false,false,false],
"id":107,
"left_children":[1,3,5,-1,-1,7,-1,-1,-1],
"loss_changes":[0.0,0.0,0.0,0.0,0.0,0.0,0.0,0.0,0.0],
"parents":[2147483647,0,0,1,1,2,2,5,5],
"right_children":[2,4,6,-1,-1,8,-1,-1,-1],
"split_conditions":[4.0230651855468750e+01,5.5340155959129333e-03,8.3915004730224609e+00,-9.9000000000000000e+01,-9.9000000000000000e+01,1.4387763105332851e-02,-9.9000000000000000e+01,-9.9000000000000000e+01,-9.9000000000000000e+01],
"split_indices":[4,3,4,0,0,2,0,0,0],
"split_type":[0,0,0,0,0,0,0,0,0],
"sum_hessian":[0.0,0.0,0.0,0.0,0.0,0.0,0.0,0.0,0.0],
"tree_param":{"num_deleted":"0","num_feature":"5","num_nodes":"9","size_leaf_vector":"0"}
},
{
"base_weights":[0.0,0.0,0.0,0.0,0.0,0.0,0.0,0.0,0.0,0.0,0.0,0.0,0.0],
"categories":[],"categories_nodes":[],"categories_segments":[],"categories_sizes":[],
"default_left":[true,true,true,true,true,true,false,false,false,false,false,false,false],
"id":108,
"left_children":[1,3,5,7,9,11,-1,-1,-1,-1,-1,-1,-1],
"loss_changes":[0.0,0.0,0.0,0.0,0.0,0.0,0.0,0.0,0.0,0.0,0.0,0.0,0.0],
"parents":[2147483647,0,0,1,1,2,2,3,3,4,4,5,5],
"right_children":[2,4,6,8,10,12,-1,-1,-1,-1,-1,-1,-1],
"split_conditions":[2.5125835090875626e-02,2.3374658584594727e+01,2.2732814773917198e-02,1.5882988929748535e+01,3.7090588361024857e-02,9.2394323348999023e+00,-9.9000000000000000e+01,-9.9000000000000000e+01,-9.9000000000000000e+01,-9.9000000000000000e+01,-9.9000000000000000e+01,-9.9000000000000000e+01,-9.9000000000000000e+01],
"split_indices":[2,4,2,4,2,4,0,0,0,0,0,0,0],
"split_type":[0,0,0,0,0,0,0,0,0,0,0,0,0],
"sum_hessian":[0.0,0.0,0.0,0.0,0.0,0.0,0.0,0.0,0.0,0.0,0.0,0.0,0.0],
"tree_param":{"num_deleted":"0","num_feature":"5","num_nodes":"13","size_leaf_vector":"0"}
},
{
"base_weights":[0.0,0.0,0.0,0.0,0.0,0.0,0.0,0.0,0.0,0.0,0.0],
"categories":[],"categories_nodes":[],"categories_segments":[],"categories_sizes":[],
"default_left":[true,true,true,true,true,false,false,false,false,false,false],
"id":109,
"left_children":[1,3,5,7,9,-1,-1,-1,-1,-1,-1],
"loss_changes":[0.0,0.0,0.0,0.0,0.0,0.0,0.0,0.0,0.0,0.0,0.0],
"parents":[2147483647,0,0,1,1,2,2,3,3,4,4],
"right_children":[2,4,6,8,10,-1,-1,-1,-1,-1,-1],
"split_conditions":[2.0938197150826454e-02,2.8993324279785156e+01,1.1626336097717285e+01,3.6045450717210770e-02,3.6891408264636993e-02,-9.9000000000000000e+01,-9.9000000000000000e+01,-9.9000000000000000e+01,-9.9000000000000000e+01,-9.9000000000000000e+01,-9.9000000000000000e+01],
"split_indices":[2,4,0,2,2,0,0,0,0,0,0],
"split_type":[0,0,0,0,0,0,0,0,0,0,0],
"sum_hessian":[0.0,0.0,0.0,0.0,0.0,0.0,0.0,0.0,0.0,0.0,0.0],
"tree_param":{"num_deleted":"0","num_feature":"5","num_nodes":"11","size_leaf_vector":"0"}
},
{
"base_weights":[0.0,0.0,0.0,0.0,0.0,0.0,0.0],
"categories":[],"categories_nodes":[],"categories_segments":[],"categories_sizes":[],
"default_left":[true,true,false,true,false,false,false],
"id":110,
"left_children":[1,3,-1,5,-1,-1,-1],
"loss_changes":[0.0,0.0,0.0,0.0,0.0,0.0,0.0],
"parents":[2147483647,0,0,1,1,3,3],
"right_children":[2,4,-1,6,-1,-1,-1],
"split_conditions":[5.0251670181751251e-02,1.7755994796752930e+01,-9.9000000000000000e+01,8.2526302337646484e+00,-9.9000000000000000e+01,-9.9000000000000000e+01,-9.9000000000000000e+01],
"split_indices":[2,4,0,0,0,0,0],
"split_type":[0,0,0,0,0,0,0],
"sum_hessian":[0.0,0.0,0.0,0.0,0.0,0.0,0.0],
"tree_param":{"num_deleted":"0","num_feature":"5","num_nodes":"7","size_leaf_vector":"0"}
},
{
"base_weights":[0.0,0.0,0.0,0.0,0.0,0.0,0.0,0.0,0.0],
"categories":[],"categories_nodes":[],"categories_segments":[],"categories_sizes":[],
"default_left":[true,true,true,false,false,true,false,false,false],
"id":111,
"left_children":[1,3,5,-1,-1,7,-1,-1,-1],
"loss_changes":[0.0,0.0,0.0,0.0,0.0,0.0,0.0,0.0,0.0],
"parents":[2147483647,0,0,1,1,2,2,5,5],
"right_children":[2,4,6,-1,-1,8,-1,-1,-1],
"split_conditions":[3.7688754498958588e-02,2.0698850631713867e+01,4.7260731458663940e-02,-9.9000000000000000e+01,-9.9000000000000000e+01,1.4264395833015442e-01,-9.9000000000000000e+01,-9.9000000000000000e+01,-9.9000000000000000e+01],
"split_indices":[2,4,2,0,0,1,0,0,0],
"split_type":[0,0,0,0,0,0,0,0,0],
"sum_hessian":[0.0,0.0,0.0,0.0,0.0,0.0,0.0,0.0,0.0],
"tree_param":{"num_deleted":"0","num_feature":"5","num_nodes":"9","size_leaf_vector":"0"}
},
{
"base_weights":[0.0,0.0,0.0,0.0,0.0,0.0,0.0,0.0,0.0],
"categories":[],"categories_nodes":[],"categories_segments":[],"categories_sizes":[],
"default_left":[true,true,true,false,false,true,false,false,false],
"id":112,
"left_children":[1,3,5,-1,-1,7,-1,-1,-1],
"loss_changes":[0.0,0.0,0.0,0.0,0.0,0.0,0.0,0.0,0.0],
"parents":[2147483647,0,0,1,1,2,2,5,5],
"right_children":[2,4,6,-1,-1,8,-1,-1,-1],
"split_conditions":[6.7680370993912220e-03,3.1698998063802719e-02,5.1565915346145630e-03,-9.9000000000000000e+01,-9.9000000000000000e+01,1.6750557348132133e-02,-9.9000000000000000e+01,-9.9000000000000000e+01,-9.9000000000000000e+01],
"split_indices":[3,2,3,0,0,2,0,0,0],
"split_type":[0,0,0,0,0,0,0,0,0],
"sum_hessian":[0.0,0.0,0.0,0.0,0.0,0.0,0.0,0.0,0.0],
"tree_param":{"num_deleted":"0","num_feature":"5","num_nodes":"9","size_leaf_vector":"0"}
},
{
"base_weights":[0.0,0.0,0.0,0.0,0.0,0.0,0.0,0.0,0.0],
"categories":[],"categories_nodes":[],"categories_segments":[],"categories_sizes":[],
"default_left":[true,true,true,false,false,true,false,false,false],
"id":113,
"left_children":[1,3,5,-1,-1,7,-1,-1,-1],
"loss_changes":[0.0,0.0,0.0,0.0,0.0,0.0,0.0,0.0,0.0],
"parents":[2147483647,0,0,1,1,2,2,5,5],
"right_children":[2,4,6,-1,-1,8,-1,-1,-1],
"split_conditions":[9.9288471043109894e-02,3.3785953521728516e+01,4.5849319458007812e+01,-9.9000000000000000e+01,-9.9000000000000000e+01,4.9222088418900967e-03,-9.9000000000000000e+01,-9.9000000000000000e+01,-9.9000000000000000e+01],
"split_indices":[1,4,4,0,0,3,0,0,0],
"split_type":[0,0,0,0,0,0,0,0,0],
"sum_hessian":[0.0,0.0,0.0,0.0,0.0,0.0,0.0,0.0,0.0],
"tree_param":{"num_deleted":"0","num_feature":"5","num_nodes":"9","size_leaf_vector":"0"}
},
{
"base_weights":[0.0,0.0,0.0,0.0,0.0,0.0,0.0,0.0,0.0,0.0,0.0],
"categories":[],"categories_nodes":[],"categories_segments":[],"categories_sizes":[],
"default_left":[true,true,true,false,true,false,true,false,false,false,false],
"id":114,
"left_children":[1,3,5,-1,7,-1,9,-1,-1,-1,-1],
"loss_changes":[0.0,0.0,0.0,0.0,0.0,0.0,0.0,0.0,0.0,0.0,0.0],
"parents":[2147483647,0,0,1,1,2,2,4,4,6,6],
"right_children":[2,4,6,-1,8,-1,10,-1,-1,-1,-1],
"split_conditions":[9.9288471043109894e-02,7.6712049543857574e-02,2.2430126190185547e+01,-9.9000000000000000e+01,8.9611224830150604e-02,-9.9000000000000000e+01,1.2610996246337891e+01,-9.9000000000000000e+01,-9.9000000000000000e+01,-9.9000000000000000e+01,-9.9000000000000000e+01],
"split_indices":[1,1,0,0,1,0,0,0,0,0,0],
"split_type":[0,0,0,0,0,0,0,0,0,0,0],
"sum_hessian":[0.0,0.0,0.0,0.0,0.0,0.0,0.0,0.0,0.0,0.0,0.0],
"tree_param":{"num_deleted":"0","num_feature":"5","num_nodes":"11","size_leaf_vector":"0"}
},
{
"base_weights":[0.0,0.0,0.0,0.0,0.0],
"categories":[],"categories_nodes":[],"categories_segments":[],"categories_sizes":[],
"default_left":[true,false,true,false,false],
"id":115,
"left_children":[1,-1,3,-1,-1],
"loss_changes":[0.0,0.0,0.0,0.0,0.0],
"parents":[2147483647,0,0,2,2],
"right_children":[2,-1,4,-1,-1],
"split_conditions":[9.9288471043109894e-02,-9.9000000000000000e+01,2.2430126190185547e+01,-9.9000000000000000e+01,-9.9000000000000000e+01],
"split_indices":[1,0,0,0,0],
"split_type":[0,0,0,0,0],
"sum_hessian":[0.0,0.0,0.0,0.0,0.0],
"tree_param":{"num_deleted":"0","num_feature":"5","num_nodes":"5","size_leaf_vector":"0"}
},
{
"base_weights":[0.0,0.0,0.0,0.0,0.0,0.0,0.0,0.0,0.0,0.0,0.0,0.0,0.0,0.0,0.0],
"categories":[],"categories_nodes":[],"categories_segments":[],"categories_sizes":[],
"default_left":[true,true,true,true,true,true,true,false,false,false,false,false,false,false,false],
"id":116,
"left_children":[1,3,5,7,9,11,13,-1,-1,-1,-1,-1,-1,-1,-1],
"loss_changes":[0.0,0.0,0.0,0.0,0.0,0.0,0.0,0.0,0.0,0.0,0.0,0.0,0.0,0.0,0.0],
"parents":[2147483647,0,0,1,1,2,2,3,3,4,4,5,5,6,6],
"right_children":[2,4,6,8,10,12,14,-1,-1,-1,-1,-1,-1,-1,-1],
"split_conditions":[2.3374658584594727e+01,5.5374847725033760e-03,1.5784128010272980e-01,1.0531852722167969e+01,2.7977136895060539e-02,1.0560624122619629e+01,4.6832845546305180e-03,-9.9000000000000000e+01,-9.9000000000000000e+01,-9.9000000000000000e+01,-9.9000000000000000e+01,-9.9000000000000000e+01,-9.9000000000000000e+01,-9.9000000000000000e+01,-9.9000000000000000e+01],
"split_indices":[4,3,1,4,2,0,3,0,0,0,0,0,0,0,0],
"split_type":[0,0,0,0,0,0,0,0,0,0,0,0,0,0,0],
"sum_hessian":[0.0,0.0,0.0,0.0,0.0,0.0,0.0,0.0,0.0,0.0,0.0,0.0,0.0,0.0,0.0],
"tree_param":{"num_deleted":"0","num_feature":"5","num_nodes":"15","size_leaf_vector":"0"}
},
{
"base_weights":[0.0,0.0,0.0,0.0,0.0,0.0,0.0],
"categories":[],"categories_nodes":[],"categories_segments":[],"categories_sizes":[],
"default_left":[true,false,true,true,false,false,false],
"id":117,
"left_children":[1,-1,3,5,-1,-1,-1],
"loss_changes":[0.0,0.0,0.0,0.0,0.0,0.0,0.0],
"parents":[2147483647,0,0,2,2,3,3],
"right_children":[2,-1,4,6,-1,-1,-1],
"split_conditions":[9.9288471043109894e-02,-9.9000000000000000e+01,4.5849319458007812e+01,5.5374847725033760e-03,-9.9000000000000000e+01,-9.9000000000000000e+01,-9.9000000000000000e+01],
"split_indices":[1,0,4,3,0,0,0],
"split_type":[0,0,0,0,0,0,0],
"sum_hessian":[0.0,0.0,0.0,0.0,0.0,0.0,0.0],
"tree_param":{"num_deleted":"0","num_feature":"5","num_nodes":"7","size_leaf_vector":"0"}
},
{
"base_weights":[0.0,0.0,0.0,0.0,0.0,0.0,0.0],
"categories":[],"categories_nodes":[],"categories_segments":[],"categories_sizes":[],
"default_left":[true,false,true,false,true,false,false],
"id":118,
"left_children":[1,-1,3,-1,5,-1,-1],
"loss_changes":[0.0,0.0,0.0,0.0,0.0,0.0,0.0],
"parents":[2147483647,0,0,2,2,4,4],
"right_children":[2,-1,4,-1,6,-1,-1],
"split_conditions":[1.2137329101562500e+01,-9.9000000000000000e+01,1.5279395505785942e-02,-9.9000000000000000e+01,2.9927262663841248e-01,-9.9000000000000000e+01,-9.9000000000000000e+01],
"split_indices":[4,0,2,0,1,0,0],
"split_type":[0,0,0,0,0,0,0],
"sum_hessian":[0.0,0.0,0.0,0.0,0.0,0.0,0.0],
"tree_param":{"num_deleted":"0","num_feature":"5","num_nodes":"7","size_leaf_vector":"0"}
},
{
"base_weights":[0.0,0.0,0.0,0.0,0.0,0.0,0.0,0.0,0.0,0.0,0.0,0.0,0.0],
"categories":[],"categories_nodes":[],"categories_segments":[],"categories_sizes":[],
"default_left":[true,true,true,true,true,true,false,false,false,false,false,false,false],
"id":119,
"left_children":[1,3,5,7,9,11,-1,-1,-1,-1,-1,-1,-1],
