{"learner":{"attributes":{},"feature_names":[],"feature_types":[],"gradient_booster":{"model":{"gbtree_model_param":{"num_trees":"800","size_leaf_vector":"0"},
"tree_info":[0,0,0,0,0,0,0,0,0,0,0,0,0,0,0,0,0,0,0,0,0,0,0,0,0,0,0,0,0,0,0,0,0,0,0,0,0,0,0,0,0,0,0,0,0,0,0,0,0,0,0,0,0,0,0,0,0,0,0,0,0,0,0,0,0,0,0,0,0,0,0,0,0,0,0,0,0,0,0,0,0,0,0,0,0,0,0,0,0,0,0,0,0,0,0,0,0,0,0,0,0,0,0,0,0,0,0,0,0,0,0,0,0,0,0,0,0,0,0,0,0,0,0,0,0,0,0,0,0,0,0,0,0,0,0,0,0,0,0,0,0,0,0,0,0,0,0,0,0,0,0,0,0,0,0,0,0,0,0,0,0,0,0,0,0,0,0,0,0,0,0,0,0,0,0,0,0,0,0,0,0,0,0,0,0,0,0,0,0,0,0,0,0,0,0,0,0,0,0,0,0,0,0,0,0,0,0,0,0,0,0,0,0,0,0,0,0,0,0,0,0,0,0,0,0,0,0,0,0,0,0,0,0,0,0,0,0,0,0,0,0,0,0,0,0,0,0,0,0,0,0,0,0,0,0,0,0,0,0,0,0,0,0,0,0,0,0,0,0,0,0,0,0,0,0,0,0,0,0,0,0,0,0,0,0,0,0,0,0,0,0,0,0,0,0,0,0,0,0,0,0,0,0,0,0,0,0,0,0,0,0,0,0,0,0,0,0,0,0,0,0,0,0,0,0,0,0,0,0,0,0,0,0,0,0,0,0,0,0,0,0,0,0,0,0,0,0,0,0,0,0,0,0,0,0,0,0,0,0,0,0,0,0,0,0,0,0,0,0,0,0,0,0,0,0,0,0,0,0,0,0,0,0,0,0,0,0,0,0,0,0,0,0,0,0,0,0,0,0,0,0,0,0,0,0,0,0,0,0,0,0,0,0,0,0,0,0,0,0,0,0,0,0,0,0,0,0,0,0,0,0,0,0,0,0,0,0,0,0,0,0,0,0,0,0,0,0,0,0,0,0,0,0,0,0,0,0,0,0,0,0,0,0,0,0,0,0,0,0,0,0,0,0,0,0,0,0,0,0,0,0,0,0,0,0,0,0,0,0,0,0,0,0,0,0,0,0,0,0,0,0,0,0,0,0,0,0,0,0,0,0,0,0,0,0,0,0,0,0,0,0,0,0,0,0,0,0,0,0,0,0,0,0,0,0,0,0,0,0,0,0,0,0,0,0,0,0,0,0,0,0,0,0,0,0,0,0,0,0,0,0,0,0,0,0,0,0,0,0,0,0,0,0,0,0,0,0,0,0,0,0,0,0,0,0,0,0,0,0,0,0,0,0,0,0,0,0,0,0,0,0,0,0,0,0,0,0,0,0,0,0,0,0,0,0,0,0,0,0,0,0,0,0,0,0,0,0,0,0,0,0,0,0,0,0,0,0,0,0,0,0,0,0,0,0,0,0,0,0,0,0,0,0,0,0,0,0,0,0,0,0,0,0,0,0,0,0,0,0,0,0,0,0,0,0,0,0,0,0,0,0,0,0,0,0,0,0,0,0,0,0,0,0,0,0,0,0,0,0,0,0,0,0,0,0,0,0,0,0,0,0,0,0,0,0,0,0,0,0,0,0,0,0,0,0,0,0,0,0,0,0,0,0,0,0,0,0,0,0,0,0,0,0,0,0,0,0,0,0,0,0,0,0,0,0,0,0,0,0,0,0,0,0,0,0,0,0,0,0,0,0,0,0,0,0,0,0,0,0,0,0,0,0,0,0,0,0,0,0,0,0,0,0,0,0,0,0,0,0,0],
"trees":
[
{
"base_weights":[0.0,0.0,0.0,0.0,0.0],
"categories":[],"categories_nodes":[],"categories_segments":[],"categories_sizes":[],
"default_left":[true,true,false,false,false],
"id":0,
"left_children":[1,3,-1,-1,-1],
"loss_changes":[0.0,0.0,0.0,0.0,0.0],
"parents":[2147483647,0,0,1,1],
"right_children":[2,4,-1,-1,-1],
"split_conditions":[9.5714282989501953e+00,3.2196987420320511e-02,-9.9000000000000000e+01,-9.9000000000000000e+01,-9.9000000000000000e+01],
"split_indices":[1,3,0,0,0],
"split_type":[0,0,0,0,0],
"sum_hessian":[0.0,0.0,0.0,0.0,0.0],
"tree_param":{"num_deleted":"0","num_feature":"5","num_nodes":"5","size_leaf_vector":"0"}
},
{
"base_weights":[0.0,0.0,0.0,0.0,0.0,0.0,0.0],
"categories":[],"categories_nodes":[],"categories_segments":[],"categories_sizes":[],
"default_left":[true,true,false,false,true,false,false],
"id":1,
"left_children":[1,3,-1,-1,5,-1,-1],
"loss_changes":[0.0,0.0,0.0,0.0,0.0,0.0,0.0],
"parents":[2147483647,0,0,1,1,4,4],
"right_children":[2,4,-1,-1,6,-1,-1],
"split_conditions":[7.8571429252624512e+00,1.2142857551574707e+01,-9.9000000000000000e+01,-9.9000000000000000e+01,2.6690695434808731e-02,-9.9000000000000000e+01,-9.9000000000000000e+01],
"split_indices":[1,1,0,0,3,0,0],
"split_type":[0,0,0,0,0,0,0],
"sum_hessian":[0.0,0.0,0.0,0.0,0.0,0.0,0.0],
"tree_param":{"num_deleted":"0","num_feature":"5","num_nodes":"7","size_leaf_vector":"0"}
},
{
"base_weights":[0.0,0.0,0.0,0.0,0.0,0.0,0.0],
"categories":[],"categories_nodes":[],"categories_segments":[],"categories_sizes":[],
"default_left":[true,false,true,true,false,false,false],
"id":2,
"left_children":[1,-1,3,5,-1,-1,-1],
"loss_changes":[0.0,0.0,0.0,0.0,0.0,0.0,0.0],
"parents":[2147483647,0,0,2,2,3,3],
"right_children":[2,-1,4,6,-1,-1,-1],
"split_conditions":[1.1285714149475098e+01,-9.9000000000000000e+01,2.7714284896850586e+01,5.2857141494750977e+00,-9.9000000000000000e+01,-9.9000000000000000e+01,-9.9000000000000000e+01],
"split_indices":[1,0,2,1,0,0,0],
"split_type":[0,0,0,0,0,0,0],
"sum_hessian":[0.0,0.0,0.0,0.0,0.0,0.0,0.0],
"tree_param":{"num_deleted":"0","num_feature":"5","num_nodes":"7","size_leaf_vector":"0"}
},
{
"base_weights":[0.0,0.0,0.0,0.0,0.0,0.0,0.0,0.0,0.0],
"categories":[],"categories_nodes":[],"categories_segments":[],"categories_sizes":[],
"default_left":[true,true,false,true,true,false,false,false,false],
"id":3,
"left_children":[1,3,-1,5,7,-1,-1,-1,-1],
"loss_changes":[0.0,0.0,0.0,0.0,0.0,0.0,0.0,0.0,0.0],
"parents":[2147483647,0,0,1,1,3,3,4,4],
"right_children":[2,4,-1,6,8,-1,-1,-1,-1],
"split_conditions":[5.8571429252624512e+00,6.1428570747375488e+00,-9.9000000000000000e+01,3.7456162273883820e-02,2.8428571701049805e+01,-9.9000000000000000e+01,-9.9000000000000000e+01,-9.9000000000000000e+01,-9.9000000000000000e+01],
"split_indices":[2,1,0,3,2,0,0,0,0],
"split_type":[0,0,0,0,0,0,0,0,0],
"sum_hessian":[0.0,0.0,0.0,0.0,0.0,0.0,0.0,0.0,0.0],
"tree_param":{"num_deleted":"0","num_feature":"5","num_nodes":"9","size_leaf_vector":"0"}
},
{
"base_weights":[0.0,0.0,0.0,0.0,0.0],
"categories":[],"categories_nodes":[],"categories_segments":[],"categories_sizes":[],
"default_left":[true,false,true,false,false],
"id":4,
"left_children":[1,-1,3,-1,-1],
"loss_changes":[0.0,0.0,0.0,0.0,0.0],
"parents":[2147483647,0,0,2,2],
"right_children":[2,-1,4,-1,-1],
"split_conditions":[1.4714285850524902e+01,-9.9000000000000000e+01,8.4285717010498047e+00,-9.9000000000000000e+01,-9.9000000000000000e+01],
"split_indices":[1,0,1,0,0],
"split_type":[0,0,0,0,0],
"sum_hessian":[0.0,0.0,0.0,0.0,0.0],
"tree_param":{"num_deleted":"0","num_feature":"5","num_nodes":"5","size_leaf_vector":"0"}
},
{
"base_weights":[0.0,0.0,0.0,0.0,0.0,0.0,0.0],
"categories":[],"categories_nodes":[],"categories_segments":[],"categories_sizes":[],
"default_left":[true,false,true,true,false,false,false],
"id":5,
"left_children":[1,-1,3,5,-1,-1,-1],
"loss_changes":[0.0,0.0,0.0,0.0,0.0,0.0,0.0],
"parents":[2147483647,0,0,2,2,3,3],
"right_children":[2,-1,4,6,-1,-1,-1],
"split_conditions":[1.4714285850524902e+01,-9.9000000000000000e+01,2.1874705329537392e-02,2.5510208606719971e+00,-9.9000000000000000e+01,-9.9000000000000000e+01,-9.9000000000000000e+01],
"split_indices":[1,0,3,0,0,0,0],
"split_type":[0,0,0,0,0,0,0],
"sum_hessian":[0.0,0.0,0.0,0.0,0.0,0.0,0.0],
"tree_param":{"num_deleted":"0","num_feature":"5","num_nodes":"7","size_leaf_vector":"0"}
},
{
"base_weights":[0.0,0.0,0.0,0.0,0.0,0.0,0.0],
"categories":[],"categories_nodes":[],"categories_segments":[],"categories_sizes":[],
"default_left":[true,true,false,false,true,false,false],
"id":6,
"left_children":[1,3,-1,-1,5,-1,-1],
"loss_changes":[0.0,0.0,0.0,0.0,0.0,0.0,0.0],
"parents":[2147483647,0,0,1,1,4,4],
"right_children":[2,4,-1,-1,6,-1,-1],
"split_conditions":[4.4285712242126465e+00,1.9006717205047607e+00,-9.9000000000000000e+01,-9.9000000000000000e+01,1.5666666984558105e+01,-9.9000000000000000e+01,-9.9000000000000000e+01],
"split_indices":[1,0,0,0,1,0,0],
"split_type":[0,0,0,0,0,0,0],
"sum_hessian":[0.0,0.0,0.0,0.0,0.0,0.0,0.0],
"tree_param":{"num_deleted":"0","num_feature":"5","num_nodes":"7","size_leaf_vector":"0"}
},
{
"base_weights":[0.0,0.0,0.0,0.0,0.0,0.0,0.0],
"categories":[],"categories_nodes":[],"categories_segments":[],"categories_sizes":[],
"default_left":[true,true,false,true,false,false,false],
"id":7,
"left_children":[1,3,-1,5,-1,-1,-1],
"loss_changes":[0.0,0.0,0.0,0.0,0.0,0.0,0.0],
"parents":[2147483647,0,0,1,1,3,3],
"right_children":[2,4,-1,6,-1,-1,-1],
"split_conditions":[4.4285712242126465e+00,5.8571429252624512e+00,-9.9000000000000000e+01,4.3749425560235977e-02,-9.9000000000000000e+01,-9.9000000000000000e+01,-9.9000000000000000e+01],
"split_indices":[1,2,0,3,0,0,0],
"split_type":[0,0,0,0,0,0,0],
"sum_hessian":[0.0,0.0,0.0,0.0,0.0,0.0,0.0],
"tree_param":{"num_deleted":"0","num_feature":"5","num_nodes":"7","size_leaf_vector":"0"}
},
{
"base_weights":[0.0,0.0,0.0,0.0,0.0,0.0,0.0],
"categories":[],"categories_nodes":[],"categories_segments":[],"categories_sizes":[],
"default_left":[true,false,true,false,true,false,false],
"id":8,
"left_children":[1,-1,3,-1,5,-1,-1],
"loss_changes":[0.0,0.0,0.0,0.0,0.0,0.0,0.0],
"parents":[2147483647,0,0,2,2,4,4],
"right_children":[2,-1,4,-1,6,-1,-1],
"split_conditions":[1.6428571701049805e+01,-9.9000000000000000e+01,1.0285714149475098e+01,-9.9000000000000000e+01,3.5000000000000000e+01,-9.9000000000000000e+01,-9.9000000000000000e+01],
"split_indices":[1,0,1,0,2,0,0],
"split_type":[0,0,0,0,0,0,0],
"sum_hessian":[0.0,0.0,0.0,0.0,0.0,0.0,0.0],
"tree_param":{"num_deleted":"0","num_feature":"5","num_nodes":"7","size_leaf_vector":"0"}
},
{
"base_weights":[0.0,0.0,0.0,0.0,0.0,0.0,0.0],
"categories":[],"categories_nodes":[],"categories_segments":[],"categories_sizes":[],
"default_left":[true,false,true,true,false,false,false],
"id":9,
"left_children":[1,-1,3,5,-1,-1,-1],
"loss_changes":[0.0,0.0,0.0,0.0,0.0,0.0,0.0],
"parents":[2147483647,0,0,2,2,3,3],
"right_children":[2,-1,4,6,-1,-1,-1],
"split_conditions":[1.6444909572601318e+00,-9.9000000000000000e+01,8.2857141494750977e+00,1.3000000000000000e+01,-9.9000000000000000e+01,-9.9000000000000000e+01,-9.9000000000000000e+01],
"split_indices":[0,0,2,1,0,0,0],
"split_type":[0,0,0,0,0,0,0],
"sum_hessian":[0.0,0.0,0.0,0.0,0.0,0.0,0.0],
"tree_param":{"num_deleted":"0","num_feature":"5","num_nodes":"7","size_leaf_vector":"0"}
},
{
"base_weights":[0.0,0.0,0.0],
"categories":[],"categories_nodes":[],"categories_segments":[],"categories_sizes":[],
"default_left":[true,false,false],
"id":10,
"left_children":[1,-1,-1],
"loss_changes":[0.0,0.0,0.0],
"parents":[2147483647,0,0],
"right_children":[2,-1,-1],
"split_conditions":[4.4285712242126465e+00,-9.9000000000000000e+01,-9.9000000000000000e+01],
"split_indices":[1,0,0],
"split_type":[0,0,0],
"sum_hessian":[0.0,0.0,0.0],
"tree_param":{"num_deleted":"0","num_feature":"5","num_nodes":"3","size_leaf_vector":"0"}
},
{
"base_weights":[0.0,0.0,0.0,0.0,0.0],
"categories":[],"categories_nodes":[],"categories_segments":[],"categories_sizes":[],
"default_left":[true,false,true,false,false],
"id":11,
"left_children":[1,-1,3,-1,-1],
"loss_changes":[0.0,0.0,0.0,0.0,0.0],
"parents":[2147483647,0,0,2,2],
"right_children":[2,-1,4,-1,-1],
"split_conditions":[1.7200700044631958e+00,-9.9000000000000000e+01,8.2857141494750977e+00,-9.9000000000000000e+01,-9.9000000000000000e+01],
"split_indices":[0,0,2,0,0],
"split_type":[0,0,0,0,0],
"sum_hessian":[0.0,0.0,0.0,0.0,0.0],
"tree_param":{"num_deleted":"0","num_feature":"5","num_nodes":"5","size_leaf_vector":"0"}
},
{
"base_weights":[0.0,0.0,0.0,0.0,0.0,0.0,0.0],
"categories":[],"categories_nodes":[],"categories_segments":[],"categories_sizes":[],
"default_left":[true,true,true,false,false,false,false],
"id":12,
"left_children":[1,3,5,-1,-1,-1,-1],
"loss_changes":[0.0,0.0,0.0,0.0,0.0,0.0,0.0],
"parents":[2147483647,0,0,1,1,2,2],
"right_children":[2,4,6,-1,-1,-1,-1],
"split_conditions":[2.0979654788970947e+00,4.0476188659667969e+00,1.4714285850524902e+01,-9.9000000000000000e+01,-9.9000000000000000e+01,-9.9000000000000000e+01,-9.9000000000000000e+01],
"split_indices":[0,1,1,0,0,0,0],
"split_type":[0,0,0,0,0,0,0],
"sum_hessian":[0.0,0.0,0.0,0.0,0.0,0.0,0.0],
"tree_param":{"num_deleted":"0","num_feature":"5","num_nodes":"7","size_leaf_vector":"0"}
},
{
"base_weights":[0.0,0.0,0.0,0.0,0.0,0.0,0.0],
"categories":[],"categories_nodes":[],"categories_segments":[],"categories_sizes":[],
"default_left":[true,false,true,true,false,false,false],
"id":13,
"left_children":[1,-1,3,5,-1,-1,-1],
"loss_changes":[0.0,0.0,0.0,0.0,0.0,0.0,0.0],
"parents":[2147483647,0,0,2,2,3,3],
"right_children":[2,-1,4,6,-1,-1,-1],
"split_conditions":[3.2571430206298828e+01,-9.9000000000000000e+01,6.1428570747375488e+00,1.6141455620527267e-02,-9.9000000000000000e+01,-9.9000000000000000e+01,-9.9000000000000000e+01],
"split_indices":[2,0,1,3,0,0,0],
"split_type":[0,0,0,0,0,0,0],
"sum_hessian":[0.0,0.0,0.0,0.0,0.0,0.0,0.0],
"tree_param":{"num_deleted":"0","num_feature":"5","num_nodes":"7","size_leaf_vector":"0"}
},
{
"base_weights":[0.0,0.0,0.0,0.0,0.0,0.0,0.0,0.0,0.0],
"categories":[],"categories_nodes":[],"categories_segments":[],"categories_sizes":[],
"default_left":[true,true,true,false,false,true,false,false,false],
"id":14,
"left_children":[1,3,5,-1,-1,7,-1,-1,-1],
"loss_changes":[0.0,0.0,0.0,0.0,0.0,0.0,0.0,0.0,0.0],
"parents":[2147483647,0,0,1,1,2,2,5,5],
"right_children":[2,4,6,-1,-1,8,-1,-1,-1],
"split_conditions":[6.1428570747375488e+00,2.7112650871276855e+00,2.0428571701049805e+01,-9.9000000000000000e+01,-9.9000000000000000e+01,2.0161802768707275e+00,-9.9000000000000000e+01,-9.9000000000000000e+01,-9.9000000000000000e+01],
"split_indices":[1,0,2,0,0,0,0,0,0],
"split_type":[0,0,0,0,0,0,0,0,0],
"sum_hessian":[0.0,0.0,0.0,0.0,0.0,0.0,0.0,0.0,0.0],
"tree_param":{"num_deleted":"0","num_feature":"5","num_nodes":"9","size_leaf_vector":"0"}
},
{
"base_weights":[0.0,0.0,0.0,0.0,0.0,0.0,0.0],
"categories":[],"categories_nodes":[],"categories_segments":[],"categories_sizes":[],
"default_left":[true,true,false,false,true,false,false],
"id":15,
"left_children":[1,3,-1,-1,5,-1,-1],
"loss_changes":[0.0,0.0,0.0,0.0,0.0,0.0,0.0],
"parents":[2147483647,0,0,1,1,4,4],
"right_children":[2,4,-1,-1,6,-1,-1],
"split_conditions":[4.3749410659074783e-02,1.4714285850524902e+01,-9.9000000000000000e+01,-9.9000000000000000e+01,1.6444909572601318e+00,-9.9000000000000000e+01,-9.9000000000000000e+01],
"split_indices":[3,1,0,0,0,0,0],
"split_type":[0,0,0,0,0,0,0],
"sum_hessian":[0.0,0.0,0.0,0.0,0.0,0.0,0.0],
"tree_param":{"num_deleted":"0","num_feature":"5","num_nodes":"7","size_leaf_vector":"0"}
},
{
"base_weights":[0.0,0.0,0.0],
"categories":[],"categories_nodes":[],"categories_segments":[],"categories_sizes":[],
"default_left":[true,false,false],
"id":16,
"left_children":[1,-1,-1],
"loss_changes":[0.0,0.0,0.0],
"parents":[2147483647,0,0],
"right_children":[2,-1,-1],
"split_conditions":[4.3749410659074783e-02,-9.9000000000000000e+01,-9.9000000000000000e+01],
"split_indices":[3,0,0],
"split_type":[0,0,0],
"sum_hessian":[0.0,0.0,0.0],
"tree_param":{"num_deleted":"0","num_feature":"5","num_nodes":"3","size_leaf_vector":"0"}
},
{
"base_weights":[0.0,0.0,0.0,0.0,0.0,0.0,0.0,0.0,0.0,0.0,0.0],
"categories":[],"categories_nodes":[],"categories_segments":[],"categories_sizes":[],
"default_left":[true,true,true,false,true,true,false,false,false,false,false],
"id":17,
"left_children":[1,3,5,-1,7,9,-1,-1,-1,-1,-1],
"loss_changes":[0.0,0.0,0.0,0.0,0.0,0.0,0.0,0.0,0.0,0.0,0.0],
"parents":[2147483647,0,0,1,1,2,2,4,4,5,5],
"right_children":[2,4,6,-1,8,10,-1,-1,-1,-1,-1],
"split_conditions":[6.1428570747375488e+00,1.6834927797317505e+00,1.5571428298950195e+01,-9.9000000000000000e+01,1.5571428298950195e+01,3.0333333969116211e+01,-9.9000000000000000e+01,-9.9000000000000000e+01,-9.9000000000000000e+01,-9.9000000000000000e+01,-9.9000000000000000e+01],
"split_indices":[1,0,2,0,1,2,0,0,0,0,0],
"split_type":[0,0,0,0,0,0,0,0,0,0,0],
"sum_hessian":[0.0,0.0,0.0,0.0,0.0,0.0,0.0,0.0,0.0,0.0,0.0],
"tree_param":{"num_deleted":"0","num_feature":"5","num_nodes":"11","size_leaf_vector":"0"}
},
{
"base_weights":[0.0,0.0,0.0,0.0,0.0,0.0,0.0],
"categories":[],"categories_nodes":[],"categories_segments":[],"categories_sizes":[],
"default_left":[true,false,true,true,false,false,false],
"id":18,
"left_children":[1,-1,3,5,-1,-1,-1],
"loss_changes":[0.0,0.0,0.0,0.0,0.0,0.0,0.0],
"parents":[2147483647,0,0,2,2,3,3],
"right_children":[2,-1,4,6,-1,-1,-1],
"split_conditions":[6.1428570747375488e+00,-9.9000000000000000e+01,1.5571428298950195e+01,2.1874705329537392e-02,-9.9000000000000000e+01,-9.9000000000000000e+01,-9.9000000000000000e+01],
"split_indices":[1,0,2,3,0,0,0],
"split_type":[0,0,0,0,0,0,0],
"sum_hessian":[0.0,0.0,0.0,0.0,0.0,0.0,0.0],
"tree_param":{"num_deleted":"0","num_feature":"5","num_nodes":"7","size_leaf_vector":"0"}
},
{
"base_weights":[0.0,0.0,0.0,0.0,0.0,0.0,0.0],
"categories":[],"categories_nodes":[],"categories_segments":[],"categories_sizes":[],
"default_left":[true,true,false,false,true,false,false],
"id":19,
"left_children":[1,3,-1,-1,5,-1,-1],
"loss_changes":[0.0,0.0,0.0,0.0,0.0,0.0,0.0],
"parents":[2147483647,0,0,1,1,4,4],
"right_children":[2,4,-1,-1,6,-1,-1],
"split_conditions":[4.3749410659074783e-02,3.7428569793701172e+01,-9.9000000000000000e+01,-9.9000000000000000e+01,4.4285712242126465e+00,-9.9000000000000000e+01,-9.9000000000000000e+01],
"split_indices":[3,2,0,0,1,0,0],
"split_type":[0,0,0,0,0,0,0],
"sum_hessian":[0.0,0.0,0.0,0.0,0.0,0.0,0.0],
"tree_param":{"num_deleted":"0","num_feature":"5","num_nodes":"7","size_leaf_vector":"0"}
},
{
"base_weights":[0.0,0.0,0.0,0.0,0.0,0.0,0.0],
"categories":[],"categories_nodes":[],"categories_segments":[],"categories_sizes":[],
"default_left":[true,false,true,true,false,false,false],
"id":20,
"left_children":[1,-1,3,5,-1,-1,-1],
"loss_changes":[0.0,0.0,0.0,0.0,0.0,0.0,0.0],
"parents":[2147483647,0,0,2,2,3,3],
"right_children":[2,-1,4,6,-1,-1,-1],
"split_conditions":[3.9857143402099609e+01,-9.9000000000000000e+01,6.1428570747375488e+00,1.6141455620527267e-02,-9.9000000000000000e+01,-9.9000000000000000e+01,-9.9000000000000000e+01],
"split_indices":[2,0,1,3,0,0,0],
"split_type":[0,0,0,0,0,0,0],
"sum_hessian":[0.0,0.0,0.0,0.0,0.0,0.0,0.0],
"tree_param":{"num_deleted":"0","num_feature":"5","num_nodes":"7","size_leaf_vector":"0"}
},
{
"base_weights":[0.0,0.0,0.0,0.0,0.0,0.0,0.0],
"categories":[],"categories_nodes":[],"categories_segments":[],"categories_sizes":[],
"default_left":[true,false,true,true,false,false,false],
"id":21,
"left_children":[1,-1,3,5,-1,-1,-1],
"loss_changes":[0.0,0.0,0.0,0.0,0.0,0.0,0.0],
"parents":[2147483647,0,0,2,2,3,3],
"right_children":[2,-1,4,6,-1,-1,-1],
"split_conditions":[1.6444909572601318e+00,-9.9000000000000000e+01,5.8571429252624512e+00,1.1285714149475098e+01,-9.9000000000000000e+01,-9.9000000000000000e+01,-9.9000000000000000e+01],
"split_indices":[0,0,2,2,0,0,0],
"split_type":[0,0,0,0,0,0,0],
"sum_hessian":[0.0,0.0,0.0,0.0,0.0,0.0,0.0],
"tree_param":{"num_deleted":"0","num_feature":"5","num_nodes":"7","size_leaf_vector":"0"}
},
{
"base_weights":[0.0,0.0,0.0,0.0,0.0,0.0,0.0,0.0,0.0,0.0,0.0,0.0,0.0],
"categories":[],"categories_nodes":[],"categories_segments":[],"categories_sizes":[],
"default_left":[true,true,true,true,true,true,false,false,false,false,false,false,false],
"id":22,
"left_children":[1,3,5,7,9,11,-1,-1,-1,-1,-1,-1,-1],
"loss_changes":[0.0,0.0,0.0,0.0,0.0,0.0,0.0,0.0,0.0,0.0,0.0,0.0,0.0],
"parents":[2147483647,0,0,1,1,2,2,3,3,4,4,5,5],
"right_children":[2,4,6,8,10,12,-1,-1,-1,-1,-1,-1,-1],
"split_conditions":[8.2857141494750977e+00,1.3000000000000000e+01,7.9047617912292480e+00,1.3095237731933594e+01,1.9238094329833984e+01,2.5589783191680908e+00,-9.9000000000000000e+01,-9.9000000000000000e+01,-9.9000000000000000e+01,-9.9000000000000000e+01,-9.9000000000000000e+01,-9.9000000000000000e+01,-9.9000000000000000e+01],
"split_indices":[2,1,1,2,2,0,0,0,0,0,0,0,0],
"split_type":[0,0,0,0,0,0,0,0,0,0,0,0,0],
"sum_hessian":[0.0,0.0,0.0,0.0,0.0,0.0,0.0,0.0,0.0,0.0,0.0,0.0,0.0],
"tree_param":{"num_deleted":"0","num_feature":"5","num_nodes":"13","size_leaf_vector":"0"}
},
{
"base_weights":[0.0,0.0,0.0,0.0,0.0],
"categories":[],"categories_nodes":[],"categories_segments":[],"categories_sizes":[],
"default_left":[true,false,true,false,false],
"id":23,
"left_children":[1,-1,3,-1,-1],
"loss_changes":[0.0,0.0,0.0,0.0,0.0],
"parents":[2147483647,0,0,2,2],
"right_children":[2,-1,4,-1,-1],
"split_conditions":[1.4714285850524902e+01,-9.9000000000000000e+01,1.3380952835083008e+01,-9.9000000000000000e+01,-9.9000000000000000e+01],
"split_indices":[1,0,1,0,0],
"split_type":[0,0,0,0,0],
"sum_hessian":[0.0,0.0,0.0,0.0,0.0],
"tree_param":{"num_deleted":"0","num_feature":"5","num_nodes":"5","size_leaf_vector":"0"}
},
{
"base_weights":[0.0,0.0,0.0,0.0,0.0,0.0,0.0,0.0,0.0],
"categories":[],"categories_nodes":[],"categories_segments":[],"categories_sizes":[],
"default_left":[true,true,true,false,true,false,false,false,false],
"id":24,
"left_children":[1,3,5,-1,7,-1,-1,-1,-1],
"loss_changes":[0.0,0.0,0.0,0.0,0.0,0.0,0.0,0.0,0.0],
"parents":[2147483647,0,0,1,1,2,2,4,4],
"right_children":[2,4,6,-1,8,-1,-1,-1,-1],
"split_conditions":[6.1428570747375488e+00,1.5571428298950195e+01,1.5571428298950195e+01,-9.9000000000000000e+01,1.6141455620527267e-02,-9.9000000000000000e+01,-9.9000000000000000e+01,-9.9000000000000000e+01,-9.9000000000000000e+01],
"split_indices":[1,1,2,0,3,0,0,0,0],
"split_type":[0,0,0,0,0,0,0,0,0],
"sum_hessian":[0.0,0.0,0.0,0.0,0.0,0.0,0.0,0.0,0.0],
"tree_param":{"num_deleted":"0","num_feature":"5","num_nodes":"9","size_leaf_vector":"0"}
},
{
"base_weights":[0.0,0.0,0.0,0.0,0.0,0.0,0.0],
"categories":[],"categories_nodes":[],"categories_segments":[],"categories_sizes":[],
"default_left":[true,false,true,true,false,false,false],
"id":25,
"left_children":[1,-1,3,5,-1,-1,-1],
"loss_changes":[0.0,0.0,0.0,0.0,0.0,0.0,0.0],
"parents":[2147483647,0,0,2,2,3,3],
"right_children":[2,-1,4,6,-1,-1,-1],
"split_conditions":[6.1428570747375488e+00,-9.9000000000000000e+01,1.5571428298950195e+01,1.9436384439468384e+00,-9.9000000000000000e+01,-9.9000000000000000e+01,-9.9000000000000000e+01],
"split_indices":[1,0,2,0,0,0,0],
"split_type":[0,0,0,0,0,0,0],
"sum_hessian":[0.0,0.0,0.0,0.0,0.0,0.0,0.0],
"tree_param":{"num_deleted":"0","num_feature":"5","num_nodes":"7","size_leaf_vector":"0"}
},
{
"base_weights":[0.0,0.0,0.0,0.0,0.0,0.0,0.0],
"categories":[],"categories_nodes":[],"categories_segments":[],"categories_sizes":[],
"default_left":[true,true,false,false,true,false,false],
"id":26,
"left_children":[1,3,-1,-1,5,-1,-1],
"loss_changes":[0.0,0.0,0.0,0.0,0.0,0.0,0.0],
"parents":[2147483647,0,0,1,1,4,4],
"right_children":[2,4,-1,-1,6,-1,-1],
"split_conditions":[4.4285712242126465e+00,1.6798232793807983e+00,-9.9000000000000000e+01,-9.9000000000000000e+01,1.5666666984558105e+01,-9.9000000000000000e+01,-9.9000000000000000e+01],
"split_indices":[1,0,0,0,1,0,0],
"split_type":[0,0,0,0,0,0,0],
"sum_hessian":[0.0,0.0,0.0,0.0,0.0,0.0,0.0],
"tree_param":{"num_deleted":"0","num_feature":"5","num_nodes":"7","size_leaf_vector":"0"}
},
{
"base_weights":[0.0,0.0,0.0],
"categories":[],"categories_nodes":[],"categories_segments":[],"categories_sizes":[],
"default_left":[true,false,false],
"id":27,
"left_children":[1,-1,-1],
"loss_changes":[0.0,0.0,0.0],
"parents":[2147483647,0,0],
"right_children":[2,-1,-1],
"split_conditions":[4.4285712242126465e+00,-9.9000000000000000e+01,-9.9000000000000000e+01],
"split_indices":[1,0,0],
"split_type":[0,0,0],
"sum_hessian":[0.0,0.0,0.0],
"tree_param":{"num_deleted":"0","num_feature":"5","num_nodes":"3","size_leaf_vector":"0"}
},
{
"base_weights":[0.0,0.0,0.0,0.0,0.0,0.0,0.0,0.0,0.0],
"categories":[],"categories_nodes":[],"categories_segments":[],"categories_sizes":[],
"default_left":[true,true,false,true,true,false,false,false,false],
"id":28,
"left_children":[1,3,-1,5,7,-1,-1,-1,-1],
"loss_changes":[0.0,0.0,0.0,0.0,0.0,0.0,0.0,0.0,0.0],
"parents":[2147483647,0,0,1,1,3,3,4,4],
"right_children":[2,4,-1,6,8,-1,-1,-1,-1],
"split_conditions":[4.3749410659074783e-02,2.7781770229339600e+00,-9.9000000000000000e+01,2.4541211128234863e+00,1.1666666984558105e+01,-9.9000000000000000e+01,-9.9000000000000000e+01,-9.9000000000000000e+01,-9.9000000000000000e+01],
"split_indices":[3,0,0,0,1,0,0,0,0],
"split_type":[0,0,0,0,0,0,0,0,0],
"sum_hessian":[0.0,0.0,0.0,0.0,0.0,0.0,0.0,0.0,0.0],
"tree_param":{"num_deleted":"0","num_feature":"5","num_nodes":"9","size_leaf_vector":"0"}
},
{
"base_weights":[0.0,0.0,0.0,0.0,0.0,0.0,0.0],
"categories":[],"categories_nodes":[],"categories_segments":[],"categories_sizes":[],
"default_left":[true,true,true,false,false,false,false],
"id":29,
"left_children":[1,3,5,-1,-1,-1,-1],
"loss_changes":[0.0,0.0,0.0,0.0,0.0,0.0,0.0],
"parents":[2147483647,0,0,1,1,2,2],
"right_children":[2,4,6,-1,-1,-1,-1],
"split_conditions":[2.7781770229339600e+00,4.0085177868604660e-02,2.7585361152887344e-02,-9.9000000000000000e+01,-9.9000000000000000e+01,-9.9000000000000000e+01,-9.9000000000000000e+01],
"split_indices":[0,3,3,0,0,0,0],
"split_type":[0,0,0,0,0,0,0],
"sum_hessian":[0.0,0.0,0.0,0.0,0.0,0.0,0.0],
"tree_param":{"num_deleted":"0","num_feature":"5","num_nodes":"7","size_leaf_vector":"0"}
},
{
"base_weights":[0.0,0.0,0.0,0.0,0.0,0.0,0.0],
"categories":[],"categories_nodes":[],"categories_segments":[],"categories_sizes":[],
"default_left":[true,false,true,true,false,false,false],
"id":30,
"left_children":[1,-1,3,5,-1,-1,-1],
"loss_changes":[0.0,0.0,0.0,0.0,0.0,0.0,0.0],
"parents":[2147483647,0,0,2,2,3,3],
"right_children":[2,-1,4,6,-1,-1,-1],
"split_conditions":[1.6444909572601318e+00,-9.9000000000000000e+01,5.8571429252624512e+00,1.1285714149475098e+01,-9.9000000000000000e+01,-9.9000000000000000e+01,-9.9000000000000000e+01],
"split_indices":[0,0,2,2,0,0,0],
"split_type":[0,0,0,0,0,0,0],
"sum_hessian":[0.0,0.0,0.0,0.0,0.0,0.0,0.0],
"tree_param":{"num_deleted":"0","num_feature":"5","num_nodes":"7","size_leaf_vector":"0"}
},
{
"base_weights":[0.0,0.0,0.0,0.0,0.0,0.0,0.0,0.0,0.0,0.0,0.0],
"categories":[],"categories_nodes":[],"categories_segments":[],"categories_sizes":[],
"default_left":[true,true,true,false,true,true,false,false,false,false,false],
"id":31,
"left_children":[1,3,5,-1,7,9,-1,-1,-1,-1,-1],
"loss_changes":[0.0,0.0,0.0,0.0,0.0,0.0,0.0,0.0,0.0,0.0,0.0],
"parents":[2147483647,0,0,1,1,2,2,4,4,5,5],
"right_children":[2,4,6,-1,8,10,-1,-1,-1,-1,-1],
"split_conditions":[8.2857141494750977e+00,3.9714286804199219e+01,2.7020070552825928e+00,-9.9000000000000000e+01,2.7869396209716797e+00,7.9047617912292480e+00,-9.9000000000000000e+01,-9.9000000000000000e+01,-9.9000000000000000e+01,-9.9000000000000000e+01,-9.9000000000000000e+01],
"split_indices":[2,2,0,0,0,1,0,0,0,0,0],
"split_type":[0,0,0,0,0,0,0,0,0,0,0],
"sum_hessian":[0.0,0.0,0.0,0.0,0.0,0.0,0.0,0.0,0.0,0.0,0.0],
"tree_param":{"num_deleted":"0","num_feature":"5","num_nodes":"11","size_leaf_vector":"0"}
},
{
"base_weights":[0.0,0.0,0.0,0.0,0.0,0.0,0.0,0.0,0.0],
"categories":[],"categories_nodes":[],"categories_segments":[],"categories_sizes":[],
"default_left":[true,true,true,false,false,true,false,false,false],
"id":32,
"left_children":[1,3,5,-1,-1,7,-1,-1,-1],
"loss_changes":[0.0,0.0,0.0,0.0,0.0,0.0,0.0,0.0,0.0],
"parents":[2147483647,0,0,1,1,2,2,5,5],
"right_children":[2,4,6,-1,-1,8,-1,-1,-1],
"split_conditions":[8.2857141494750977e+00,3.8280732929706573e-02,2.7020070552825928e+00,-9.9000000000000000e+01,-9.9000000000000000e+01,7.9047617912292480e+00,-9.9000000000000000e+01,-9.9000000000000000e+01,-9.9000000000000000e+01],
"split_indices":[2,3,0,0,0,1,0,0,0],
"split_type":[0,0,0,0,0,0,0,0,0],
"sum_hessian":[0.0,0.0,0.0,0.0,0.0,0.0,0.0,0.0,0.0],
"tree_param":{"num_deleted":"0","num_feature":"5","num_nodes":"9","size_leaf_vector":"0"}
},
{
"base_weights":[0.0,0.0,0.0,0.0,0.0,0.0,0.0,0.0,0.0,0.0,0.0,0.0,0.0],
"categories":[],"categories_nodes":[],"categories_segments":[],"categories_sizes":[],
"default_left":[true,true,true,true,true,true,false,false,false,false,false,false,false],
"id":33,
"left_children":[1,3,5,7,9,11,-1,-1,-1,-1,-1,-1,-1],
"loss_changes":[0.0,0.0,0.0,0.0,0.0,0.0,0.0,0.0,0.0,0.0,0.0,0.0,0.0],
"parents":[2147483647,0,0,1,1,2,2,3,3,4,4,5,5],
"right_children":[2,4,6,8,10,12,-1,-1,-1,-1,-1,-1,-1],
"split_conditions":[8.2857141494750977e+00,1.1047618865966797e+01,2.7020070552825928e+00,1.1000000000000000e+01,9.5714282989501953e+00,5.2857141494750977e+00,-9.9000000000000000e+01,-9.9000000000000000e+01,-9.9000000000000000e+01,-9.9000000000000000e+01,-9.9000000000000000e+01,-9.9000000000000000e+01,-9.9000000000000000e+01],
"split_indices":[2,2,0,1,1,2,0,0,0,0,0,0,0],
"split_type":[0,0,0,0,0,0,0,0,0,0,0,0,0],
"sum_hessian":[0.0,0.0,0.0,0.0,0.0,0.0,0.0,0.0,0.0,0.0,0.0,0.0,0.0],
"tree_param":{"num_deleted":"0","num_feature":"5","num_nodes":"13","size_leaf_vector":"0"}
},
{
"base_weights":[0.0,0.0,0.0,0.0,0.0,0.0,0.0],
"categories":[],"categories_nodes":[],"categories_segments":[],"categories_sizes":[],
"default_left":[true,true,false,false,true,false,false],
"id":34,
"left_children":[1,3,-1,-1,5,-1,-1],
"loss_changes":[0.0,0.0,0.0,0.0,0.0,0.0,0.0],
"parents":[2147483647,0,0,1,1,4,4],
"right_children":[2,4,-1,-1,6,-1,-1],
"split_conditions":[4.4285712242126465e+00,1.5666666984558105e+01,-9.9000000000000000e+01,-9.9000000000000000e+01,1.6406048089265823e-02,-9.9000000000000000e+01,-9.9000000000000000e+01],
"split_indices":[1,1,0,0,3,0,0],
"split_type":[0,0,0,0,0,0,0],
"sum_hessian":[0.0,0.0,0.0,0.0,0.0,0.0,0.0],
"tree_param":{"num_deleted":"0","num_feature":"5","num_nodes":"7","size_leaf_vector":"0"}
},
{
"base_weights":[0.0,0.0,0.0,0.0,0.0,0.0,0.0,0.0,0.0,0.0,0.0,0.0,0.0],
"categories":[],"categories_nodes":[],"categories_segments":[],"categories_sizes":[],
"default_left":[true,true,true,true,true,true,false,false,false,false,false,false,false],
"id":35,
"left_children":[1,3,5,7,9,11,-1,-1,-1,-1,-1,-1,-1],
"loss_changes":[0.0,0.0,0.0,0.0,0.0,0.0,0.0,0.0,0.0,0.0,0.0,0.0,0.0],
"parents":[2147483647,0,0,1,1,2,2,3,3,4,4,5,5],
"right_children":[2,4,6,8,10,12,-1,-1,-1,-1,-1,-1,-1],
"split_conditions":[6.1428570747375488e+00,3.1965315341949463e-02,2.7343381196260452e-02,9.4761905670166016e+00,2.7846772670745850e+00,2.2857143402099609e+01,-9.9000000000000000e+01,-9.9000000000000000e+01,-9.9000000000000000e+01,-9.9000000000000000e+01,-9.9000000000000000e+01,-9.9000000000000000e+01,-9.9000000000000000e+01],
"split_indices":[1,3,3,1,0,2,0,0,0,0,0,0,0],
"split_type":[0,0,0,0,0,0,0,0,0,0,0,0,0],
"sum_hessian":[0.0,0.0,0.0,0.0,0.0,0.0,0.0,0.0,0.0,0.0,0.0,0.0,0.0],
"tree_param":{"num_deleted":"0","num_feature":"5","num_nodes":"13","size_leaf_vector":"0"}
},
{
"base_weights":[0.0,0.0,0.0,0.0,0.0,0.0,0.0,0.0,0.0],
"categories":[],"categories_nodes":[],"categories_segments":[],"categories_sizes":[],
"default_left":[true,true,true,true,false,false,false,false,false],
"id":36,
"left_children":[1,3,5,7,-1,-1,-1,-1,-1],
"loss_changes":[0.0,0.0,0.0,0.0,0.0,0.0,0.0,0.0,0.0],
"parents":[2147483647,0,0,1,1,2,2,3,3],
"right_children":[2,4,6,8,-1,-1,-1,-1,-1],
"split_conditions":[2.1874705329537392e-02,1.3000000000000000e+01,1.1666666984558105e+01,2.6302812620997429e-02,-9.9000000000000000e+01,-9.9000000000000000e+01,-9.9000000000000000e+01,-9.9000000000000000e+01,-9.9000000000000000e+01],
"split_indices":[3,1,1,3,0,0,0,0,0],
"split_type":[0,0,0,0,0,0,0,0,0],
"sum_hessian":[0.0,0.0,0.0,0.0,0.0,0.0,0.0,0.0,0.0],
"tree_param":{"num_deleted":"0","num_feature":"5","num_nodes":"9","size_leaf_vector":"0"}
},
{
"base_weights":[0.0,0.0,0.0,0.0,0.0,0.0,0.0],
"categories":[],"categories_nodes":[],"categories_segments":[],"categories_sizes":[],
"default_left":[true,true,false,false,true,false,false],
"id":37,
"left_children":[1,3,-1,-1,5,-1,-1],
"loss_changes":[0.0,0.0,0.0,0.0,0.0,0.0,0.0],
"parents":[2147483647,0,0,1,1,4,4],
"right_children":[2,4,-1,-1,6,-1,-1],
"split_conditions":[4.4285712242126465e+00,1.5666666984558105e+01,-9.9000000000000000e+01,-9.9000000000000000e+01,1.6406048089265823e-02,-9.9000000000000000e+01,-9.9000000000000000e+01],
"split_indices":[1,1,0,0,3,0,0],
"split_type":[0,0,0,0,0,0,0],
"sum_hessian":[0.0,0.0,0.0,0.0,0.0,0.0,0.0],
"tree_param":{"num_deleted":"0","num_feature":"5","num_nodes":"7","size_leaf_vector":"0"}
},
{
"base_weights":[0.0,0.0,0.0,0.0,0.0],
"categories":[],"categories_nodes":[],"categories_segments":[],"categories_sizes":[],
"default_left":[true,true,false,false,false],
"id":38,
"left_children":[1,3,-1,-1,-1],
"loss_changes":[0.0,0.0,0.0,0.0,0.0],
"parents":[2147483647,0,0,1,1],
"right_children":[2,4,-1,-1,-1],
"split_conditions":[1.0937352664768696e-02,4.5572765171527863e-02,-9.9000000000000000e+01,-9.9000000000000000e+01,-9.9000000000000000e+01],
"split_indices":[3,3,0,0,0],
"split_type":[0,0,0,0,0],
"sum_hessian":[0.0,0.0,0.0,0.0,0.0],
"tree_param":{"num_deleted":"0","num_feature":"5","num_nodes":"5","size_leaf_vector":"0"}
},
{
"base_weights":[0.0,0.0,0.0,0.0,0.0,0.0,0.0,0.0,0.0],
"categories":[],"categories_nodes":[],"categories_segments":[],"categories_sizes":[],
"default_left":[true,true,true,false,false,false,true,false,false],
"id":39,
"left_children":[1,3,5,-1,-1,-1,7,-1,-1],
"loss_changes":[0.0,0.0,0.0,0.0,0.0,0.0,0.0,0.0,0.0],
"parents":[2147483647,0,0,1,1,2,2,6,6],
"right_children":[2,4,6,-1,-1,-1,8,-1,-1],
"split_conditions":[2.1874705329537392e-02,1.3000000000000000e+01,1.1666666984558105e+01,-9.9000000000000000e+01,-9.9000000000000000e+01,-9.9000000000000000e+01,1.5571428298950195e+01,-9.9000000000000000e+01,-9.9000000000000000e+01],
"split_indices":[3,1,1,0,0,0,2,0,0],
"split_type":[0,0,0,0,0,0,0,0,0],
"sum_hessian":[0.0,0.0,0.0,0.0,0.0,0.0,0.0,0.0,0.0],
"tree_param":{"num_deleted":"0","num_feature":"5","num_nodes":"9","size_leaf_vector":"0"}
},
{
"base_weights":[0.0,0.0,0.0,0.0,0.0],
"categories":[],"categories_nodes":[],"categories_segments":[],"categories_sizes":[],
"default_left":[true,false,true,false,false],
"id":40,
"left_children":[1,-1,3,-1,-1],
"loss_changes":[0.0,0.0,0.0,0.0,0.0],
"parents":[2147483647,0,0,2,2],
"right_children":[2,-1,4,-1,-1],
"split_conditions":[1.4714285850524902e+01,-9.9000000000000000e+01,1.3380952835083008e+01,-9.9000000000000000e+01,-9.9000000000000000e+01],
"split_indices":[1,0,1,0,0],
"split_type":[0,0,0,0,0],
"sum_hessian":[0.0,0.0,0.0,0.0,0.0],
"tree_param":{"num_deleted":"0","num_feature":"5","num_nodes":"5","size_leaf_vector":"0"}
},
{
"base_weights":[0.0,0.0,0.0,0.0,0.0,0.0,0.0],
"categories":[],"categories_nodes":[],"categories_segments":[],"categories_sizes":[],
"default_left":[true,false,true,true,false,false,false],
"id":41,
"left_children":[1,-1,3,5,-1,-1,-1],
"loss_changes":[0.0,0.0,0.0,0.0,0.0,0.0,0.0],
"parents":[2147483647,0,0,2,2,3,3],
"right_children":[2,-1,4,6,-1,-1,-1],
"split_conditions":[1.6444909572601318e+00,-9.9000000000000000e+01,5.8571429252624512e+00,2.4219360351562500e+00,-9.9000000000000000e+01,-9.9000000000000000e+01,-9.9000000000000000e+01],
"split_indices":[0,0,2,0,0,0,0],
"split_type":[0,0,0,0,0,0,0],
"sum_hessian":[0.0,0.0,0.0,0.0,0.0,0.0,0.0],
"tree_param":{"num_deleted":"0","num_feature":"5","num_nodes":"7","size_leaf_vector":"0"}
},
{
"base_weights":[0.0,0.0,0.0,0.0,0.0,0.0,0.0,0.0,0.0],
"categories":[],"categories_nodes":[],"categories_segments":[],"categories_sizes":[],
"default_left":[true,true,true,false,true,false,false,false,false],
"id":42,
"left_children":[1,3,5,-1,7,-1,-1,-1,-1],
"loss_changes":[0.0,0.0,0.0,0.0,0.0,0.0,0.0,0.0,0.0],
"parents":[2147483647,0,0,1,1,2,2,4,4],
"right_children":[2,4,6,-1,8,-1,-1,-1,-1],
"split_conditions":[2.7781770229339600e+00,3.7428569793701172e+01,2.7585361152887344e-02,-9.9000000000000000e+01,1.6574866771697998e+00,-9.9000000000000000e+01,-9.9000000000000000e+01,-9.9000000000000000e+01,-9.9000000000000000e+01],
"split_indices":[0,2,3,0,0,0,0,0,0],
"split_type":[0,0,0,0,0,0,0,0,0],
"sum_hessian":[0.0,0.0,0.0,0.0,0.0,0.0,0.0,0.0,0.0],
"tree_param":{"num_deleted":"0","num_feature":"5","num_nodes":"9","size_leaf_vector":"0"}
},
{
"base_weights":[0.0,0.0,0.0,0.0,0.0,0.0,0.0,0.0,0.0],
"categories":[],"categories_nodes":[],"categories_segments":[],"categories_sizes":[],
"default_left":[true,true,true,false,true,false,false,false,false],
"id":43,
"left_children":[1,3,5,-1,7,-1,-1,-1,-1],
"loss_changes":[0.0,0.0,0.0,0.0,0.0,0.0,0.0,0.0,0.0],
"parents":[2147483647,0,0,1,1,2,2,4,4],
"right_children":[2,4,6,-1,8,-1,-1,-1,-1],
"split_conditions":[2.7781770229339600e+00,3.0063884332776070e-02,1.0142857551574707e+01,-9.9000000000000000e+01,7.8571429252624512e+00,-9.9000000000000000e+01,-9.9000000000000000e+01,-9.9000000000000000e+01,-9.9000000000000000e+01],
"split_indices":[0,3,1,0,1,0,0,0,0],
"split_type":[0,0,0,0,0,0,0,0,0],
"sum_hessian":[0.0,0.0,0.0,0.0,0.0,0.0,0.0,0.0,0.0],
"tree_param":{"num_deleted":"0","num_feature":"5","num_nodes":"9","size_leaf_vector":"0"}
},
{
"base_weights":[0.0,0.0,0.0,0.0,0.0,0.0,0.0],
"categories":[],"categories_nodes":[],"categories_segments":[],"categories_sizes":[],
"default_left":[true,true,false,false,true,false,false],
"id":44,
"left_children":[1,3,-1,-1,5,-1,-1],
"loss_changes":[0.0,0.0,0.0,0.0,0.0,0.0,0.0],
"parents":[2147483647,0,0,1,1,4,4],
"right_children":[2,4,-1,-1,6,-1,-1],
"split_conditions":[4.4285712242126465e+00,1.5666666984558105e+01,-9.9000000000000000e+01,-9.9000000000000000e+01,1.6406048089265823e-02,-9.9000000000000000e+01,-9.9000000000000000e+01],
"split_indices":[1,1,0,0,3,0,0],
"split_type":[0,0,0,0,0,0,0],
"sum_hessian":[0.0,0.0,0.0,0.0,0.0,0.0,0.0],
"tree_param":{"num_deleted":"0","num_feature":"5","num_nodes":"7","size_leaf_vector":"0"}
},
{
"base_weights":[0.0,0.0,0.0,0.0,0.0,0.0,0.0,0.0,0.0],
"categories":[],"categories_nodes":[],"categories_segments":[],"categories_sizes":[],
"default_left":[true,true,true,false,false,true,false,false,false],
"id":45,
"left_children":[1,3,5,-1,-1,7,-1,-1,-1],
"loss_changes":[0.0,0.0,0.0,0.0,0.0,0.0,0.0,0.0,0.0],
"parents":[2147483647,0,0,1,1,2,2,5,5],
"right_children":[2,4,6,-1,-1,8,-1,-1,-1],
"split_conditions":[2.1874705329537392e-02,1.3000000000000000e+01,2.6265721321105957e+00,-9.9000000000000000e+01,-9.9000000000000000e+01,1.8782016038894653e+00,-9.9000000000000000e+01,-9.9000000000000000e+01,-9.9000000000000000e+01],
"split_indices":[3,1,0,0,0,0,0,0,0],
"split_type":[0,0,0,0,0,0,0,0,0],
"sum_hessian":[0.0,0.0,0.0,0.0,0.0,0.0,0.0,0.0,0.0],
"tree_param":{"num_deleted":"0","num_feature":"5","num_nodes":"9","size_leaf_vector":"0"}
},
{
"base_weights":[0.0,0.0,0.0,0.0,0.0,0.0,0.0],
"categories":[],"categories_nodes":[],"categories_segments":[],"categories_sizes":[],
"default_left":[true,true,false,false,true,false,false],
"id":46,
"left_children":[1,3,-1,-1,5,-1,-1],
"loss_changes":[0.0,0.0,0.0,0.0,0.0,0.0,0.0],
"parents":[2147483647,0,0,1,1,4,4],
"right_children":[2,4,-1,-1,6,-1,-1],
"split_conditions":[4.4285712242126465e+00,1.5666666984558105e+01,-9.9000000000000000e+01,-9.9000000000000000e+01,1.3142857551574707e+01,-9.9000000000000000e+01,-9.9000000000000000e+01],
"split_indices":[1,1,0,0,2,0,0],
"split_type":[0,0,0,0,0,0,0],
"sum_hessian":[0.0,0.0,0.0,0.0,0.0,0.0,0.0],
"tree_param":{"num_deleted":"0","num_feature":"5","num_nodes":"7","size_leaf_vector":"0"}
},
{
"base_weights":[0.0,0.0,0.0,0.0,0.0,0.0,0.0,0.0,0.0,0.0,0.0,0.0,0.0],
"categories":[],"categories_nodes":[],"categories_segments":[],"categories_sizes":[],
"default_left":[true,true,true,true,true,true,false,false,false,false,false,false,false],
"id":47,
"left_children":[1,3,5,7,9,11,-1,-1,-1,-1,-1,-1,-1],
"loss_changes":[0.0,0.0,0.0,0.0,0.0,0.0,0.0,0.0,0.0,0.0,0.0,0.0,0.0],
"parents":[2147483647,0,0,1,1,2,2,3,3,4,4,5,5],
"right_children":[2,4,6,8,10,12,-1,-1,-1,-1,-1,-1,-1],
"split_conditions":[8.2857141494750977e+00,1.3000000000000000e+01,2.7020070552825928e+00,3.0110461637377739e-02,1.9238094329833984e+01,2.2329459190368652e+00,-9.9000000000000000e+01,-9.9000000000000000e+01,-9.9000000000000000e+01,-9.9000000000000000e+01,-9.9000000000000000e+01,-9.9000000000000000e+01,-9.9000000000000000e+01],
"split_indices":[2,1,0,3,2,0,0,0,0,0,0,0,0],
"split_type":[0,0,0,0,0,0,0,0,0,0,0,0,0],
"sum_hessian":[0.0,0.0,0.0,0.0,0.0,0.0,0.0,0.0,0.0,0.0,0.0,0.0,0.0],
"tree_param":{"num_deleted":"0","num_feature":"5","num_nodes":"13","size_leaf_vector":"0"}
},
{
"base_weights":[0.0,0.0,0.0,0.0,0.0,0.0,0.0,0.0,0.0],
"categories":[],"categories_nodes":[],"categories_segments":[],"categories_sizes":[],
"default_left":[true,true,false,true,true,false,false,false,false],
"id":48,
"left_children":[1,3,-1,5,7,-1,-1,-1,-1],
"loss_changes":[0.0,0.0,0.0,0.0,0.0,0.0,0.0,0.0,0.0],
"parents":[2147483647,0,0,1,1,3,3,4,4],
"right_children":[2,4,-1,6,8,-1,-1,-1,-1],
"split_conditions":[4.4285712242126465e+00,2.5285715103149414e+01,-9.9000000000000000e+01,3.1965315341949463e-02,2.3367190361022949e+00,-9.9000000000000000e+01,-9.9000000000000000e+01,-9.9000000000000000e+01,-9.9000000000000000e+01],
"split_indices":[1,2,0,3,0,0,0,0,0],
"split_type":[0,0,0,0,0,0,0,0,0],
"sum_hessian":[0.0,0.0,0.0,0.0,0.0,0.0,0.0,0.0,0.0],
"tree_param":{"num_deleted":"0","num_feature":"5","num_nodes":"9","size_leaf_vector":"0"}
},
{
"base_weights":[0.0,0.0,0.0,0.0,0.0,0.0,0.0,0.0,0.0],
"categories":[],"categories_nodes":[],"categories_segments":[],"categories_sizes":[],
"default_left":[true,true,true,false,false,true,false,false,false],
"id":49,
"left_children":[1,3,5,-1,-1,7,-1,-1,-1],
"loss_changes":[0.0,0.0,0.0,0.0,0.0,0.0,0.0,0.0,0.0],
"parents":[2147483647,0,0,1,1,2,2,5,5],
"right_children":[2,4,6,-1,-1,8,-1,-1,-1],
"split_conditions":[2.5285715103149414e+01,5.2857141494750977e+00,2.6945941448211670e+00,-9.9000000000000000e+01,-9.9000000000000000e+01,3.0063884332776070e-02,-9.9000000000000000e+01,-9.9000000000000000e+01,-9.9000000000000000e+01],
"split_indices":[2,1,0,0,0,3,0,0,0],
"split_type":[0,0,0,0,0,0,0,0,0],
"sum_hessian":[0.0,0.0,0.0,0.0,0.0,0.0,0.0,0.0,0.0],
"tree_param":{"num_deleted":"0","num_feature":"5","num_nodes":"9","size_leaf_vector":"0"}
},
{
"base_weights":[0.0,0.0,0.0,0.0,0.0,0.0,0.0,0.0,0.0,0.0,0.0,0.0,0.0],
"categories":[],"categories_nodes":[],"categories_segments":[],"categories_sizes":[],
"default_left":[true,true,true,true,true,true,false,false,false,false,false,false,false],
"id":50,
"left_children":[1,3,5,7,9,11,-1,-1,-1,-1,-1,-1,-1],
"loss_changes":[0.0,0.0,0.0,0.0,0.0,0.0,0.0,0.0,0.0,0.0,0.0,0.0,0.0],
"parents":[2147483647,0,0,1,1,2,2,3,3,4,4,5,5],
"right_children":[2,4,6,8,10,12,-1,-1,-1,-1,-1,-1,-1],
"split_conditions":[2.4758608341217041e+00,1.0142857551574707e+01,3.4470189362764359e-02,1.8000000000000000e+01,1.0714285850524902e+01,7.8571429252624512e+00,-9.9000000000000000e+01,-9.9000000000000000e+01,-9.9000000000000000e+01,-9.9000000000000000e+01,-9.9000000000000000e+01,-9.9000000000000000e+01,-9.9000000000000000e+01],
"split_indices":[0,1,3,2,2,1,0,0,0,0,0,0,0],
"split_type":[0,0,0,0,0,0,0,0,0,0,0,0,0],
"sum_hessian":[0.0,0.0,0.0,0.0,0.0,0.0,0.0,0.0,0.0,0.0,0.0,0.0,0.0],
"tree_param":{"num_deleted":"0","num_feature":"5","num_nodes":"13","size_leaf_vector":"0"}
},
{
"base_weights":[0.0,0.0,0.0,0.0,0.0,0.0,0.0,0.0,0.0,0.0,0.0,0.0,0.0],
"categories":[],"categories_nodes":[],"categories_segments":[],"categories_sizes":[],
"default_left":[true,true,true,true,true,true,false,false,false,false,false,false,false],
"id":51,
"left_children":[1,3,5,7,9,11,-1,-1,-1,-1,-1,-1,-1],
"loss_changes":[0.0,0.0,0.0,0.0,0.0,0.0,0.0,0.0,0.0,0.0,0.0,0.0,0.0],
"parents":[2147483647,0,0,1,1,2,2,3,3,4,4,5,5],
"right_children":[2,4,6,8,10,12,-1,-1,-1,-1,-1,-1,-1],
"split_conditions":[8.2857141494750977e+00,1.3000000000000000e+01,2.3398723602294922e+00,3.0110461637377739e-02,2.7343381196260452e-02,5.2857141494750977e+00,-9.9000000000000000e+01,-9.9000000000000000e+01,-9.9000000000000000e+01,-9.9000000000000000e+01,-9.9000000000000000e+01,-9.9000000000000000e+01,-9.9000000000000000e+01],
"split_indices":[2,1,0,3,3,2,0,0,0,0,0,0,0],
"split_type":[0,0,0,0,0,0,0,0,0,0,0,0,0],
"sum_hessian":[0.0,0.0,0.0,0.0,0.0,0.0,0.0,0.0,0.0,0.0,0.0,0.0,0.0],
"tree_param":{"num_deleted":"0","num_feature":"5","num_nodes":"13","size_leaf_vector":"0"}
},
{
"base_weights":[0.0,0.0,0.0,0.0,0.0,0.0,0.0,0.0,0.0,0.0,0.0,0.0,0.0],
"categories":[],"categories_nodes":[],"categories_segments":[],"categories_sizes":[],
"default_left":[true,true,true,true,true,true,false,false,false,false,false,false,false],
"id":52,
"left_children":[1,3,5,7,9,11,-1,-1,-1,-1,-1,-1,-1],
"loss_changes":[0.0,0.0,0.0,0.0,0.0,0.0,0.0,0.0,0.0,0.0,0.0,0.0,0.0],
"parents":[2147483647,0,0,1,1,2,2,3,3,4,4,5,5],
"right_children":[2,4,6,8,10,12,-1,-1,-1,-1,-1,-1,-1],
"split_conditions":[8.2857141494750977e+00,1.3000000000000000e+01,2.3398723602294922e+00,2.5900673121213913e-02,2.1874705329537392e-02,5.2857141494750977e+00,-9.9000000000000000e+01,-9.9000000000000000e+01,-9.9000000000000000e+01,-9.9000000000000000e+01,-9.9000000000000000e+01,-9.9000000000000000e+01,-9.9000000000000000e+01],
"split_indices":[2,1,0,3,3,2,0,0,0,0,0,0,0],
"split_type":[0,0,0,0,0,0,0,0,0,0,0,0,0],
"sum_hessian":[0.0,0.0,0.0,0.0,0.0,0.0,0.0,0.0,0.0,0.0,0.0,0.0,0.0],
"tree_param":{"num_deleted":"0","num_feature":"5","num_nodes":"13","size_leaf_vector":"0"}
},
{
"base_weights":[0.0,0.0,0.0,0.0,0.0],
"categories":[],"categories_nodes":[],"categories_segments":[],"categories_sizes":[],
"default_left":[true,false,true,false,false],
"id":53,
"left_children":[1,-1,3,-1,-1],
"loss_changes":[0.0,0.0,0.0,0.0,0.0],
"parents":[2147483647,0,0,2,2],
"right_children":[2,-1,4,-1,-1],
"split_conditions":[1.4714285850524902e+01,-9.9000000000000000e+01,1.3380952835083008e+01,-9.9000000000000000e+01,-9.9000000000000000e+01],
"split_indices":[1,0,1,0,0],
"split_type":[0,0,0,0,0],
"sum_hessian":[0.0,0.0,0.0,0.0,0.0],
"tree_param":{"num_deleted":"0","num_feature":"5","num_nodes":"5","size_leaf_vector":"0"}
},
{
"base_weights":[0.0,0.0,0.0,0.0,0.0,0.0,0.0,0.0,0.0,0.0,0.0,0.0,0.0],
"categories":[],"categories_nodes":[],"categories_segments":[],"categories_sizes":[],
"default_left":[true,true,true,true,true,true,false,false,false,false,false,false,false],
"id":54,
"left_children":[1,3,5,7,9,11,-1,-1,-1,-1,-1,-1,-1],
"loss_changes":[0.0,0.0,0.0,0.0,0.0,0.0,0.0,0.0,0.0,0.0,0.0,0.0,0.0],
"parents":[2147483647,0,0,1,1,2,2,3,3,4,4,5,5],
"right_children":[2,4,6,8,10,12,-1,-1,-1,-1,-1,-1,-1],
"split_conditions":[6.1428570747375488e+00,3.1965315341949463e-02,2.7343381196260452e-02,9.4761905670166016e+00,9.8571424484252930e+00,1.5622220933437347e-02,-9.9000000000000000e+01,-9.9000000000000000e+01,-9.9000000000000000e+01,-9.9000000000000000e+01,-9.9000000000000000e+01,-9.9000000000000000e+01,-9.9000000000000000e+01],
"split_indices":[1,3,3,1,1,3,0,0,0,0,0,0,0],
"split_type":[0,0,0,0,0,0,0,0,0,0,0,0,0],
"sum_hessian":[0.0,0.0,0.0,0.0,0.0,0.0,0.0,0.0,0.0,0.0,0.0,0.0,0.0],
"tree_param":{"num_deleted":"0","num_feature":"5","num_nodes":"13","size_leaf_vector":"0"}
},
{
"base_weights":[0.0,0.0,0.0,0.0,0.0,0.0,0.0,0.0,0.0,0.0,0.0],
"categories":[],"categories_nodes":[],"categories_segments":[],"categories_sizes":[],
"default_left":[true,true,true,false,true,true,false,false,false,false,false],
"id":55,
"left_children":[1,3,5,-1,7,9,-1,-1,-1,-1,-1],
"loss_changes":[0.0,0.0,0.0,0.0,0.0,0.0,0.0,0.0,0.0,0.0,0.0],
"parents":[2147483647,0,0,1,1,2,2,4,4,5,5],
"right_children":[2,4,6,-1,8,10,-1,-1,-1,-1,-1],
"split_conditions":[7.8571429252624512e+00,3.1965315341949463e-02,3.2812055200338364e-02,-9.9000000000000000e+01,1.3523809432983398e+01,1.3142857551574707e+01,-9.9000000000000000e+01,-9.9000000000000000e+01,-9.9000000000000000e+01,-9.9000000000000000e+01,-9.9000000000000000e+01],
"split_indices":[1,3,3,0,1,2,0,0,0,0,0],
"split_type":[0,0,0,0,0,0,0,0,0,0,0],
"sum_hessian":[0.0,0.0,0.0,0.0,0.0,0.0,0.0,0.0,0.0,0.0,0.0],
"tree_param":{"num_deleted":"0","num_feature":"5","num_nodes":"11","size_leaf_vector":"0"}
},
{
"base_weights":[0.0,0.0,0.0,0.0,0.0,0.0,0.0,0.0,0.0,0.0,0.0],
"categories":[],"categories_nodes":[],"categories_segments":[],"categories_sizes":[],
"default_left":[true,true,true,true,false,true,false,false,false,false,false],
"id":56,
"left_children":[1,3,5,7,-1,9,-1,-1,-1,-1,-1],
"loss_changes":[0.0,0.0,0.0,0.0,0.0,0.0,0.0,0.0,0.0,0.0,0.0],
"parents":[2147483647,0,0,1,1,2,2,3,3,5,5],
"right_children":[2,4,6,8,-1,10,-1,-1,-1,-1,-1],
"split_conditions":[7.8571429252624512e+00,5.8571429252624512e+00,3.2812055200338364e-02,9.1428575515747070e+00,-9.9000000000000000e+01,1.5622979030013084e-02,-9.9000000000000000e+01,-9.9000000000000000e+01,-9.9000000000000000e+01,-9.9000000000000000e+01,-9.9000000000000000e+01],
"split_indices":[1,2,3,2,0,3,0,0,0,0,0],
"split_type":[0,0,0,0,0,0,0,0,0,0,0],
"sum_hessian":[0.0,0.0,0.0,0.0,0.0,0.0,0.0,0.0,0.0,0.0,0.0],
"tree_param":{"num_deleted":"0","num_feature":"5","num_nodes":"11","size_leaf_vector":"0"}
},
{
"base_weights":[0.0,0.0,0.0,0.0,0.0,0.0,0.0,0.0,0.0],
"categories":[],"categories_nodes":[],"categories_segments":[],"categories_sizes":[],
"default_left":[true,true,true,false,false,true,false,false,false],
"id":57,
"left_children":[1,3,5,-1,-1,7,-1,-1,-1],
"loss_changes":[0.0,0.0,0.0,0.0,0.0,0.0,0.0,0.0,0.0],
"parents":[2147483647,0,0,1,1,2,2,5,5],
"right_children":[2,4,6,-1,-1,8,-1,-1,-1],
"split_conditions":[7.8571429252624512e+00,5.8571429252624512e+00,3.2812055200338364e-02,-9.9000000000000000e+01,-9.9000000000000000e+01,2.6559064164757729e-02,-9.9000000000000000e+01,-9.9000000000000000e+01,-9.9000000000000000e+01],
"split_indices":[1,2,3,0,0,3,0,0,0],
"split_type":[0,0,0,0,0,0,0,0,0],
"sum_hessian":[0.0,0.0,0.0,0.0,0.0,0.0,0.0,0.0,0.0],
"tree_param":{"num_deleted":"0","num_feature":"5","num_nodes":"9","size_leaf_vector":"0"}
},
{
"base_weights":[0.0,0.0,0.0,0.0,0.0,0.0,0.0,0.0,0.0,0.0,0.0],
"categories":[],"categories_nodes":[],"categories_segments":[],"categories_sizes":[],
"default_left":[true,true,true,false,true,true,false,false,false,false,false],
"id":58,
"left_children":[1,3,5,-1,7,9,-1,-1,-1,-1,-1],
"loss_changes":[0.0,0.0,0.0,0.0,0.0,0.0,0.0,0.0,0.0,0.0,0.0],
"parents":[2147483647,0,0,1,1,2,2,4,4,5,5],
"right_children":[2,4,6,-1,8,10,-1,-1,-1,-1,-1],
"split_conditions":[7.8571429252624512e+00,1.6141455620527267e-02,3.2812055200338364e-02,-9.9000000000000000e+01,9.3809528350830078e+00,4.1428570747375488e+00,-9.9000000000000000e+01,-9.9000000000000000e+01,-9.9000000000000000e+01,-9.9000000000000000e+01,-9.9000000000000000e+01],
"split_indices":[1,3,3,0,1,1,0,0,0,0,0],
"split_type":[0,0,0,0,0,0,0,0,0,0,0],
"sum_hessian":[0.0,0.0,0.0,0.0,0.0,0.0,0.0,0.0,0.0,0.0,0.0],
"tree_param":{"num_deleted":"0","num_feature":"5","num_nodes":"11","size_leaf_vector":"0"}
},
{
"base_weights":[0.0,0.0,0.0,0.0,0.0,0.0,0.0,0.0,0.0,0.0,0.0,0.0,0.0],
"categories":[],"categories_nodes":[],"categories_segments":[],"categories_sizes":[],
"default_left":[true,true,true,true,true,true,false,false,false,false,false,false,false],
"id":59,
"left_children":[1,3,5,7,9,11,-1,-1,-1,-1,-1,-1,-1],
"loss_changes":[0.0,0.0,0.0,0.0,0.0,0.0,0.0,0.0,0.0,0.0,0.0,0.0,0.0],
"parents":[2147483647,0,0,1,1,2,2,3,3,4,4,5,5],
"right_children":[2,4,6,8,10,12,-1,-1,-1,-1,-1,-1,-1],
"split_conditions":[7.8571429252624512e+00,3.1965315341949463e-02,3.2812055200338364e-02,1.1571428298950195e+01,1.3880847021937370e-02,2.1872170269489288e-02,-9.9000000000000000e+01,-9.9000000000000000e+01,-9.9000000000000000e+01,-9.9000000000000000e+01,-9.9000000000000000e+01,-9.9000000000000000e+01,-9.9000000000000000e+01],
"split_indices":[1,3,3,1,3,3,0,0,0,0,0,0,0],
"split_type":[0,0,0,0,0,0,0,0,0,0,0,0,0],
"sum_hessian":[0.0,0.0,0.0,0.0,0.0,0.0,0.0,0.0,0.0,0.0,0.0,0.0,0.0],
"tree_param":{"num_deleted":"0","num_feature":"5","num_nodes":"13","size_leaf_vector":"0"}
},
{
"base_weights":[0.0,0.0,0.0,0.0,0.0,0.0,0.0],
"categories":[],"categories_nodes":[],"categories_segments":[],"categories_sizes":[],
"default_left":[true,true,false,false,true,false,false],
"id":60,
"left_children":[1,3,-1,-1,5,-1,-1],
"loss_changes":[0.0,0.0,0.0,0.0,0.0,0.0,0.0],
"parents":[2147483647,0,0,1,1,4,4],
"right_children":[2,4,-1,-1,6,-1,-1],
"split_conditions":[7.8571429252624512e+00,1.0761904716491699e+01,-9.9000000000000000e+01,-9.9000000000000000e+01,2.6690695434808731e-02,-9.9000000000000000e+01,-9.9000000000000000e+01],
"split_indices":[1,1,0,0,3,0,0],
"split_type":[0,0,0,0,0,0,0],
"sum_hessian":[0.0,0.0,0.0,0.0,0.0,0.0,0.0],
"tree_param":{"num_deleted":"0","num_feature":"5","num_nodes":"7","size_leaf_vector":"0"}
},
{
"base_weights":[0.0,0.0,0.0,0.0,0.0,0.0,0.0,0.0,0.0],
"categories":[],"categories_nodes":[],"categories_segments":[],"categories_sizes":[],
"default_left":[true,true,false,true,true,false,false,false,false],
"id":61,
"left_children":[1,3,-1,5,7,-1,-1,-1,-1],
"loss_changes":[0.0,0.0,0.0,0.0,0.0,0.0,0.0,0.0,0.0],
"parents":[2147483647,0,0,1,1,3,3,4,4],
"right_children":[2,4,-1,6,8,-1,-1,-1,-1],
"split_conditions":[4.3749410659074783e-02,1.4582023955881596e-02,-9.9000000000000000e+01,1.3142857551574707e+01,3.0142856597900391e+01,-9.9000000000000000e+01,-9.9000000000000000e+01,-9.9000000000000000e+01,-9.9000000000000000e+01],
"split_indices":[3,3,0,2,2,0,0,0,0],
"split_type":[0,0,0,0,0,0,0,0,0],
"sum_hessian":[0.0,0.0,0.0,0.0,0.0,0.0,0.0,0.0,0.0],
"tree_param":{"num_deleted":"0","num_feature":"5","num_nodes":"9","size_leaf_vector":"0"}
},
{
"base_weights":[0.0,0.0,0.0,0.0,0.0,0.0,0.0],
"categories":[],"categories_nodes":[],"categories_segments":[],"categories_sizes":[],
"default_left":[true,true,false,false,true,false,false],
"id":62,
"left_children":[1,3,-1,-1,5,-1,-1],
"loss_changes":[0.0,0.0,0.0,0.0,0.0,0.0,0.0],
"parents":[2147483647,0,0,1,1,4,4],
"right_children":[2,4,-1,-1,6,-1,-1],
"split_conditions":[4.3749410659074783e-02,1.4582023955881596e-02,-9.9000000000000000e+01,-9.9000000000000000e+01,2.8470275923609734e-02,-9.9000000000000000e+01,-9.9000000000000000e+01],
"split_indices":[3,3,0,0,3,0,0],
"split_type":[0,0,0,0,0,0,0],
"sum_hessian":[0.0,0.0,0.0,0.0,0.0,0.0,0.0],
"tree_param":{"num_deleted":"0","num_feature":"5","num_nodes":"7","size_leaf_vector":"0"}
},
{
"base_weights":[0.0,0.0,0.0,0.0,0.0,0.0,0.0,0.0,0.0],
"categories":[],"categories_nodes":[],"categories_segments":[],"categories_sizes":[],
"default_left":[true,true,true,false,false,true,false,false,false],
"id":63,
"left_children":[1,3,5,-1,-1,7,-1,-1,-1],
"loss_changes":[0.0,0.0,0.0,0.0,0.0,0.0,0.0,0.0,0.0],
"parents":[2147483647,0,0,1,1,2,2,5,5],
"right_children":[2,4,6,-1,-1,8,-1,-1,-1],
"split_conditions":[7.8571429252624512e+00,3.5000000000000000e+01,3.2812055200338364e-02,-9.9000000000000000e+01,-9.9000000000000000e+01,2.7714284896850586e+01,-9.9000000000000000e+01,-9.9000000000000000e+01,-9.9000000000000000e+01],
"split_indices":[1,2,3,0,0,2,0,0,0],
"split_type":[0,0,0,0,0,0,0,0,0],
"sum_hessian":[0.0,0.0,0.0,0.0,0.0,0.0,0.0,0.0,0.0],
"tree_param":{"num_deleted":"0","num_feature":"5","num_nodes":"9","size_leaf_vector":"0"}
},
{
"base_weights":[0.0,0.0,0.0,0.0,0.0,0.0,0.0,0.0,0.0],
"categories":[],"categories_nodes":[],"categories_segments":[],"categories_sizes":[],
"default_left":[true,true,false,true,true,false,false,false,false],
"id":64,
"left_children":[1,3,-1,5,7,-1,-1,-1,-1],
"loss_changes":[0.0,0.0,0.0,0.0,0.0,0.0,0.0,0.0,0.0],
"parents":[2147483647,0,0,1,1,3,3,4,4],
"right_children":[2,4,-1,6,8,-1,-1,-1,-1],
"split_conditions":[4.3749410659074783e-02,1.4582023955881596e-02,-9.9000000000000000e+01,1.1107908561825752e-02,2.4782512187957764e+00,-9.9000000000000000e+01,-9.9000000000000000e+01,-9.9000000000000000e+01,-9.9000000000000000e+01],
"split_indices":[3,3,0,3,0,0,0,0,0],
"split_type":[0,0,0,0,0,0,0,0,0],
"sum_hessian":[0.0,0.0,0.0,0.0,0.0,0.0,0.0,0.0,0.0],
"tree_param":{"num_deleted":"0","num_feature":"5","num_nodes":"9","size_leaf_vector":"0"}
},
{
"base_weights":[0.0,0.0,0.0,0.0,0.0,0.0,0.0,0.0,0.0],
"categories":[],"categories_nodes":[],"categories_segments":[],"categories_sizes":[],
"default_left":[true,true,false,true,true,false,false,false,false],
"id":65,
"left_children":[1,3,-1,5,7,-1,-1,-1,-1],
"loss_changes":[0.0,0.0,0.0,0.0,0.0,0.0,0.0,0.0,0.0],
"parents":[2147483647,0,0,1,1,3,3,4,4],
"right_children":[2,4,-1,6,8,-1,-1,-1,-1],
"split_conditions":[4.3749410659074783e-02,1.4582023955881596e-02,-9.9000000000000000e+01,1.3142857551574707e+01,2.0428571701049805e+01,-9.9000000000000000e+01,-9.9000000000000000e+01,-9.9000000000000000e+01,-9.9000000000000000e+01],
"split_indices":[3,3,0,2,2,0,0,0,0],
"split_type":[0,0,0,0,0,0,0,0,0],
"sum_hessian":[0.0,0.0,0.0,0.0,0.0,0.0,0.0,0.0,0.0],
"tree_param":{"num_deleted":"0","num_feature":"5","num_nodes":"9","size_leaf_vector":"0"}
},
{
"base_weights":[0.0,0.0,0.0,0.0,0.0,0.0,0.0,0.0,0.0],
"categories":[],"categories_nodes":[],"categories_segments":[],"categories_sizes":[],
"default_left":[true,true,true,false,false,true,false,false,false],
"id":66,
"left_children":[1,3,5,-1,-1,7,-1,-1,-1],
"loss_changes":[0.0,0.0,0.0,0.0,0.0,0.0,0.0,0.0,0.0],
"parents":[2147483647,0,0,1,1,2,2,5,5],
"right_children":[2,4,6,-1,-1,8,-1,-1,-1],
"split_conditions":[2.5285715103149414e+01,5.2857141494750977e+00,2.6945941448211670e+00,-9.9000000000000000e+01,-9.9000000000000000e+01,3.0063884332776070e-02,-9.9000000000000000e+01,-9.9000000000000000e+01,-9.9000000000000000e+01],
"split_indices":[2,1,0,0,0,3,0,0,0],
"split_type":[0,0,0,0,0,0,0,0,0],
"sum_hessian":[0.0,0.0,0.0,0.0,0.0,0.0,0.0,0.0,0.0],
"tree_param":{"num_deleted":"0","num_feature":"5","num_nodes":"9","size_leaf_vector":"0"}
},
{
"base_weights":[0.0,0.0,0.0,0.0,0.0,0.0,0.0,0.0,0.0],
"categories":[],"categories_nodes":[],"categories_segments":[],"categories_sizes":[],
"default_left":[true,true,true,false,false,true,false,false,false],
"id":67,
"left_children":[1,3,5,-1,-1,7,-1,-1,-1],
"loss_changes":[0.0,0.0,0.0,0.0,0.0,0.0,0.0,0.0,0.0],
"parents":[2147483647,0,0,1,1,2,2,5,5],
"right_children":[2,4,6,-1,-1,8,-1,-1,-1],
"split_conditions":[1.7200700044631958e+00,1.5904631614685059e+00,3.2571430206298828e+01,-9.9000000000000000e+01,-9.9000000000000000e+01,3.6619049072265625e+01,-9.9000000000000000e+01,-9.9000000000000000e+01,-9.9000000000000000e+01],
"split_indices":[0,0,2,0,0,2,0,0,0],
"split_type":[0,0,0,0,0,0,0,0,0],
"sum_hessian":[0.0,0.0,0.0,0.0,0.0,0.0,0.0,0.0,0.0],
"tree_param":{"num_deleted":"0","num_feature":"5","num_nodes":"9","size_leaf_vector":"0"}
},
{
"base_weights":[0.0,0.0,0.0,0.0,0.0,0.0,0.0,0.0,0.0,0.0,0.0],
"categories":[],"categories_nodes":[],"categories_segments":[],"categories_sizes":[],
"default_left":[true,true,true,false,true,true,false,false,false,false,false],
"id":68,
"left_children":[1,3,5,-1,7,9,-1,-1,-1,-1,-1],
"loss_changes":[0.0,0.0,0.0,0.0,0.0,0.0,0.0,0.0,0.0,0.0,0.0],
"parents":[2147483647,0,0,1,1,2,2,4,4,5,5],
"right_children":[2,4,6,-1,8,10,-1,-1,-1,-1,-1],
"split_conditions":[7.8571429252624512e+00,3.1965315341949463e-02,2.7343381196260452e-02,-9.9000000000000000e+01,2.6378526687622070e+00,1.7937852144241333e+00,-9.9000000000000000e+01,-9.9000000000000000e+01,-9.9000000000000000e+01,-9.9000000000000000e+01,-9.9000000000000000e+01],
"split_indices":[1,3,3,0,0,0,0,0,0,0,0],
"split_type":[0,0,0,0,0,0,0,0,0,0,0],
"sum_hessian":[0.0,0.0,0.0,0.0,0.0,0.0,0.0,0.0,0.0,0.0,0.0],
"tree_param":{"num_deleted":"0","num_feature":"5","num_nodes":"11","size_leaf_vector":"0"}
},
{
"base_weights":[0.0,0.0,0.0,0.0,0.0,0.0,0.0,0.0,0.0],
"categories":[],"categories_nodes":[],"categories_segments":[],"categories_sizes":[],
"default_left":[true,true,true,false,false,true,false,false,false],
"id":69,
"left_children":[1,3,5,-1,-1,7,-1,-1,-1],
"loss_changes":[0.0,0.0,0.0,0.0,0.0,0.0,0.0,0.0,0.0],
"parents":[2147483647,0,0,1,1,2,2,5,5],
"right_children":[2,4,6,-1,-1,8,-1,-1,-1],
"split_conditions":[1.7200700044631958e+00,1.5904631614685059e+00,2.5154500007629395e+00,-9.9000000000000000e+01,-9.9000000000000000e+01,2.7253031730651855e+00,-9.9000000000000000e+01,-9.9000000000000000e+01,-9.9000000000000000e+01],
"split_indices":[0,0,0,0,0,0,0,0,0],
"split_type":[0,0,0,0,0,0,0,0,0],
"sum_hessian":[0.0,0.0,0.0,0.0,0.0,0.0,0.0,0.0,0.0],
"tree_param":{"num_deleted":"0","num_feature":"5","num_nodes":"9","size_leaf_vector":"0"}
},
{
"base_weights":[0.0,0.0,0.0,0.0,0.0,0.0,0.0,0.0,0.0],
"categories":[],"categories_nodes":[],"categories_segments":[],"categories_sizes":[],
"default_left":[true,true,true,false,false,false,true,false,false],
"id":70,
"left_children":[1,3,5,-1,-1,-1,7,-1,-1],
"loss_changes":[0.0,0.0,0.0,0.0,0.0,0.0,0.0,0.0,0.0],
"parents":[2147483647,0,0,1,1,2,2,6,6],
"right_children":[2,4,6,-1,-1,-1,8,-1,-1],
"split_conditions":[1.7200700044631958e+00,1.5904631614685059e+00,2.8213651180267334e+00,-9.9000000000000000e+01,-9.9000000000000000e+01,-9.9000000000000000e+01,2.0042637363076210e-02,-9.9000000000000000e+01,-9.9000000000000000e+01],
"split_indices":[0,0,0,0,0,0,3,0,0],
"split_type":[0,0,0,0,0,0,0,0,0],
"sum_hessian":[0.0,0.0,0.0,0.0,0.0,0.0,0.0,0.0,0.0],
"tree_param":{"num_deleted":"0","num_feature":"5","num_nodes":"9","size_leaf_vector":"0"}
},
{
"base_weights":[0.0,0.0,0.0,0.0,0.0,0.0,0.0,0.0,0.0,0.0,0.0],
"categories":[],"categories_nodes":[],"categories_segments":[],"categories_sizes":[],
"default_left":[true,true,true,false,false,true,true,false,false,false,false],
"id":71,
"left_children":[1,3,5,-1,-1,7,9,-1,-1,-1,-1],
"loss_changes":[0.0,0.0,0.0,0.0,0.0,0.0,0.0,0.0,0.0,0.0,0.0],
"parents":[2147483647,0,0,1,1,2,2,5,5,6,6],
"right_children":[2,4,6,-1,-1,8,10,-1,-1,-1,-1],
"split_conditions":[1.7200700044631958e+00,1.6768069937825203e-02,3.2571430206298828e+01,-9.9000000000000000e+01,-9.9000000000000000e+01,2.3868432044982910e+00,2.9047618865966797e+01,-9.9000000000000000e+01,-9.9000000000000000e+01,-9.9000000000000000e+01,-9.9000000000000000e+01],
"split_indices":[0,3,2,0,0,0,2,0,0,0,0],
"split_type":[0,0,0,0,0,0,0,0,0,0,0],
"sum_hessian":[0.0,0.0,0.0,0.0,0.0,0.0,0.0,0.0,0.0,0.0,0.0],
"tree_param":{"num_deleted":"0","num_feature":"5","num_nodes":"11","size_leaf_vector":"0"}
},
{
"base_weights":[0.0,0.0,0.0,0.0,0.0,0.0,0.0,0.0,0.0,0.0,0.0],
"categories":[],"categories_nodes":[],"categories_segments":[],"categories_sizes":[],
"default_left":[true,true,true,false,false,true,true,false,false,false,false],
"id":72,
"left_children":[1,3,5,-1,-1,7,9,-1,-1,-1,-1],
"loss_changes":[0.0,0.0,0.0,0.0,0.0,0.0,0.0,0.0,0.0,0.0,0.0],
"parents":[2147483647,0,0,1,1,2,2,5,5,6,6],
"right_children":[2,4,6,-1,-1,8,10,-1,-1,-1,-1],
"split_conditions":[1.7200700044631958e+00,1.5904631614685059e+00,3.0142856597900391e+01,-9.9000000000000000e+01,-9.9000000000000000e+01,3.6000000000000000e+01,2.5154500007629395e+00,-9.9000000000000000e+01,-9.9000000000000000e+01,-9.9000000000000000e+01,-9.9000000000000000e+01],
"split_indices":[0,0,2,0,0,2,0,0,0,0,0],
"split_type":[0,0,0,0,0,0,0,0,0,0,0],
"sum_hessian":[0.0,0.0,0.0,0.0,0.0,0.0,0.0,0.0,0.0,0.0,0.0],
"tree_param":{"num_deleted":"0","num_feature":"5","num_nodes":"11","size_leaf_vector":"0"}
},
{
"base_weights":[0.0,0.0,0.0,0.0,0.0],
"categories":[],"categories_nodes":[],"categories_segments":[],"categories_sizes":[],
"default_left":[true,false,true,false,false],
"id":73,
"left_children":[1,-1,3,-1,-1],
"loss_changes":[0.0,0.0,0.0,0.0,0.0],
"parents":[2147483647,0,0,2,2],
"right_children":[2,-1,4,-1,-1],
"split_conditions":[3.9857143402099609e+01,-9.9000000000000000e+01,1.6899157762527466e+00,-9.9000000000000000e+01,-9.9000000000000000e+01],
"split_indices":[2,0,0,0,0],
"split_type":[0,0,0,0,0],
"sum_hessian":[0.0,0.0,0.0,0.0,0.0],
"tree_param":{"num_deleted":"0","num_feature":"5","num_nodes":"5","size_leaf_vector":"0"}
},
{
"base_weights":[0.0,0.0,0.0,0.0,0.0,0.0,0.0,0.0,0.0],
"categories":[],"categories_nodes":[],"categories_segments":[],"categories_sizes":[],
"default_left":[true,true,false,true,true,false,false,false,false],
"id":74,
"left_children":[1,3,-1,5,7,-1,-1,-1,-1],
"loss_changes":[0.0,0.0,0.0,0.0,0.0,0.0,0.0,0.0,0.0],
"parents":[2147483647,0,0,1,1,3,3,4,4],
"right_children":[2,4,-1,6,8,-1,-1,-1,-1],
"split_conditions":[4.3749410659074783e-02,1.4582023955881596e-02,-9.9000000000000000e+01,1.1107908561825752e-02,1.7360605299472809e-02,-9.9000000000000000e+01,-9.9000000000000000e+01,-9.9000000000000000e+01,-9.9000000000000000e+01],
"split_indices":[3,3,0,3,3,0,0,0,0],
"split_type":[0,0,0,0,0,0,0,0,0],
"sum_hessian":[0.0,0.0,0.0,0.0,0.0,0.0,0.0,0.0,0.0],
"tree_param":{"num_deleted":"0","num_feature":"5","num_nodes":"9","size_leaf_vector":"0"}
},
{
"base_weights":[0.0,0.0,0.0,0.0,0.0,0.0,0.0,0.0,0.0,0.0,0.0,0.0,0.0],
"categories":[],"categories_nodes":[],"categories_segments":[],"categories_sizes":[],
"default_left":[true,true,true,false,true,true,true,false,false,false,false,false,false],
"id":75,
"left_children":[1,3,5,-1,7,9,11,-1,-1,-1,-1,-1,-1],
"loss_changes":[0.0,0.0,0.0,0.0,0.0,0.0,0.0,0.0,0.0,0.0,0.0,0.0,0.0],
"parents":[2147483647,0,0,1,1,2,2,4,4,5,5,6,6],
"right_children":[2,4,6,-1,8,10,12,-1,-1,-1,-1,-1,-1],
"split_conditions":[2.3247025012969971e+00,5.8571429252624512e+00,1.0142857551574707e+01,-9.9000000000000000e+01,1.7714284896850586e+01,2.5688020512461662e-02,2.8107140064239502e+00,-9.9000000000000000e+01,-9.9000000000000000e+01,-9.9000000000000000e+01,-9.9000000000000000e+01,-9.9000000000000000e+01,-9.9000000000000000e+01],
"split_indices":[0,2,1,0,2,3,0,0,0,0,0,0,0],
"split_type":[0,0,0,0,0,0,0,0,0,0,0,0,0],
"sum_hessian":[0.0,0.0,0.0,0.0,0.0,0.0,0.0,0.0,0.0,0.0,0.0,0.0,0.0],
"tree_param":{"num_deleted":"0","num_feature":"5","num_nodes":"13","size_leaf_vector":"0"}
},
{
"base_weights":[0.0,0.0,0.0,0.0,0.0,0.0,0.0,0.0,0.0],
"categories":[],"categories_nodes":[],"categories_segments":[],"categories_sizes":[],
"default_left":[true,true,true,false,true,false,false,false,false],
"id":76,
"left_children":[1,3,5,-1,7,-1,-1,-1,-1],
"loss_changes":[0.0,0.0,0.0,0.0,0.0,0.0,0.0,0.0,0.0],
"parents":[2147483647,0,0,1,1,2,2,4,4],
"right_children":[2,4,6,-1,8,-1,-1,-1,-1],
"split_conditions":[2.7781770229339600e+00,3.5074532032012939e-02,2.9077479839324951e+00,-9.9000000000000000e+01,2.5291154384613037e+00,-9.9000000000000000e+01,-9.9000000000000000e+01,-9.9000000000000000e+01,-9.9000000000000000e+01],
"split_indices":[0,3,0,0,0,0,0,0,0],
"split_type":[0,0,0,0,0,0,0,0,0],
"sum_hessian":[0.0,0.0,0.0,0.0,0.0,0.0,0.0,0.0,0.0],
"tree_param":{"num_deleted":"0","num_feature":"5","num_nodes":"9","size_leaf_vector":"0"}
},
{
"base_weights":[0.0,0.0,0.0,0.0,0.0,0.0,0.0,0.0,0.0,0.0,0.0],
"categories":[],"categories_nodes":[],"categories_segments":[],"categories_sizes":[],
"default_left":[true,true,true,true,false,false,true,false,false,false,false],
"id":77,
"left_children":[1,3,5,7,-1,-1,9,-1,-1,-1,-1],
"loss_changes":[0.0,0.0,0.0,0.0,0.0,0.0,0.0,0.0,0.0,0.0,0.0],
"parents":[2147483647,0,0,1,1,2,2,3,3,6,6],
"right_children":[2,4,6,8,-1,-1,10,-1,-1,-1,-1],
"split_conditions":[2.7343381196260452e-02,1.3000000000000000e+01,1.3190476417541504e+01,7.2857141494750977e+00,-9.9000000000000000e+01,-9.9000000000000000e+01,5.8571429252624512e+00,-9.9000000000000000e+01,-9.9000000000000000e+01,-9.9000000000000000e+01,-9.9000000000000000e+01],
"split_indices":[3,1,1,1,0,0,2,0,0,0,0],
"split_type":[0,0,0,0,0,0,0,0,0,0,0],
"sum_hessian":[0.0,0.0,0.0,0.0,0.0,0.0,0.0,0.0,0.0,0.0,0.0],
"tree_param":{"num_deleted":"0","num_feature":"5","num_nodes":"11","size_leaf_vector":"0"}
},
{
"base_weights":[0.0,0.0,0.0,0.0,0.0,0.0,0.0,0.0,0.0,0.0,0.0],
"categories":[],"categories_nodes":[],"categories_segments":[],"categories_sizes":[],
"default_left":[true,true,true,false,true,true,false,false,false,false,false],
"id":78,
"left_children":[1,3,5,-1,7,9,-1,-1,-1,-1,-1],
"loss_changes":[0.0,0.0,0.0,0.0,0.0,0.0,0.0,0.0,0.0,0.0,0.0],
"parents":[2147483647,0,0,1,1,2,2,4,4,5,5],
"right_children":[2,4,6,-1,8,10,-1,-1,-1,-1,-1],
"split_conditions":[8.2857141494750977e+00,2.9476190567016602e+01,2.3398723602294922e+00,-9.9000000000000000e+01,1.1285714149475098e+01,1.8845359086990356e+00,-9.9000000000000000e+01,-9.9000000000000000e+01,-9.9000000000000000e+01,-9.9000000000000000e+01,-9.9000000000000000e+01],
"split_indices":[2,2,0,0,1,0,0,0,0,0,0],
"split_type":[0,0,0,0,0,0,0,0,0,0,0],
"sum_hessian":[0.0,0.0,0.0,0.0,0.0,0.0,0.0,0.0,0.0,0.0,0.0],
"tree_param":{"num_deleted":"0","num_feature":"5","num_nodes":"11","size_leaf_vector":"0"}
},
{
"base_weights":[0.0,0.0,0.0,0.0,0.0,0.0,0.0],
"categories":[],"categories_nodes":[],"categories_segments":[],"categories_sizes":[],
"default_left":[true,false,true,false,true,false,false],
"id":79,
"left_children":[1,-1,3,-1,5,-1,-1],
"loss_changes":[0.0,0.0,0.0,0.0,0.0,0.0,0.0],
"parents":[2147483647,0,0,2,2,4,4],
"right_children":[2,-1,4,-1,6,-1,-1],
"split_conditions":[3.9857143402099609e+01,-9.9000000000000000e+01,1.6899157762527466e+00,-9.9000000000000000e+01,2.4413659572601318e+00,-9.9000000000000000e+01,-9.9000000000000000e+01],
"split_indices":[2,0,0,0,0,0,0],
"split_type":[0,0,0,0,0,0,0],
"sum_hessian":[0.0,0.0,0.0,0.0,0.0,0.0,0.0],
"tree_param":{"num_deleted":"0","num_feature":"5","num_nodes":"7","size_leaf_vector":"0"}
},
{
"base_weights":[0.0,0.0,0.0,0.0,0.0,0.0,0.0,0.0,0.0],
"categories":[],"categories_nodes":[],"categories_segments":[],"categories_sizes":[],
"default_left":[true,true,true,false,false,false,true,false,false],
"id":80,
"left_children":[1,3,5,-1,-1,-1,7,-1,-1],
"loss_changes":[0.0,0.0,0.0,0.0,0.0,0.0,0.0,0.0,0.0],
"parents":[2147483647,0,0,1,1,2,2,6,6],
"right_children":[2,4,6,-1,-1,-1,8,-1,-1],
"split_conditions":[2.6270189285278320e+00,3.5074532032012939e-02,1.3190476417541504e+01,-9.9000000000000000e+01,-9.9000000000000000e+01,-9.9000000000000000e+01,3.3038914203643799e-02,-9.9000000000000000e+01,-9.9000000000000000e+01],
"split_indices":[0,3,1,0,0,0,3,0,0],
"split_type":[0,0,0,0,0,0,0,0,0],
"sum_hessian":[0.0,0.0,0.0,0.0,0.0,0.0,0.0,0.0,0.0],
"tree_param":{"num_deleted":"0","num_feature":"5","num_nodes":"9","size_leaf_vector":"0"}
},
{
"base_weights":[0.0,0.0,0.0,0.0,0.0,0.0,0.0,0.0,0.0,0.0,0.0],
"categories":[],"categories_nodes":[],"categories_segments":[],"categories_sizes":[],
"default_left":[true,true,true,false,true,true,false,false,false,false,false],
"id":81,
"left_children":[1,3,5,-1,7,9,-1,-1,-1,-1,-1],
"loss_changes":[0.0,0.0,0.0,0.0,0.0,0.0,0.0,0.0,0.0,0.0,0.0],
"parents":[2147483647,0,0,1,1,2,2,4,4,5,5],
"right_children":[2,4,6,-1,8,10,-1,-1,-1,-1,-1],
"split_conditions":[3.0142856597900391e+01,9.5714282989501953e+00,1.1666666984558105e+01,-9.9000000000000000e+01,3.6000000000000000e+01,8.1428575515747070e+00,-9.9000000000000000e+01,-9.9000000000000000e+01,-9.9000000000000000e+01,-9.9000000000000000e+01,-9.9000000000000000e+01],
"split_indices":[2,1,1,0,2,1,0,0,0,0,0],
"split_type":[0,0,0,0,0,0,0,0,0,0,0],
"sum_hessian":[0.0,0.0,0.0,0.0,0.0,0.0,0.0,0.0,0.0,0.0,0.0],
"tree_param":{"num_deleted":"0","num_feature":"5","num_nodes":"11","size_leaf_vector":"0"}
},
{
"base_weights":[0.0,0.0,0.0,0.0,0.0,0.0,0.0],
"categories":[],"categories_nodes":[],"categories_segments":[],"categories_sizes":[],
"default_left":[true,false,true,false,true,false,false],
"id":82,
"left_children":[1,-1,3,-1,5,-1,-1],
"loss_changes":[0.0,0.0,0.0,0.0,0.0,0.0,0.0],
"parents":[2147483647,0,0,2,2,4,4],
"right_children":[2,-1,4,-1,6,-1,-1],
"split_conditions":[3.9857143402099609e+01,-9.9000000000000000e+01,1.6899157762527466e+00,-9.9000000000000000e+01,3.1738501042127609e-02,-9.9000000000000000e+01,-9.9000000000000000e+01],
"split_indices":[2,0,0,0,3,0,0],
"split_type":[0,0,0,0,0,0,0],
"sum_hessian":[0.0,0.0,0.0,0.0,0.0,0.0,0.0],
"tree_param":{"num_deleted":"0","num_feature":"5","num_nodes":"7","size_leaf_vector":"0"}
},
{
"base_weights":[0.0,0.0,0.0,0.0,0.0,0.0,0.0,0.0,0.0],
"categories":[],"categories_nodes":[],"categories_segments":[],"categories_sizes":[],
"default_left":[true,true,true,false,false,true,false,false,false],
"id":83,
"left_children":[1,3,5,-1,-1,7,-1,-1,-1],
"loss_changes":[0.0,0.0,0.0,0.0,0.0,0.0,0.0,0.0,0.0],
"parents":[2147483647,0,0,1,1,2,2,5,5],
"right_children":[2,4,6,-1,-1,8,-1,-1,-1],
"split_conditions":[2.6270189285278320e+00,3.5074532032012939e-02,8.2857141494750977e+00,-9.9000000000000000e+01,-9.9000000000000000e+01,2.8789737224578857e+00,-9.9000000000000000e+01,-9.9000000000000000e+01,-9.9000000000000000e+01],
"split_indices":[0,3,2,0,0,0,0,0,0],
"split_type":[0,0,0,0,0,0,0,0,0],
"sum_hessian":[0.0,0.0,0.0,0.0,0.0,0.0,0.0,0.0,0.0],
"tree_param":{"num_deleted":"0","num_feature":"5","num_nodes":"9","size_leaf_vector":"0"}
},
{
"base_weights":[0.0,0.0,0.0,0.0,0.0,0.0,0.0],
"categories":[],"categories_nodes":[],"categories_segments":[],"categories_sizes":[],
"default_left":[true,true,false,true,false,false,false],
"id":84,
"left_children":[1,3,-1,5,-1,-1,-1],
"loss_changes":[0.0,0.0,0.0,0.0,0.0,0.0,0.0],
"parents":[2147483647,0,0,1,1,3,3],
"right_children":[2,4,-1,6,-1,-1,-1],
"split_conditions":[2.8537561893463135e+00,4.2317945510149002e-02,-9.9000000000000000e+01,2.4433760643005371e+00,-9.9000000000000000e+01,-9.9000000000000000e+01,-9.9000000000000000e+01],
"split_indices":[0,3,0,0,0,0,0],
"split_type":[0,0,0,0,0,0,0],
"sum_hessian":[0.0,0.0,0.0,0.0,0.0,0.0,0.0],
"tree_param":{"num_deleted":"0","num_feature":"5","num_nodes":"7","size_leaf_vector":"0"}
},
{
"base_weights":[0.0,0.0,0.0,0.0,0.0,0.0,0.0,0.0,0.0,0.0,0.0,0.0,0.0],
"categories":[],"categories_nodes":[],"categories_segments":[],"categories_sizes":[],
"default_left":[true,true,true,true,true,true,false,false,false,false,false,false,false],
"id":85,
"left_children":[1,3,5,7,9,11,-1,-1,-1,-1,-1,-1,-1],
"loss_changes":[0.0,0.0,0.0,0.0,0.0,0.0,0.0,0.0,0.0,0.0,0.0,0.0,0.0],
"parents":[2147483647,0,0,1,1,2,2,3,3,4,4,5,5],
"right_children":[2,4,6,8,10,12,-1,-1,-1,-1,-1,-1,-1],
"split_conditions":[2.4002816677093506e+00,1.9323384761810303e+00,1.0142857551574707e+01,9.5714282989501953e+00,1.5571428298950195e+01,2.5688020512461662e-02,-9.9000000000000000e+01,-9.9000000000000000e+01,-9.9000000000000000e+01,-9.9000000000000000e+01,-9.9000000000000000e+01,-9.9000000000000000e+01,-9.9000000000000000e+01],
"split_indices":[0,0,1,1,2,3,0,0,0,0,0,0,0],
"split_type":[0,0,0,0,0,0,0,0,0,0,0,0,0],
"sum_hessian":[0.0,0.0,0.0,0.0,0.0,0.0,0.0,0.0,0.0,0.0,0.0,0.0,0.0],
"tree_param":{"num_deleted":"0","num_feature":"5","num_nodes":"13","size_leaf_vector":"0"}
},
{
"base_weights":[0.0,0.0,0.0,0.0,0.0],
"categories":[],"categories_nodes":[],"categories_segments":[],"categories_sizes":[],
"default_left":[true,true,false,false,false],
"id":86,
"left_children":[1,3,-1,-1,-1],
"loss_changes":[0.0,0.0,0.0,0.0,0.0],
"parents":[2147483647,0,0,1,1],
"right_children":[2,4,-1,-1,-1],
"split_conditions":[1.6444909572601318e+00,5.8571429252624512e+00,-9.9000000000000000e+01,-9.9000000000000000e+01,-9.9000000000000000e+01],
"split_indices":[0,2,0,0,0],
"split_type":[0,0,0,0,0],
"sum_hessian":[0.0,0.0,0.0,0.0,0.0],
"tree_param":{"num_deleted":"0","num_feature":"5","num_nodes":"5","size_leaf_vector":"0"}
},
{
"base_weights":[0.0,0.0,0.0,0.0,0.0,0.0,0.0,0.0,0.0],
"categories":[],"categories_nodes":[],"categories_segments":[],"categories_sizes":[],
"default_left":[true,true,true,false,false,true,false,false,false],
"id":87,
"left_children":[1,3,5,-1,-1,7,-1,-1,-1],
"loss_changes":[0.0,0.0,0.0,0.0,0.0,0.0,0.0,0.0,0.0],
"parents":[2147483647,0,0,1,1,2,2,5,5],
"right_children":[2,4,6,-1,-1,8,-1,-1,-1],
"split_conditions":[2.5285715103149414e+01,5.2857141494750977e+00,2.1874705329537392e-02,-9.9000000000000000e+01,-9.9000000000000000e+01,1.3000000000000000e+01,-9.9000000000000000e+01,-9.9000000000000000e+01,-9.9000000000000000e+01],
"split_indices":[2,1,3,0,0,1,0,0,0],
"split_type":[0,0,0,0,0,0,0,0,0],
"sum_hessian":[0.0,0.0,0.0,0.0,0.0,0.0,0.0,0.0,0.0],
"tree_param":{"num_deleted":"0","num_feature":"5","num_nodes":"9","size_leaf_vector":"0"}
},
{
"base_weights":[0.0,0.0,0.0,0.0,0.0,0.0,0.0],
"categories":[],"categories_nodes":[],"categories_segments":[],"categories_sizes":[],
"default_left":[true,true,false,true,false,false,false],
"id":88,
"left_children":[1,3,-1,5,-1,-1,-1],
"loss_changes":[0.0,0.0,0.0,0.0,0.0,0.0,0.0],
"parents":[2147483647,0,0,1,1,3,3],
"right_children":[2,4,-1,6,-1,-1,-1],
"split_conditions":[2.8537561893463135e+00,4.2317945510149002e-02,-9.9000000000000000e+01,1.0714285850524902e+01,-9.9000000000000000e+01,-9.9000000000000000e+01,-9.9000000000000000e+01],
"split_indices":[0,3,0,2,0,0,0],
"split_type":[0,0,0,0,0,0,0],
"sum_hessian":[0.0,0.0,0.0,0.0,0.0,0.0,0.0],
"tree_param":{"num_deleted":"0","num_feature":"5","num_nodes":"7","size_leaf_vector":"0"}
},
{
"base_weights":[0.0,0.0,0.0,0.0,0.0,0.0,0.0,0.0,0.0,0.0,0.0,0.0,0.0],
"categories":[],"categories_nodes":[],"categories_segments":[],"categories_sizes":[],
"default_left":[true,true,true,false,true,true,true,false,false,false,false,false,false],
"id":89,
"left_children":[1,3,5,-1,7,9,11,-1,-1,-1,-1,-1,-1],
"loss_changes":[0.0,0.0,0.0,0.0,0.0,0.0,0.0,0.0,0.0,0.0,0.0,0.0,0.0],
"parents":[2147483647,0,0,1,1,2,2,4,4,5,5,6,6],
"right_children":[2,4,6,-1,8,10,12,-1,-1,-1,-1,-1,-1],
"split_conditions":[2.0428571701049805e+01,2.8380952835083008e+01,8.1428575515747070e+00,-9.9000000000000000e+01,1.1285714149475098e+01,1.6141455620527267e-02,5.2857141494750977e+00,-9.9000000000000000e+01,-9.9000000000000000e+01,-9.9000000000000000e+01,-9.9000000000000000e+01,-9.9000000000000000e+01,-9.9000000000000000e+01],
"split_indices":[2,2,1,0,1,3,2,0,0,0,0,0,0],
"split_type":[0,0,0,0,0,0,0,0,0,0,0,0,0],
"sum_hessian":[0.0,0.0,0.0,0.0,0.0,0.0,0.0,0.0,0.0,0.0,0.0,0.0,0.0],
"tree_param":{"num_deleted":"0","num_feature":"5","num_nodes":"13","size_leaf_vector":"0"}
},
{
"base_weights":[0.0,0.0,0.0,0.0,0.0,0.0,0.0,0.0,0.0,0.0,0.0],
"categories":[],"categories_nodes":[],"categories_segments":[],"categories_sizes":[],
"default_left":[true,true,true,false,true,true,false,false,false,false,false],
"id":90,
"left_children":[1,3,5,-1,7,9,-1,-1,-1,-1,-1],
"loss_changes":[0.0,0.0,0.0,0.0,0.0,0.0,0.0,0.0,0.0,0.0,0.0],
"parents":[2147483647,0,0,1,1,2,2,4,4,5,5],
"right_children":[2,4,6,-1,8,10,-1,-1,-1,-1,-1],
"split_conditions":[8.2857141494750977e+00,2.7781770229339600e+00,2.3398723602294922e+00,-9.9000000000000000e+01,3.3571430206298828e+01,1.8845359086990356e+00,-9.9000000000000000e+01,-9.9000000000000000e+01,-9.9000000000000000e+01,-9.9000000000000000e+01,-9.9000000000000000e+01],
"split_indices":[2,0,0,0,2,0,0,0,0,0,0],
"split_type":[0,0,0,0,0,0,0,0,0,0,0],
"sum_hessian":[0.0,0.0,0.0,0.0,0.0,0.0,0.0,0.0,0.0,0.0,0.0],
"tree_param":{"num_deleted":"0","num_feature":"5","num_nodes":"11","size_leaf_vector":"0"}
},
{
"base_weights":[0.0,0.0,0.0,0.0,0.0,0.0,0.0,0.0,0.0,0.0,0.0,0.0,0.0],
"categories":[],"categories_nodes":[],"categories_segments":[],"categories_sizes":[],
"default_left":[true,true,true,true,true,true,false,false,false,false,false,false,false],
"id":91,
"left_children":[1,3,5,7,9,11,-1,-1,-1,-1,-1,-1,-1],
"loss_changes":[0.0,0.0,0.0,0.0,0.0,0.0,0.0,0.0,0.0,0.0,0.0,0.0,0.0],
"parents":[2147483647,0,0,1,1,2,2,3,3,4,4,5,5],
"right_children":[2,4,6,8,10,12,-1,-1,-1,-1,-1,-1,-1],
"split_conditions":[8.2857141494750977e+00,1.3000000000000000e+01,2.7020070552825928e+00,3.0110461637377739e-02,5.1904764175415039e+00,1.0666666984558105e+01,-9.9000000000000000e+01,-9.9000000000000000e+01,-9.9000000000000000e+01,-9.9000000000000000e+01,-9.9000000000000000e+01,-9.9000000000000000e+01,-9.9000000000000000e+01],
"split_indices":[2,1,0,3,1,1,0,0,0,0,0,0,0],
"split_type":[0,0,0,0,0,0,0,0,0,0,0,0,0],
"sum_hessian":[0.0,0.0,0.0,0.0,0.0,0.0,0.0,0.0,0.0,0.0,0.0,0.0,0.0],
"tree_param":{"num_deleted":"0","num_feature":"5","num_nodes":"13","size_leaf_vector":"0"}
},
{
"base_weights":[0.0,0.0,0.0,0.0,0.0,0.0,0.0,0.0,0.0],
"categories":[],"categories_nodes":[],"categories_segments":[],"categories_sizes":[],
"default_left":[true,true,true,false,false,true,false,false,false],
"id":92,
"left_children":[1,3,5,-1,-1,7,-1,-1,-1],
"loss_changes":[0.0,0.0,0.0,0.0,0.0,0.0,0.0,0.0,0.0],
"parents":[2147483647,0,0,1,1,2,2,5,5],
"right_children":[2,4,6,-1,-1,8,-1,-1,-1],
"split_conditions":[8.2857141494750977e+00,1.6444909572601318e+00,2.3398723602294922e+00,-9.9000000000000000e+01,-9.9000000000000000e+01,5.2857141494750977e+00,-9.9000000000000000e+01,-9.9000000000000000e+01,-9.9000000000000000e+01],
"split_indices":[2,0,0,0,0,2,0,0,0],
"split_type":[0,0,0,0,0,0,0,0,0],
"sum_hessian":[0.0,0.0,0.0,0.0,0.0,0.0,0.0,0.0,0.0],
"tree_param":{"num_deleted":"0","num_feature":"5","num_nodes":"9","size_leaf_vector":"0"}
},
{
"base_weights":[0.0,0.0,0.0,0.0,0.0],
"categories":[],"categories_nodes":[],"categories_segments":[],"categories_sizes":[],
"default_left":[true,true,false,false,false],
"id":93,
"left_children":[1,3,-1,-1,-1],
"loss_changes":[0.0,0.0,0.0,0.0,0.0],
"parents":[2147483647,0,0,1,1],
"right_children":[2,4,-1,-1,-1],
"split_conditions":[2.8537561893463135e+00,4.2317945510149002e-02,-9.9000000000000000e+01,-9.9000000000000000e+01,-9.9000000000000000e+01],
"split_indices":[0,3,0,0,0],
"split_type":[0,0,0,0,0],
"sum_hessian":[0.0,0.0,0.0,0.0,0.0],
"tree_param":{"num_deleted":"0","num_feature":"5","num_nodes":"5","size_leaf_vector":"0"}
},
{
"base_weights":[0.0,0.0,0.0,0.0,0.0,0.0,0.0,0.0,0.0,0.0,0.0],
"categories":[],"categories_nodes":[],"categories_segments":[],"categories_sizes":[],
"default_left":[true,true,true,false,true,false,true,false,false,false,false],
"id":94,
"left_children":[1,3,5,-1,7,-1,9,-1,-1,-1,-1],
"loss_changes":[0.0,0.0,0.0,0.0,0.0,0.0,0.0,0.0,0.0,0.0,0.0],
"parents":[2147483647,0,0,1,1,2,2,4,4,6,6],
"right_children":[2,4,6,-1,8,-1,10,-1,-1,-1,-1],
"split_conditions":[1.1285714149475098e+01,1.0047618865966797e+01,1.5571428298950195e+01,-9.9000000000000000e+01,9.1428575515747070e+00,-9.9000000000000000e+01,1.5571428298950195e+01,-9.9000000000000000e+01,-9.9000000000000000e+01,-9.9000000000000000e+01,-9.9000000000000000e+01],
"split_indices":[1,1,1,0,1,0,2,0,0,0,0],
"split_type":[0,0,0,0,0,0,0,0,0,0,0],
"sum_hessian":[0.0,0.0,0.0,0.0,0.0,0.0,0.0,0.0,0.0,0.0,0.0],
"tree_param":{"num_deleted":"0","num_feature":"5","num_nodes":"11","size_leaf_vector":"0"}
},
{
"base_weights":[0.0,0.0,0.0,0.0,0.0,0.0,0.0],
"categories":[],"categories_nodes":[],"categories_segments":[],"categories_sizes":[],
"default_left":[true,true,false,true,false,false,false],
"id":95,
"left_children":[1,3,-1,5,-1,-1,-1],
"loss_changes":[0.0,0.0,0.0,0.0,0.0,0.0,0.0],
"parents":[2147483647,0,0,1,1,3,3],
"right_children":[2,4,-1,6,-1,-1,-1],
"split_conditions":[4.4285712242126465e+00,1.6406048089265823e-02,-9.9000000000000000e+01,1.3280962593853474e-02,-9.9000000000000000e+01,-9.9000000000000000e+01,-9.9000000000000000e+01],
"split_indices":[1,3,0,3,0,0,0],
"split_type":[0,0,0,0,0,0,0],
"sum_hessian":[0.0,0.0,0.0,0.0,0.0,0.0,0.0],
"tree_param":{"num_deleted":"0","num_feature":"5","num_nodes":"7","size_leaf_vector":"0"}
},
{
"base_weights":[0.0,0.0,0.0,0.0,0.0,0.0,0.0,0.0,0.0,0.0,0.0],
"categories":[],"categories_nodes":[],"categories_segments":[],"categories_sizes":[],
"default_left":[true,true,true,false,true,true,false,false,false,false,false],
"id":96,
"left_children":[1,3,5,-1,7,9,-1,-1,-1,-1,-1],
"loss_changes":[0.0,0.0,0.0,0.0,0.0,0.0,0.0,0.0,0.0,0.0,0.0],
"parents":[2147483647,0,0,1,1,2,2,4,4,5,5],
"right_children":[2,4,6,-1,8,10,-1,-1,-1,-1,-1],
"split_conditions":[3.2812055200338364e-02,1.0142857551574707e+01,2.9683658853173256e-02,-9.9000000000000000e+01,2.2857143402099609e+01,1.3190476417541504e+01,-9.9000000000000000e+01,-9.9000000000000000e+01,-9.9000000000000000e+01,-9.9000000000000000e+01,-9.9000000000000000e+01],
"split_indices":[3,1,3,0,2,1,0,0,0,0,0],
"split_type":[0,0,0,0,0,0,0,0,0,0,0],
"sum_hessian":[0.0,0.0,0.0,0.0,0.0,0.0,0.0,0.0,0.0,0.0,0.0],
"tree_param":{"num_deleted":"0","num_feature":"5","num_nodes":"11","size_leaf_vector":"0"}
},
{
"base_weights":[0.0,0.0,0.0,0.0,0.0,0.0,0.0,0.0,0.0,0.0,0.0],
"categories":[],"categories_nodes":[],"categories_segments":[],"categories_sizes":[],
"default_left":[true,true,true,false,true,false,true,false,false,false,false],
"id":97,
"left_children":[1,3,5,-1,7,-1,9,-1,-1,-1,-1],
"loss_changes":[0.0,0.0,0.0,0.0,0.0,0.0,0.0,0.0,0.0,0.0,0.0],
"parents":[2147483647,0,0,1,1,2,2,4,4,6,6],
"right_children":[2,4,6,-1,8,-1,10,-1,-1,-1,-1],
"split_conditions":[1.1285714149475098e+01,1.0047618865966797e+01,1.5571428298950195e+01,-9.9000000000000000e+01,1.5571428298950195e+01,-9.9000000000000000e+01,1.5571428298950195e+01,-9.9000000000000000e+01,-9.9000000000000000e+01,-9.9000000000000000e+01,-9.9000000000000000e+01],
"split_indices":[1,1,1,0,2,0,2,0,0,0,0],
"split_type":[0,0,0,0,0,0,0,0,0,0,0],
"sum_hessian":[0.0,0.0,0.0,0.0,0.0,0.0,0.0,0.0,0.0,0.0,0.0],
"tree_param":{"num_deleted":"0","num_feature":"5","num_nodes":"11","size_leaf_vector":"0"}
},
{
"base_weights":[0.0,0.0,0.0,0.0,0.0,0.0,0.0,0.0,0.0],
"categories":[],"categories_nodes":[],"categories_segments":[],"categories_sizes":[],
"default_left":[true,true,true,false,false,false,true,false,false],
"id":98,
"left_children":[1,3,5,-1,-1,-1,7,-1,-1],
"loss_changes":[0.0,0.0,0.0,0.0,0.0,0.0,0.0,0.0,0.0],
"parents":[2147483647,0,0,1,1,2,2,6,6],
"right_children":[2,4,6,-1,-1,-1,8,-1,-1],
"split_conditions":[1.1285714149475098e+01,3.2571430206298828e+01,1.5571428298950195e+01,-9.9000000000000000e+01,-9.9000000000000000e+01,-9.9000000000000000e+01,2.7714284896850586e+01,-9.9000000000000000e+01,-9.9000000000000000e+01],
"split_indices":[1,2,1,0,0,0,2,0,0],
"split_type":[0,0,0,0,0,0,0,0,0],
"sum_hessian":[0.0,0.0,0.0,0.0,0.0,0.0,0.0,0.0,0.0],
"tree_param":{"num_deleted":"0","num_feature":"5","num_nodes":"9","size_leaf_vector":"0"}
},
{
"base_weights":[0.0,0.0,0.0,0.0,0.0,0.0,0.0,0.0,0.0],
"categories":[],"categories_nodes":[],"categories_segments":[],"categories_sizes":[],
"default_left":[true,true,false,true,true,false,false,false,false],
"id":99,
"left_children":[1,3,-1,5,7,-1,-1,-1,-1],
"loss_changes":[0.0,0.0,0.0,0.0,0.0,0.0,0.0,0.0,0.0],
"parents":[2147483647,0,0,1,1,3,3,4,4],
"right_children":[2,4,-1,6,8,-1,-1,-1,-1],
"split_conditions":[4.4285712242126465e+00,1.6406048089265823e-02,-9.9000000000000000e+01,1.3280962593853474e-02,1.3142857551574707e+01,-9.9000000000000000e+01,-9.9000000000000000e+01,-9.9000000000000000e+01,-9.9000000000000000e+01],
"split_indices":[1,3,0,3,2,0,0,0,0],
"split_type":[0,0,0,0,0,0,0,0,0],
"sum_hessian":[0.0,0.0,0.0,0.0,0.0,0.0,0.0,0.0,0.0],
"tree_param":{"num_deleted":"0","num_feature":"5","num_nodes":"9","size_leaf_vector":"0"}
},
{
"base_weights":[0.0,0.0,0.0,0.0,0.0,0.0,0.0,0.0,0.0],
"categories":[],"categories_nodes":[],"categories_segments":[],"categories_sizes":[],
"default_left":[true,true,true,false,true,false,false,false,false],
"id":100,
"left_children":[1,3,5,-1,7,-1,-1,-1,-1],
"loss_changes":[0.0,0.0,0.0,0.0,0.0,0.0,0.0,0.0,0.0],
"parents":[2147483647,0,0,1,1,2,2,4,4],
"right_children":[2,4,6,-1,8,-1,-1,-1,-1],
"split_conditions":[3.0142856597900391e+01,2.2428452968597412e+00,1.6899157762527466e+00,-9.9000000000000000e+01,1.8892328739166260e+00,-9.9000000000000000e+01,-9.9000000000000000e+01,-9.9000000000000000e+01,-9.9000000000000000e+01],
"split_indices":[2,0,0,0,0,0,0,0,0],
"split_type":[0,0,0,0,0,0,0,0,0],
"sum_hessian":[0.0,0.0,0.0,0.0,0.0,0.0,0.0,0.0,0.0],
"tree_param":{"num_deleted":"0","num_feature":"5","num_nodes":"9","size_leaf_vector":"0"}
},
{
"base_weights":[0.0,0.0,0.0,0.0,0.0,0.0,0.0],
"categories":[],"categories_nodes":[],"categories_segments":[],"categories_sizes":[],
"default_left":[true,false,true,true,false,false,false],
"id":101,
"left_children":[1,-1,3,5,-1,-1,-1],
"loss_changes":[0.0,0.0,0.0,0.0,0.0,0.0,0.0],
"parents":[2147483647,0,0,2,2,3,3],
"right_children":[2,-1,4,6,-1,-1,-1],
"split_conditions":[3.9857143402099609e+01,-9.9000000000000000e+01,4.4285712242126465e+00,3.7239931523799896e-02,-9.9000000000000000e+01,-9.9000000000000000e+01,-9.9000000000000000e+01],
"split_indices":[2,0,1,3,0,0,0],
"split_type":[0,0,0,0,0,0,0],
"sum_hessian":[0.0,0.0,0.0,0.0,0.0,0.0,0.0],
"tree_param":{"num_deleted":"0","num_feature":"5","num_nodes":"7","size_leaf_vector":"0"}
},
{
"base_weights":[0.0,0.0,0.0,0.0,0.0,0.0,0.0,0.0,0.0,0.0,0.0,0.0,0.0],
"categories":[],"categories_nodes":[],"categories_segments":[],"categories_sizes":[],
"default_left":[true,true,true,true,true,false,true,false,false,false,false,false,false],
"id":102,
"left_children":[1,3,5,7,9,-1,11,-1,-1,-1,-1,-1,-1],
"loss_changes":[0.0,0.0,0.0,0.0,0.0,0.0,0.0,0.0,0.0,0.0,0.0,0.0,0.0],
"parents":[2147483647,0,0,1,1,2,2,3,3,4,4,6,6],
"right_children":[2,4,6,8,10,-1,12,-1,-1,-1,-1,-1,-1],
"split_conditions":[2.6270189285278320e+00,2.5053236633539200e-02,2.8969528675079346e+00,8.6190471649169922e+00,1.3000000000000000e+01,-9.9000000000000000e+01,2.7683739662170410e+00,-9.9000000000000000e+01,-9.9000000000000000e+01,-9.9000000000000000e+01,-9.9000000000000000e+01,-9.9000000000000000e+01,-9.9000000000000000e+01],
"split_indices":[0,3,0,1,1,0,0,0,0,0,0,0,0],
"split_type":[0,0,0,0,0,0,0,0,0,0,0,0,0],
"sum_hessian":[0.0,0.0,0.0,0.0,0.0,0.0,0.0,0.0,0.0,0.0,0.0,0.0,0.0],
"tree_param":{"num_deleted":"0","num_feature":"5","num_nodes":"13","size_leaf_vector":"0"}
},
{
"base_weights":[0.0,0.0,0.0,0.0,0.0,0.0,0.0],
"categories":[],"categories_nodes":[],"categories_segments":[],"categories_sizes":[],
"default_left":[true,true,false,true,false,false,false],
"id":103,
"left_children":[1,3,-1,5,-1,-1,-1],
"loss_changes":[0.0,0.0,0.0,0.0,0.0,0.0,0.0],
"parents":[2147483647,0,0,1,1,3,3],
"right_children":[2,4,-1,6,-1,-1,-1],
"split_conditions":[2.8537561893463135e+00,4.2317945510149002e-02,-9.9000000000000000e+01,2.4433760643005371e+00,-9.9000000000000000e+01,-9.9000000000000000e+01,-9.9000000000000000e+01],
"split_indices":[0,3,0,0,0,0,0],
"split_type":[0,0,0,0,0,0,0],
"sum_hessian":[0.0,0.0,0.0,0.0,0.0,0.0,0.0],
"tree_param":{"num_deleted":"0","num_feature":"5","num_nodes":"7","size_leaf_vector":"0"}
},
{
"base_weights":[0.0,0.0,0.0,0.0,0.0,0.0,0.0,0.0,0.0,0.0,0.0],
"categories":[],"categories_nodes":[],"categories_segments":[],"categories_sizes":[],
"default_left":[true,true,true,false,false,true,true,false,false,false,false],
"id":104,
"left_children":[1,3,5,-1,-1,7,9,-1,-1,-1,-1],
"loss_changes":[0.0,0.0,0.0,0.0,0.0,0.0,0.0,0.0,0.0,0.0,0.0],
"parents":[2147483647,0,0,1,1,2,2,5,5,6,6],
"right_children":[2,4,6,-1,-1,8,10,-1,-1,-1,-1],
"split_conditions":[2.4002816677093506e+00,3.4470189362764359e-02,1.0142857551574707e+01,-9.9000000000000000e+01,-9.9000000000000000e+01,2.6879339218139648e+00,2.8034572601318359e+00,-9.9000000000000000e+01,-9.9000000000000000e+01,-9.9000000000000000e+01,-9.9000000000000000e+01],
"split_indices":[0,3,1,0,0,0,0,0,0,0,0],
"split_type":[0,0,0,0,0,0,0,0,0,0,0],
"sum_hessian":[0.0,0.0,0.0,0.0,0.0,0.0,0.0,0.0,0.0,0.0,0.0],
"tree_param":{"num_deleted":"0","num_feature":"5","num_nodes":"11","size_leaf_vector":"0"}
},
{
"base_weights":[0.0,0.0,0.0,0.0,0.0,0.0,0.0,0.0,0.0,0.0,0.0],
"categories":[],"categories_nodes":[],"categories_segments":[],"categories_sizes":[],
"default_left":[true,true,true,true,false,true,false,false,false,false,false],
"id":105,
"left_children":[1,3,5,7,-1,9,-1,-1,-1,-1,-1],
"loss_changes":[0.0,0.0,0.0,0.0,0.0,0.0,0.0,0.0,0.0,0.0,0.0],
"parents":[2147483647,0,0,1,1,2,2,3,3,5,5],
"right_children":[2,4,6,8,-1,10,-1,-1,-1,-1,-1],
"split_conditions":[7.8571429252624512e+00,1.0714285850524902e+01,5.8571429252624512e+00,2.8571428298950195e+01,-9.9000000000000000e+01,3.7456162273883820e-02,-9.9000000000000000e+01,-9.9000000000000000e+01,-9.9000000000000000e+01,-9.9000000000000000e+01,-9.9000000000000000e+01],
"split_indices":[1,2,2,2,0,3,0,0,0,0,0],
"split_type":[0,0,0,0,0,0,0,0,0,0,0],
"sum_hessian":[0.0,0.0,0.0,0.0,0.0,0.0,0.0,0.0,0.0,0.0,0.0],
"tree_param":{"num_deleted":"0","num_feature":"5","num_nodes":"11","size_leaf_vector":"0"}
},
{
"base_weights":[0.0,0.0,0.0,0.0,0.0],
"categories":[],"categories_nodes":[],"categories_segments":[],"categories_sizes":[],
"default_left":[true,true,false,false,false],
"id":106,
"left_children":[1,3,-1,-1,-1],
"loss_changes":[0.0,0.0,0.0,0.0,0.0],
"parents":[2147483647,0,0,1,1],
"right_children":[2,4,-1,-1,-1],
"split_conditions":[2.8537561893463135e+00,4.2317945510149002e-02,-9.9000000000000000e+01,-9.9000000000000000e+01,-9.9000000000000000e+01],
"split_indices":[0,3,0,0,0],
"split_type":[0,0,0,0,0],
"sum_hessian":[0.0,0.0,0.0,0.0,0.0],
"tree_param":{"num_deleted":"0","num_feature":"5","num_nodes":"5","size_leaf_vector":"0"}
},
{
"base_weights":[0.0,0.0,0.0,0.0,0.0,0.0,0.0,0.0,0.0],
"categories":[],"categories_nodes":[],"categories_segments":[],"categories_sizes":[],
"default_left":[true,false,true,true,true,false,false,false,false],
"id":107,
"left_children":[1,-1,3,5,7,-1,-1,-1,-1],
"loss_changes":[0.0,0.0,0.0,0.0,0.0,0.0,0.0,0.0,0.0],
"parents":[2147483647,0,0,2,2,3,3,4,4],
"right_children":[2,-1,4,6,8,-1,-1,-1,-1],
"split_conditions":[3.9857143402099609e+01,-9.9000000000000000e+01,2.7857477664947510e+00,2.9006032943725586e+00,1.6586045026779175e+00,-9.9000000000000000e+01,-9.9000000000000000e+01,-9.9000000000000000e+01,-9.9000000000000000e+01],
"split_indices":[2,0,0,0,0,0,0,0,0],
"split_type":[0,0,0,0,0,0,0,0,0],
"sum_hessian":[0.0,0.0,0.0,0.0,0.0,0.0,0.0,0.0,0.0],
"tree_param":{"num_deleted":"0","num_feature":"5","num_nodes":"9","size_leaf_vector":"0"}
},
{
"base_weights":[0.0,0.0,0.0,0.0,0.0],
"categories":[],"categories_nodes":[],"categories_segments":[],"categories_sizes":[],
"default_left":[true,true,false,false,false],
"id":108,
"left_children":[1,3,-1,-1,-1],
"loss_changes":[0.0,0.0,0.0,0.0,0.0],
"parents":[2147483647,0,0,1,1],
"right_children":[2,4,-1,-1,-1],
"split_conditions":[1.6444909572601318e+00,5.8571429252624512e+00,-9.9000000000000000e+01,-9.9000000000000000e+01,-9.9000000000000000e+01],
"split_indices":[0,2,0,0,0],
"split_type":[0,0,0,0,0],
"sum_hessian":[0.0,0.0,0.0,0.0,0.0],
"tree_param":{"num_deleted":"0","num_feature":"5","num_nodes":"5","size_leaf_vector":"0"}
},
{
"base_weights":[0.0,0.0,0.0,0.0,0.0,0.0,0.0,0.0,0.0],
"categories":[],"categories_nodes":[],"categories_segments":[],"categories_sizes":[],
"default_left":[true,true,false,true,true,false,false,false,false],
"id":109,
"left_children":[1,3,-1,5,7,-1,-1,-1,-1],
"loss_changes":[0.0,0.0,0.0,0.0,0.0,0.0,0.0,0.0,0.0],
"parents":[2147483647,0,0,1,1,3,3,4,4],
"right_children":[2,4,-1,6,8,-1,-1,-1,-1],
"split_conditions":[2.8537561893463135e+00,8.2857141494750977e+00,-9.9000000000000000e+01,2.5241730213165283e+00,3.3571430206298828e+01,-9.9000000000000000e+01,-9.9000000000000000e+01,-9.9000000000000000e+01,-9.9000000000000000e+01],
"split_indices":[0,2,0,0,2,0,0,0,0],
"split_type":[0,0,0,0,0,0,0,0,0],
"sum_hessian":[0.0,0.0,0.0,0.0,0.0,0.0,0.0,0.0,0.0],
"tree_param":{"num_deleted":"0","num_feature":"5","num_nodes":"9","size_leaf_vector":"0"}
},
{
"base_weights":[0.0,0.0,0.0],
"categories":[],"categories_nodes":[],"categories_segments":[],"categories_sizes":[],
"default_left":[true,false,false],
"id":110,
"left_children":[1,-1,-1],
"loss_changes":[0.0,0.0,0.0],
"parents":[2147483647,0,0],
"right_children":[2,-1,-1],
"split_conditions":[3.5000000000000000e+01,-9.9000000000000000e+01,-9.9000000000000000e+01],
"split_indices":[2,0,0],
"split_type":[0,0,0],
"sum_hessian":[0.0,0.0,0.0],
"tree_param":{"num_deleted":"0","num_feature":"5","num_nodes":"3","size_leaf_vector":"0"}
},
{
"base_weights":[0.0,0.0,0.0,0.0,0.0,0.0,0.0,0.0,0.0,0.0,0.0,0.0,0.0],
"categories":[],"categories_nodes":[],"categories_segments":[],"categories_sizes":[],
"default_left":[true,true,true,false,true,true,true,false,false,false,false,false,false],
"id":111,
"left_children":[1,3,5,-1,7,9,11,-1,-1,-1,-1,-1,-1],
"loss_changes":[0.0,0.0,0.0,0.0,0.0,0.0,0.0,0.0,0.0,0.0,0.0,0.0,0.0],
"parents":[2147483647,0,0,1,1,2,2,4,4,5,5,6,6],
"right_children":[2,4,6,-1,8,10,12,-1,-1,-1,-1,-1,-1],
"split_conditions":[2.4002816677093506e+00,1.6048754453659058e+00,2.7585361152887344e-02,-9.9000000000000000e+01,5.8571429252624512e+00,1.5571428298950195e+01,1.2333333015441895e+01,-9.9000000000000000e+01,-9.9000000000000000e+01,-9.9000000000000000e+01,-9.9000000000000000e+01,-9.9000000000000000e+01,-9.9000000000000000e+01],
"split_indices":[0,0,3,0,2,2,1,0,0,0,0,0,0],
"split_type":[0,0,0,0,0,0,0,0,0,0,0,0,0],
"sum_hessian":[0.0,0.0,0.0,0.0,0.0,0.0,0.0,0.0,0.0,0.0,0.0,0.0,0.0],
"tree_param":{"num_deleted":"0","num_feature":"5","num_nodes":"13","size_leaf_vector":"0"}
},
{
"base_weights":[0.0,0.0,0.0,0.0,0.0,0.0,0.0],
"categories":[],"categories_nodes":[],"categories_segments":[],"categories_sizes":[],
"default_left":[true,true,false,true,false,false,false],
"id":112,
"left_children":[1,3,-1,5,-1,-1,-1],
"loss_changes":[0.0,0.0,0.0,0.0,0.0,0.0,0.0],
"parents":[2147483647,0,0,1,1,3,3],
"right_children":[2,4,-1,6,-1,-1,-1],
"split_conditions":[4.4285712242126465e+00,1.6406048089265823e-02,-9.9000000000000000e+01,1.3280962593853474e-02,-9.9000000000000000e+01,-9.9000000000000000e+01,-9.9000000000000000e+01],
"split_indices":[1,3,0,3,0,0,0],
"split_type":[0,0,0,0,0,0,0],
"sum_hessian":[0.0,0.0,0.0,0.0,0.0,0.0,0.0],
"tree_param":{"num_deleted":"0","num_feature":"5","num_nodes":"7","size_leaf_vector":"0"}
},
{
"base_weights":[0.0,0.0,0.0,0.0,0.0,0.0,0.0],
"categories":[],"categories_nodes":[],"categories_segments":[],"categories_sizes":[],
"default_left":[true,true,false,false,true,false,false],
"id":113,
"left_children":[1,3,-1,-1,5,-1,-1],
"loss_changes":[0.0,0.0,0.0,0.0,0.0,0.0,0.0],
"parents":[2147483647,0,0,1,1,4,4],
"right_children":[2,4,-1,-1,6,-1,-1],
"split_conditions":[4.4285712242126465e+00,1.6406048089265823e-02,-9.9000000000000000e+01,-9.9000000000000000e+01,3.5000000000000000e+01,-9.9000000000000000e+01,-9.9000000000000000e+01],
"split_indices":[1,3,0,0,2,0,0],
"split_type":[0,0,0,0,0,0,0],
"sum_hessian":[0.0,0.0,0.0,0.0,0.0,0.0,0.0],
"tree_param":{"num_deleted":"0","num_feature":"5","num_nodes":"7","size_leaf_vector":"0"}
},
{
"base_weights":[0.0,0.0,0.0,0.0,0.0,0.0,0.0,0.0,0.0],
"categories":[],"categories_nodes":[],"categories_segments":[],"categories_sizes":[],
"default_left":[true,true,true,false,false,false,true,false,false],
"id":114,
"left_children":[1,3,5,-1,-1,-1,7,-1,-1],
"loss_changes":[0.0,0.0,0.0,0.0,0.0,0.0,0.0,0.0,0.0],
"parents":[2147483647,0,0,1,1,2,2,6,6],
"right_children":[2,4,6,-1,-1,-1,8,-1,-1],
"split_conditions":[3.0142856597900391e+01,2.2428452968597412e+00,1.6899157762527466e+00,-9.9000000000000000e+01,-9.9000000000000000e+01,-9.9000000000000000e+01,2.8170647621154785e+00,-9.9000000000000000e+01,-9.9000000000000000e+01],
"split_indices":[2,0,0,0,0,0,0,0,0],
"split_type":[0,0,0,0,0,0,0,0,0],
"sum_hessian":[0.0,0.0,0.0,0.0,0.0,0.0,0.0,0.0,0.0],
"tree_param":{"num_deleted":"0","num_feature":"5","num_nodes":"9","size_leaf_vector":"0"}
},
{
"base_weights":[0.0,0.0,0.0,0.0,0.0,0.0,0.0],
"categories":[],"categories_nodes":[],"categories_segments":[],"categories_sizes":[],
"default_left":[true,true,false,false,true,false,false],
"id":115,
"left_children":[1,3,-1,-1,5,-1,-1],
"loss_changes":[0.0,0.0,0.0,0.0,0.0,0.0,0.0],
"parents":[2147483647,0,0,1,1,4,4],
"right_children":[2,4,-1,-1,6,-1,-1],
"split_conditions":[2.8537561893463135e+00,8.2857141494750977e+00,-9.9000000000000000e+01,-9.9000000000000000e+01,3.3571430206298828e+01,-9.9000000000000000e+01,-9.9000000000000000e+01],
"split_indices":[0,2,0,0,2,0,0],
"split_type":[0,0,0,0,0,0,0],
"sum_hessian":[0.0,0.0,0.0,0.0,0.0,0.0,0.0],
"tree_param":{"num_deleted":"0","num_feature":"5","num_nodes":"7","size_leaf_vector":"0"}
},
{
"base_weights":[0.0,0.0,0.0,0.0,0.0,0.0,0.0],
"categories":[],"categories_nodes":[],"categories_segments":[],"categories_sizes":[],
"default_left":[true,true,false,true,false,false,false],
"id":116,
"left_children":[1,3,-1,5,-1,-1,-1],
"loss_changes":[0.0,0.0,0.0,0.0,0.0,0.0,0.0],
"parents":[2147483647,0,0,1,1,3,3],
"right_children":[2,4,-1,6,-1,-1,-1],
"split_conditions":[2.8537561893463135e+00,4.2317945510149002e-02,-9.9000000000000000e+01,2.4433760643005371e+00,-9.9000000000000000e+01,-9.9000000000000000e+01,-9.9000000000000000e+01],
"split_indices":[0,3,0,0,0,0,0],
"split_type":[0,0,0,0,0,0,0],
"sum_hessian":[0.0,0.0,0.0,0.0,0.0,0.0,0.0],
"tree_param":{"num_deleted":"0","num_feature":"5","num_nodes":"7","size_leaf_vector":"0"}
},
{
"base_weights":[0.0,0.0,0.0,0.0,0.0,0.0,0.0,0.0,0.0,0.0,0.0,0.0,0.0],
"categories":[],"categories_nodes":[],"categories_segments":[],"categories_sizes":[],
"default_left":[true,true,true,false,true,true,true,false,false,false,false,false,false],
"id":117,
"left_children":[1,3,5,-1,7,9,11,-1,-1,-1,-1,-1,-1],
"loss_changes":[0.0,0.0,0.0,0.0,0.0,0.0,0.0,0.0,0.0,0.0,0.0,0.0,0.0],
"parents":[2147483647,0,0,1,1,2,2,4,4,5,5,6,6],
"right_children":[2,4,6,-1,8,10,12,-1,-1,-1,-1,-1,-1],
"split_conditions":[2.4002816677093506e+00,1.9323384761810303e+00,1.0142857551574707e+01,-9.9000000000000000e+01,1.5571428298950195e+01,1.0714285850524902e+01,2.0428571701049805e+01,-9.9000000000000000e+01,-9.9000000000000000e+01,-9.9000000000000000e+01,-9.9000000000000000e+01,-9.9000000000000000e+01,-9.9000000000000000e+01],
"split_indices":[0,0,1,0,2,2,2,0,0,0,0,0,0],
"split_type":[0,0,0,0,0,0,0,0,0,0,0,0,0],
"sum_hessian":[0.0,0.0,0.0,0.0,0.0,0.0,0.0,0.0,0.0,0.0,0.0,0.0,0.0],
"tree_param":{"num_deleted":"0","num_feature":"5","num_nodes":"13","size_leaf_vector":"0"}
},
{
"base_weights":[0.0,0.0,0.0,0.0,0.0,0.0,0.0],
"categories":[],"categories_nodes":[],"categories_segments":[],"categories_sizes":[],
"default_left":[true,true,false,false,true,false,false],
"id":118,
"left_children":[1,3,-1,-1,5,-1,-1],
"loss_changes":[0.0,0.0,0.0,0.0,0.0,0.0,0.0],
